booster[0]:
0:[duration<615] yes=1,no=2,missing=1
	1:[nr.employed<5087.65039] yes=3,no=4,missing=3
		3:[duration<166] yes=7,no=8,missing=7
			7:[pdays<4] yes=15,no=16,missing=15
				15:[euribor3m<0.861999989] yes=31,no=32,missing=31
					31:leaf=0.272727281
					32:leaf=-0.163636371
				16:[default<1] yes=33,no=34,missing=33
					33:[euribor3m<0.656999946] yes=59,no=60,missing=59
						59:leaf=-0.0545454584
						60:leaf=-0.474846631
					34:leaf=-0
			8:[pdays<14] yes=17,no=18,missing=17
				17:[cons.price.idx<94.2070007] yes=35,no=36,missing=35
					35:[cons.price.idx<92.4049988] yes=61,no=62,missing=61
						61:leaf=0.120000005
						62:leaf=0.466666698
					36:[duration<398] yes=63,no=64,missing=63
						63:leaf=-0.171428591
						64:leaf=0.300000012
				18:[contact<1] yes=37,no=38,missing=37
					37:[duration<362] yes=65,no=66,missing=65
						65:leaf=-0.0388489217
						66:leaf=0.215094343
					38:[campaign<4] yes=67,no=68,missing=67
						67:leaf=-0.456
						68:leaf=-0.0666666701
		4:[duration<458] yes=9,no=10,missing=9
			9:[cons.conf.idx<-48.5499992] yes=19,no=20,missing=19
				19:[duration<221] yes=39,no=40,missing=39
					39:[age<30] yes=69,no=70,missing=69
						69:leaf=0.150000006
						70:leaf=-0.225000009
					40:leaf=0.360000014
				20:[month<8] yes=41,no=42,missing=41
					41:[age<64] yes=71,no=72,missing=71
						71:leaf=-0.595501363
						72:leaf=-0
					42:leaf=0.0666666701
			10:[euribor3m<1.29500008] yes=21,no=22,missing=21
				21:[campaign<2] yes=43,no=44,missing=43
					43:[housing<1] yes=73,no=74,missing=73
						73:leaf=-0.0545454584
						74:leaf=0.300000012
					44:[age<48] yes=75,no=76,missing=75
						75:leaf=-0.333333373
						76:leaf=-0
				22:[month<5] yes=45,no=46,missing=45
					45:[age<59] yes=77,no=78,missing=77
						77:leaf=-0.40882352
						78:leaf=-0
					46:[previous<1] yes=79,no=80,missing=79
						79:leaf=-0.509189248
						80:leaf=-0.247058839
	2:[duration<854] yes=5,no=6,missing=5
		5:[contact<1] yes=11,no=12,missing=11
			11:[age<35] yes=23,no=24,missing=23
				23:[duration<680] yes=47,no=48,missing=47
					47:[age<30] yes=81,no=82,missing=81
						81:leaf=-0.381818205
						82:leaf=0.120000005
					48:[housing<1] yes=83,no=84,missing=83
						83:leaf=0.0545454584
						84:leaf=0.369230807
				24:[nr.employed<5020.5] yes=49,no=50,missing=49
					49:leaf=0.272727281
					50:[duration<808] yes=85,no=86,missing=85
						85:leaf=-0.169565216
						86:leaf=0.176470608
			12:[euribor3m<1.27550006] yes=25,no=26,missing=25
				25:leaf=0.300000012
				26:[age<29] yes=51,no=52,missing=51
					51:[default<1] yes=87,no=88,missing=87
						87:leaf=-0.131707326
						88:leaf=0.200000018
					52:[loan<1] yes=89,no=90,missing=89
						89:leaf=-0.328671336
						90:leaf=-0.156521738
		6:[emp.var.rate<-0.600000024] yes=13,no=14,missing=13
			13:[emp.var.rate<-3.20000005] yes=27,no=28,missing=27
				27:leaf=-0.120000005
				28:[day_of_week<2] yes=53,no=54,missing=53
					53:[duration<1146] yes=91,no=92,missing=91
						91:leaf=-0.0461538509
						92:leaf=0.41538465
					54:leaf=0.450000018
			14:[euribor3m<4.86199999] yes=29,no=30,missing=29
				29:[duration<1617] yes=55,no=56,missing=55
					55:[campaign<2] yes=93,no=94,missing=93
						93:leaf=0.0315789506
						94:leaf=-0.136196315
					56:[day_of_week<3] yes=95,no=96,missing=95
						95:leaf=-0.0352941193
						96:leaf=0.333333373
				30:[age<29] yes=57,no=58,missing=57
					57:[loan<1] yes=97,no=98,missing=97
						97:leaf=-0
						98:leaf=-0.360000014
					58:[nr.employed<5193.3999] yes=99,no=100,missing=99
						99:leaf=0.428571463
						100:leaf=0.10493274
booster[1]:
0:[duration<615] yes=1,no=2,missing=1
	1:[nr.employed<5087.65039] yes=3,no=4,missing=3
		3:[duration<166] yes=7,no=8,missing=7
			7:[pdays<4] yes=15,no=16,missing=15
				15:[nr.employed<5046.8501] yes=31,no=32,missing=31
					31:leaf=0.258715063
					32:leaf=-0.169259667
				16:[cons.price.idx<93.5590057] yes=33,no=34,missing=33
					33:[duration<124] yes=63,no=64,missing=63
						63:leaf=-0.359110296
						64:leaf=-0.0976774991
					34:leaf=-0.45475167
			8:[pdays<14] yes=17,no=18,missing=17
				17:[cons.conf.idx<-40.1500015] yes=35,no=36,missing=35
					35:[duration<251] yes=65,no=66,missing=65
						65:leaf=-0.185637325
						66:leaf=0.189874604
					36:[duration<196] yes=67,no=68,missing=67
						67:leaf=0.0679605752
						68:leaf=0.37776491
				18:[contact<1] yes=37,no=38,missing=37
					37:[duration<229] yes=69,no=70,missing=69
						69:leaf=-0.121382959
						70:leaf=0.0874762237
					38:[emp.var.rate<-1.75] yes=71,no=72,missing=71
						71:leaf=-0.374205321
						72:leaf=-0.00478478009
		4:[duration<475] yes=9,no=10,missing=9
			9:[cons.conf.idx<-48.5499992] yes=19,no=20,missing=19
				19:[duration<221] yes=39,no=40,missing=39
					39:[euribor3m<1.7414999] yes=73,no=74,missing=73
						73:leaf=-0.167041436
						74:leaf=0.079522647
					40:leaf=0.301630229
				20:[month<8] yes=41,no=42,missing=41
					41:[pdays<4] yes=75,no=76,missing=75
						75:leaf=-0.0774827972
						76:leaf=-0.460012823
					42:leaf=0.0555939935
			10:[euribor3m<1.28600001] yes=21,no=22,missing=21
				21:[job<7] yes=43,no=44,missing=43
					43:[duration<556] yes=77,no=78,missing=77
						77:leaf=-0.0521886162
						78:leaf=0.19789806
					44:leaf=-0.219874501
				22:[month<5] yes=45,no=46,missing=45
					45:[age<60] yes=79,no=80,missing=79
						79:leaf=-0.286163509
						80:leaf=0.120000005
					46:[duration<477] yes=81,no=82,missing=81
						81:leaf=-0.0730233639
						82:leaf=-0.376870066
	2:[duration<882] yes=5,no=6,missing=5
		5:[contact<1] yes=11,no=12,missing=11
			11:[duration<722] yes=23,no=24,missing=23
				23:[marital<1] yes=47,no=48,missing=47
					47:[age<43] yes=83,no=84,missing=83
						83:leaf=-0.061843954
						84:leaf=0.324678659
					48:[job<1] yes=85,no=86,missing=85
						85:leaf=0.0709545761
						86:leaf=-0.195821568
				24:[campaign<6] yes=49,no=50,missing=49
					49:[education<1] yes=87,no=88,missing=87
						87:leaf=-0.156910285
						88:leaf=0.19543387
					50:leaf=-0.232572302
			12:[day_of_week<1] yes=25,no=26,missing=25
				25:[age<52] yes=51,no=52,missing=51
					51:[age<38] yes=89,no=90,missing=89
						89:leaf=-0.167656973
						90:leaf=0.110108823
					52:leaf=-0.290756375
				26:[cons.conf.idx<-38.2000008] yes=53,no=54,missing=53
					53:[day_of_week<4] yes=91,no=92,missing=91
						91:leaf=-0.196257278
						92:leaf=0.0258531999
					54:[age<31] yes=93,no=94,missing=93
						93:leaf=-0.0866738409
						94:leaf=-0.290056586
		6:[duration<1594] yes=13,no=14,missing=13
			13:[housing<1] yes=27,no=28,missing=27
				27:[cons.conf.idx<-39.0499992] yes=55,no=56,missing=55
					55:[euribor3m<4.96500015] yes=95,no=96,missing=95
						95:leaf=0.21043247
						96:leaf=-0.194274828
					56:[age<34] yes=97,no=98,missing=97
						97:leaf=0.13129136
						98:leaf=-0.101998895
				28:[emp.var.rate<-0.949999988] yes=57,no=58,missing=57
					57:[loan<1] yes=99,no=100,missing=99
						99:leaf=0.357444823
						100:leaf=0.112400308
					58:[age<37] yes=101,no=102,missing=101
						101:leaf=-0.203304991
						102:leaf=0.00980958994
			14:[campaign<3] yes=29,no=30,missing=29
				29:[age<45] yes=59,no=60,missing=59
					59:leaf=0.382250339
					60:[age<54] yes=103,no=104,missing=103
						103:leaf=-0.067631118
						104:leaf=0.274753332
				30:[job<2] yes=61,no=62,missing=61
					61:leaf=0.254136562
					62:leaf=-0.324326009
booster[2]:
0:[duration<524] yes=1,no=2,missing=1
	1:[nr.employed<5087.65039] yes=3,no=4,missing=3
		3:[duration<148] yes=7,no=8,missing=7
			7:[euribor3m<0.855000019] yes=15,no=16,missing=15
				15:[pdays<10] yes=31,no=32,missing=31
					31:[pdays<4] yes=57,no=58,missing=57
						57:leaf=0.268783271
						58:leaf=0.0474747568
					32:[duration<106] yes=59,no=60,missing=59
						59:leaf=-0.27970928
						60:leaf=-0.0597110167
				16:[campaign<4] yes=33,no=34,missing=33
					33:leaf=-0.399650514
					34:leaf=-0.0143286726
			8:[pdays<13] yes=17,no=18,missing=17
				17:[age<31] yes=35,no=36,missing=35
					35:[duration<213] yes=61,no=62,missing=61
						61:leaf=-0.296129078
						62:leaf=0.189878255
					36:[euribor3m<0.836499989] yes=63,no=64,missing=63
						63:leaf=0.35014689
						64:leaf=0.0924232304
				18:[contact<1] yes=37,no=38,missing=37
					37:[campaign<2] yes=65,no=66,missing=65
						65:leaf=-0.106333613
						66:leaf=0.0962879285
					38:[emp.var.rate<-1.75] yes=67,no=68,missing=67
						67:leaf=-0.358025432
						68:leaf=-0.0685827658
		4:[cons.conf.idx<-46.6500015] yes=9,no=10,missing=9
			9:[age<58] yes=19,no=20,missing=19
				19:[euribor3m<1.49049997] yes=39,no=40,missing=39
					39:[job<1] yes=69,no=70,missing=69
						69:leaf=-0.108737521
						70:leaf=-0.354718268
					40:[duration<221] yes=71,no=72,missing=71
						71:leaf=-0.137416661
						72:leaf=0.272332579
				20:[education<2] yes=41,no=42,missing=41
					41:leaf=-0.09273348
					42:leaf=0.413283825
			10:[duration<412] yes=21,no=22,missing=21
				21:[month<8] yes=43,no=44,missing=43
					43:[pdays<4] yes=73,no=74,missing=73
						73:leaf=-0.0426519662
						74:leaf=-0.401596695
					44:leaf=0.0464113727
				22:[emp.var.rate<0.5] yes=45,no=46,missing=45
					45:[age<34] yes=75,no=76,missing=75
						75:leaf=0.195497334
						76:leaf=-0.236165807
					46:[campaign<3] yes=77,no=78,missing=77
						77:leaf=-0.360759586
						78:leaf=-0.263619214
	2:[duration<838] yes=5,no=6,missing=5
		5:[nr.employed<5087.65039] yes=11,no=12,missing=11
			11:[age<28] yes=23,no=24,missing=23
				23:leaf=-0.129026681
				24:[duration<715] yes=47,no=48,missing=47
					47:[age<59] yes=79,no=80,missing=79
						79:leaf=0.438600034
						80:leaf=0.124594294
					48:leaf=0.0430963673
			12:[duration<676] yes=25,no=26,missing=25
				25:[age<58] yes=49,no=50,missing=49
					49:[euribor3m<4.86199999] yes=81,no=82,missing=81
						81:leaf=-0.271627754
						82:leaf=-0.173459947
					50:[campaign<2] yes=83,no=84,missing=83
						83:leaf=-0.257783234
						84:leaf=0.15763028
				26:[euribor3m<4.96150017] yes=51,no=52,missing=51
					51:[age<32] yes=85,no=86,missing=85
						85:leaf=0.00139061816
						86:leaf=-0.158133507
					52:[age<37] yes=87,no=88,missing=87
						87:leaf=0.268629938
						88:leaf=-0.0780445486
		6:[previous<1] yes=13,no=14,missing=13
			13:[duration<1318] yes=27,no=28,missing=27
				27:[duration<1159] yes=53,no=54,missing=53
					53:[duration<1119] yes=89,no=90,missing=89
						89:leaf=-0.0118400948
						90:leaf=0.261050433
					54:[duration<1172] yes=91,no=92,missing=91
						91:leaf=-0.461729527
						92:leaf=-0.032889761
				28:[duration<1370] yes=55,no=56,missing=55
					55:[cons.price.idx<94.2294998] yes=93,no=94,missing=93
						93:leaf=0.401430905
						94:leaf=0.0803392008
					56:[duration<1594] yes=95,no=96,missing=95
						95:leaf=-0.0639893711
						96:leaf=0.156057253
			14:[job<7] yes=29,no=30,missing=29
				29:leaf=0.36105606
				30:leaf=0.0367868505
booster[3]:
0:[duration<524] yes=1,no=2,missing=1
	1:[nr.employed<5087.65039] yes=3,no=4,missing=3
		3:[duration<229] yes=7,no=8,missing=7
			7:[euribor3m<0.723500013] yes=15,no=16,missing=15
				15:[age<27] yes=31,no=32,missing=31
					31:leaf=-0.324387968
					32:[duration<119] yes=63,no=64,missing=63
						63:leaf=-0.17957063
						64:leaf=0.230218217
				16:[previous<3] yes=33,no=34,missing=33
					33:[loan<2] yes=65,no=66,missing=65
						65:leaf=-0.2741687
						66:leaf=-0.0871877074
					34:[euribor3m<0.904500008] yes=67,no=68,missing=67
						67:leaf=0.207416371
						68:leaf=-0.102962747
			8:[pdays<8] yes=17,no=18,missing=17
				17:[education<1] yes=35,no=36,missing=35
					35:leaf=-0.0745648295
					36:[duration<251] yes=69,no=70,missing=69
						69:leaf=0.0439517945
						70:leaf=0.306332111
				18:[contact<1] yes=37,no=38,missing=37
					37:[euribor3m<1.03550005] yes=71,no=72,missing=71
						71:leaf=0.00226419861
						72:leaf=0.236753255
					38:[campaign<3] yes=73,no=74,missing=73
						73:leaf=-0.293446332
						74:leaf=-0.0814899132
		4:[duration<412] yes=9,no=10,missing=9
			9:[cons.conf.idx<-46.6500015] yes=19,no=20,missing=19
				19:[age<61] yes=39,no=40,missing=39
					39:[euribor3m<1.49049997] yes=75,no=76,missing=75
						75:leaf=-0.263833314
						76:leaf=0.0483918265
					40:leaf=0.232108012
				20:[month<8] yes=41,no=42,missing=41
					41:[pdays<4] yes=77,no=78,missing=77
						77:leaf=-0.0352016687
						78:leaf=-0.366372198
					42:leaf=0.0387736224
			10:[cons.price.idx<93.6809998] yes=21,no=22,missing=21
				21:[campaign<2] yes=43,no=44,missing=43
					43:[age<46] yes=79,no=80,missing=79
						79:leaf=0.181692511
						80:leaf=-0.256531626
					44:[day_of_week<4] yes=81,no=82,missing=81
						81:leaf=-0.326023668
						82:leaf=0.0213064682
				22:[campaign<4] yes=45,no=46,missing=45
					45:[duration<506] yes=83,no=84,missing=83
						83:leaf=-0.323844969
						84:leaf=-0.212424189
					46:[job<7] yes=85,no=86,missing=85
						85:leaf=-0.25162676
						86:leaf=0.0381075926
	2:[duration<731] yes=5,no=6,missing=5
		5:[euribor3m<1.31999993] yes=11,no=12,missing=11
			11:[age<28] yes=23,no=24,missing=23
				23:[housing<1] yes=47,no=48,missing=47
					47:leaf=-0.30502829
					48:leaf=-0.073909007
				24:[loan<1] yes=49,no=50,missing=49
					49:[campaign<2] yes=87,no=88,missing=87
						87:leaf=0.362115443
						88:leaf=0.123613164
					50:leaf=-0.162944779
			12:[euribor3m<4.86199999] yes=25,no=26,missing=25
				25:[age<27] yes=51,no=52,missing=51
					51:[day_of_week<1] yes=89,no=90,missing=89
						89:leaf=0.318881571
						90:leaf=-0.194725186
					52:[age<60] yes=91,no=92,missing=91
						91:leaf=-0.233313724
						92:leaf=0.0745203122
				26:[duration<681] yes=53,no=54,missing=53
					53:[day_of_week<4] yes=93,no=94,missing=93
						93:leaf=-0.154417813
						94:leaf=-0.00823361147
					54:[age<35] yes=95,no=96,missing=95
						95:leaf=-0.127035737
						96:leaf=0.160854906
		6:[duration<1045] yes=13,no=14,missing=13
			13:[age<32] yes=27,no=28,missing=27
				27:[age<30] yes=55,no=56,missing=55
					55:[duration<811] yes=97,no=98,missing=97
						97:leaf=0.211652517
						98:leaf=-0.188324988
					56:[duration<746] yes=99,no=100,missing=99
						99:leaf=-0.0486093946
						100:leaf=0.253100753
				28:[campaign<2] yes=57,no=58,missing=57
					57:[default<1] yes=101,no=102,missing=101
						101:leaf=-0.0600373
						102:leaf=0.149739876
					58:[euribor3m<4.04850006] yes=103,no=104,missing=103
						103:leaf=0.11647328
						104:leaf=-0.136252224
			14:[duration<1075] yes=29,no=30,missing=29
				29:[day_of_week<4] yes=59,no=60,missing=59
					59:[day_of_week<1] yes=105,no=106,missing=105
						105:leaf=0.119138286
						106:leaf=0.360431761
					60:leaf=-0.0735535324
				30:[age<30] yes=61,no=62,missing=61
					61:[month<6] yes=107,no=108,missing=107
						107:leaf=0.00135325652
						108:leaf=-0.323878139
					62:[duration<1108] yes=109,no=110,missing=109
						109:leaf=-0.154897794
						110:leaf=0.0865415856
booster[4]:
0:[duration<479] yes=1,no=2,missing=1
	1:[nr.employed<5087.65039] yes=3,no=4,missing=3
		3:[duration<139] yes=7,no=8,missing=7
			7:[euribor3m<0.855000019] yes=15,no=16,missing=15
				15:[pdays<10] yes=31,no=32,missing=31
					31:[pdays<4] yes=59,no=60,missing=59
						59:leaf=0.250151604
						60:leaf=0.05478229
					32:[cons.price.idx<92.5400009] yes=61,no=62,missing=61
						61:leaf=0.0129955662
						62:leaf=-0.25814867
				16:[campaign<4] yes=33,no=34,missing=33
					33:leaf=-0.342331648
					34:leaf=-0.0653482452
			8:[euribor3m<0.733500004] yes=17,no=18,missing=17
				17:[age<26] yes=35,no=36,missing=35
					35:leaf=-0.279481977
					36:[poutcome<1] yes=63,no=64,missing=63
						63:leaf=-0.0645064935
						64:leaf=0.244766757
				18:[age<24] yes=37,no=38,missing=37
					37:leaf=0.230593681
					38:[pdays<4] yes=65,no=66,missing=65
						65:leaf=0.122722521
						66:leaf=-0.0811561495
		4:[cons.conf.idx<-46.6500015] yes=9,no=10,missing=9
			9:[age<58] yes=19,no=20,missing=19
				19:[duration<260] yes=39,no=40,missing=39
					39:[age<29] yes=67,no=68,missing=67
						67:leaf=0.00453857286
						68:leaf=-0.303148419
					40:[day_of_week<3] yes=69,no=70,missing=69
						69:leaf=-0.11183548
						70:leaf=0.255730212
				20:[education<5] yes=41,no=42,missing=41
					41:leaf=-0.0101132281
					42:leaf=0.248604327
			10:[duration<367] yes=21,no=22,missing=21
				21:[month<8] yes=43,no=44,missing=43
					43:[pdays<4] yes=71,no=72,missing=71
						71:leaf=0.0099048242
						72:leaf=-0.345624715
					44:leaf=0.0324081779
				22:[euribor3m<1.29500008] yes=45,no=46,missing=45
					45:[campaign<2] yes=73,no=74,missing=73
						73:leaf=0.354358852
						74:leaf=-0.194323599
					46:[euribor3m<4.96150017] yes=75,no=76,missing=75
						75:leaf=-0.307893753
						76:leaf=-0.193046421
	2:[duration<645] yes=5,no=6,missing=5
		5:[euribor3m<1.28600001] yes=11,no=12,missing=11
			11:[age<28] yes=23,no=24,missing=23
				23:leaf=-0.173915565
				24:[education<3] yes=47,no=48,missing=47
					47:leaf=-0.0556464419
					48:[job<8] yes=77,no=78,missing=77
						77:leaf=0.352143228
						78:leaf=0.132443354
			12:[age<56] yes=25,no=26,missing=25
				25:[euribor3m<4.86199999] yes=49,no=50,missing=49
					49:[marital<2] yes=79,no=80,missing=79
						79:leaf=-0.252764314
						80:leaf=-0.150479868
					50:[age<41] yes=81,no=82,missing=81
						81:leaf=-0.0894511342
						82:leaf=-0.184702992
				26:[campaign<2] yes=51,no=52,missing=51
					51:[cons.conf.idx<-42.3499985] yes=83,no=84,missing=83
						83:leaf=0.0144394087
						84:leaf=-0.297515154
					52:[duration<592] yes=85,no=86,missing=85
						85:leaf=0.031464383
						86:leaf=0.457198858
		6:[education<1] yes=13,no=14,missing=13
			13:[duration<781] yes=27,no=28,missing=27
				27:[marital<1] yes=53,no=54,missing=53
					53:leaf=-0.11621733
					54:[campaign<3] yes=87,no=88,missing=87
						87:leaf=-0.379454911
						88:leaf=-0.098755151
				28:[campaign<2] yes=55,no=56,missing=55
					55:[job<3] yes=89,no=90,missing=89
						89:leaf=0.0275568515
						90:leaf=0.357402444
					56:[age<42] yes=91,no=92,missing=91
						91:leaf=-0.382277429
						92:leaf=-0.0134747569
			14:[poutcome<2] yes=29,no=30,missing=29
				29:[euribor3m<4.86199999] yes=57,no=58,missing=57
					57:[duration<655] yes=93,no=94,missing=93
						93:leaf=0.310821354
						94:leaf=-0.0464381874
					58:[euribor3m<4.96650028] yes=95,no=96,missing=95
						95:leaf=0.0487883389
						96:leaf=-0.147046268
				30:leaf=0.2978459
booster[5]:
0:[duration<458] yes=1,no=2,missing=1
	1:[nr.employed<5087.65039] yes=3,no=4,missing=3
		3:[duration<166] yes=7,no=8,missing=7
			7:[cons.price.idx<93.5590057] yes=15,no=16,missing=15
				15:[age<42] yes=31,no=32,missing=31
					31:[duration<115] yes=59,no=60,missing=59
						59:leaf=-0.109036744
						60:leaf=0.166590422
					32:[campaign<4] yes=61,no=62,missing=61
						61:leaf=-0.240854904
						62:leaf=0.00335328886
				16:[pdays<8] yes=33,no=34,missing=33
					33:leaf=0.0330985002
					34:leaf=-0.333336711
			8:[euribor3m<0.88349998] yes=17,no=18,missing=17
				17:[emp.var.rate<-3.20000005] yes=35,no=36,missing=35
					35:[previous<1] yes=63,no=64,missing=63
						63:leaf=-0.171473846
						64:leaf=0.0926050097
					36:[poutcome<1] yes=65,no=66,missing=65
						65:leaf=-0.0383770764
						66:leaf=0.164178789
				18:[euribor3m<1.02950001] yes=37,no=38,missing=37
					37:[pdays<8] yes=67,no=68,missing=67
						67:leaf=0.0850093961
						68:leaf=-0.296585947
					38:[duration<237] yes=69,no=70,missing=69
						69:leaf=-0.0936596543
						70:leaf=0.142865315
		4:[cons.conf.idx<-46.6500015] yes=9,no=10,missing=9
			9:[euribor3m<1.49049997] yes=19,no=20,missing=19
				19:[age<58] yes=39,no=40,missing=39
					39:[euribor3m<1.40249991] yes=71,no=72,missing=71
						71:leaf=0.0760520846
						72:leaf=-0.246510774
					40:leaf=0.117865711
				20:[duration<221] yes=41,no=42,missing=41
					41:[euribor3m<1.7414999] yes=73,no=74,missing=73
						73:leaf=-0.123510197
						74:leaf=0.112229861
					42:leaf=0.272292405
			10:[duration<367] yes=21,no=22,missing=21
				21:[month<8] yes=43,no=44,missing=43
					43:[pdays<4] yes=75,no=76,missing=75
						75:leaf=0.00820199866
						76:leaf=-0.330631882
					44:leaf=0.0270960461
				22:[cons.price.idx<93.6809998] yes=45,no=46,missing=45
					45:[job<3] yes=77,no=78,missing=77
						77:leaf=-0.202022985
						78:leaf=0.0751022995
					46:[job<6] yes=79,no=80,missing=79
						79:leaf=-0.31366387
						80:leaf=-0.231598258
	2:[duration<645] yes=5,no=6,missing=5
		5:[nr.employed<5087.65039] yes=11,no=12,missing=11
			11:[age<28] yes=23,no=24,missing=23
				23:leaf=-0.0676863268
				24:[duration<602] yes=47,no=48,missing=47
					47:leaf=0.34501189
					48:leaf=0.0891541392
			12:[duration<461] yes=25,no=26,missing=25
				25:[euribor3m<4.96099997] yes=49,no=50,missing=49
					49:leaf=0.0114910696
					50:leaf=0.36716783
				26:[duration<500] yes=51,no=52,missing=51
					51:[housing<2] yes=81,no=82,missing=81
						81:leaf=-0.276324213
						82:leaf=-0.124665648
					52:[job<9] yes=83,no=84,missing=83
						83:leaf=-0.0989603028
						84:leaf=-0.206187919
		6:[duration<882] yes=13,no=14,missing=13
			13:[nr.employed<5020.5] yes=27,no=28,missing=27
				27:leaf=0.26123476
				28:[age<56] yes=53,no=54,missing=53
					53:[campaign<2] yes=85,no=86,missing=85
						85:leaf=0.0218847655
						86:leaf=-0.0701161325
					54:[education<7] yes=87,no=88,missing=87
						87:leaf=-0.295377254
						88:leaf=0.189613566
			14:[duration<949] yes=29,no=30,missing=29
				29:[euribor3m<4.85649967] yes=55,no=56,missing=55
					55:[age<44] yes=89,no=90,missing=89
						89:leaf=-0.221113205
						90:leaf=0.0287772138
					56:[campaign<5] yes=91,no=92,missing=91
						91:leaf=0.224914387
						92:leaf=-0.175349101
				30:[duration<1015] yes=57,no=58,missing=57
					57:[duration<995] yes=93,no=94,missing=93
						93:leaf=-0.0350107588
						94:leaf=-0.296018422
					58:[age<25] yes=95,no=96,missing=95
						95:leaf=-0.214083865
						96:leaf=0.0447998568
booster[6]:
0:[duration<458] yes=1,no=2,missing=1
	1:[emp.var.rate<-0.650000036] yes=3,no=4,missing=3
		3:[duration<148] yes=7,no=8,missing=7
			7:[euribor3m<0.855000019] yes=15,no=16,missing=15
				15:[pdays<10] yes=31,no=32,missing=31
					31:[pdays<4] yes=55,no=56,missing=55
						55:leaf=0.229845122
						56:leaf=0.0577569306
					32:[education<6] yes=57,no=58,missing=57
						57:leaf=0.0286179148
						58:leaf=-0.206117347
				16:[euribor3m<1.6394999] yes=33,no=34,missing=33
					33:[age<64] yes=59,no=60,missing=59
						59:leaf=-0.296580434
						60:leaf=-0.0605018437
					34:leaf=-0.00694101537
			8:[education<3] yes=17,no=18,missing=17
				17:[job<8] yes=35,no=36,missing=35
					35:[pdays<4] yes=61,no=62,missing=61
						61:leaf=0.15035592
						62:leaf=-0.247291401
					36:[month<6] yes=63,no=64,missing=63
						63:leaf=0.274605274
						64:leaf=-0.0758835599
				18:[pdays<13] yes=37,no=38,missing=37
					37:[cons.price.idx<94.2070007] yes=65,no=66,missing=65
						65:leaf=0.160913572
						66:leaf=-0.096341975
					38:[contact<1] yes=67,no=68,missing=67
						67:leaf=-0.0125975767
						68:leaf=-0.194356307
		4:[duration<367] yes=9,no=10,missing=9
			9:[month<8] yes=19,no=20,missing=19
				19:leaf=-0.321372926
				20:leaf=0.0226590298
			10:[job<4] yes=21,no=22,missing=21
				21:[duration<370] yes=39,no=40,missing=39
					39:leaf=-0.08217749
					40:leaf=-0.305877984
				22:[cons.price.idx<93.6809998] yes=41,no=42,missing=41
					41:[day_of_week<3] yes=69,no=70,missing=69
						69:leaf=-0.193863869
						70:leaf=0.281071872
					42:[day_of_week<2] yes=71,no=72,missing=71
						71:leaf=-0.105510212
						72:leaf=-0.290947676
	2:[duration<614] yes=5,no=6,missing=5
		5:[euribor3m<1.30599999] yes=11,no=12,missing=11
			11:[duration<535] yes=23,no=24,missing=23
				23:[previous<1] yes=43,no=44,missing=43
					43:[education<3] yes=73,no=74,missing=73
						73:leaf=0.0186481476
						74:leaf=0.204528034
					44:leaf=0.334321588
				24:[job<6] yes=45,no=46,missing=45
					45:[age<41] yes=75,no=76,missing=75
						75:leaf=0.0272380728
						76:leaf=0.215087563
					46:[education<4] yes=77,no=78,missing=77
						77:leaf=-0.268528134
						78:leaf=-0.0361248478
			12:[month<5] yes=25,no=26,missing=25
				25:[duration<601] yes=47,no=48,missing=47
					47:[duration<554] yes=79,no=80,missing=79
						79:leaf=-0.0932306498
						80:leaf=0.0681294948
					48:leaf=-0.28934148
				26:[age<45] yes=49,no=50,missing=49
					49:[campaign<3] yes=81,no=82,missing=81
						81:leaf=-0.242531106
						82:leaf=-0.103276342
					50:[default<1] yes=83,no=84,missing=83
						83:leaf=0.0206258632
						84:leaf=-0.207211316
		6:[nr.employed<5013.1001] yes=13,no=14,missing=13
			13:[housing<1] yes=27,no=28,missing=27
				27:leaf=0.0721001402
				28:leaf=0.285642654
			14:[euribor3m<4.86199999] yes=29,no=30,missing=29
				29:[duration<893] yes=51,no=52,missing=51
					51:[duration<865] yes=85,no=86,missing=85
						85:leaf=-0.0652000606
						86:leaf=-0.32404232
					52:[cons.conf.idx<-44.0999985] yes=87,no=88,missing=87
						87:leaf=0.238922283
						88:leaf=-0.0150063578
				30:[duration<2010] yes=53,no=54,missing=53
					53:[cons.conf.idx<-39.0999985] yes=89,no=90,missing=89
						89:leaf=-0.00307794963
						90:leaf=0.116113305
					54:[duration<2628] yes=91,no=92,missing=91
						91:leaf=0.280804634
						92:leaf=0.10149584
booster[7]:
0:[duration<458] yes=1,no=2,missing=1
	1:[emp.var.rate<-0.650000036] yes=3,no=4,missing=3
		3:[duration<139] yes=7,no=8,missing=7
			7:[euribor3m<0.855000019] yes=15,no=16,missing=15
				15:[education<4] yes=31,no=32,missing=31
					31:[campaign<2] yes=57,no=58,missing=57
						57:leaf=-0.274069995
						58:leaf=0.0432552025
					32:[campaign<2] yes=59,no=60,missing=59
						59:leaf=0.265621275
						60:leaf=-0.0573907048
				16:[euribor3m<1.69499993] yes=33,no=34,missing=33
					33:[age<58] yes=61,no=62,missing=61
						61:leaf=-0.300663173
						62:leaf=-0.118924193
					34:leaf=0.0110501349
			8:[euribor3m<1.28600001] yes=17,no=18,missing=17
				17:[contact<1] yes=35,no=36,missing=35
					35:[euribor3m<1.25950003] yes=63,no=64,missing=63
						63:leaf=-0.0089584887
						64:leaf=0.138328493
					36:[cons.price.idx<93.5590057] yes=65,no=66,missing=65
						65:leaf=-0.232231498
						66:leaf=0.00283212634
				18:[euribor3m<1.34899998] yes=37,no=38,missing=37
					37:[duration<404] yes=67,no=68,missing=67
						67:leaf=-0.295086026
						68:leaf=-0.0544255376
					38:[duration<164] yes=69,no=70,missing=69
						69:leaf=0.247901335
						70:leaf=-0.0481783487
		4:[duration<367] yes=9,no=10,missing=9
			9:[month<8] yes=19,no=20,missing=19
				19:[euribor3m<4.04850006] yes=39,no=40,missing=39
					39:[age<38] yes=71,no=72,missing=71
						71:leaf=-0.0101136928
						72:leaf=-0.195186645
					40:leaf=-0.313957036
				20:leaf=0.0189507976
			10:[marital<2] yes=21,no=22,missing=21
				21:[euribor3m<4.95950031] yes=41,no=42,missing=41
					41:leaf=-0.290892333
					42:[duration<389] yes=73,no=74,missing=73
						73:leaf=0.0400013849
						74:leaf=-0.240901932
				22:[cons.price.idx<93.6809998] yes=43,no=44,missing=43
					43:leaf=0.258259416
					44:[default<1] yes=75,no=76,missing=75
						75:leaf=-0.228161812
						76:leaf=0.0424029715
	2:[duration<731] yes=5,no=6,missing=5
		5:[euribor3m<1.30599999] yes=11,no=12,missing=11
			11:[loan<1] yes=23,no=24,missing=23
				23:[age<28] yes=45,no=46,missing=45
					45:leaf=-0.0764453635
					46:[campaign<2] yes=77,no=78,missing=77
						77:leaf=0.2994259
						78:leaf=0.0593471862
				24:leaf=-0.204310253
			12:[euribor3m<4.95100021] yes=25,no=26,missing=25
				25:[age<59] yes=47,no=48,missing=47
					47:[housing<2] yes=79,no=80,missing=79
						79:leaf=-0.167304158
						80:leaf=-0.0545336343
					48:[cons.conf.idx<-39.0999985] yes=81,no=82,missing=81
						81:leaf=0.363436103
						82:leaf=-0.0797143131
				26:[campaign<5] yes=49,no=50,missing=49
					49:[duration<554] yes=83,no=84,missing=83
						83:leaf=-0.075567551
						84:leaf=0.0420534983
					50:[euribor3m<4.96049976] yes=85,no=86,missing=85
						85:leaf=0.136297807
						86:leaf=-0.269223332
		6:[previous<1] yes=13,no=14,missing=13
			13:[euribor3m<4.85649967] yes=27,no=28,missing=27
				27:[duration<757] yes=51,no=52,missing=51
					51:[age<35] yes=87,no=88,missing=87
						87:leaf=0.0622560866
						88:leaf=0.308310717
					52:[duration<1117] yes=89,no=90,missing=89
						89:leaf=-0.162965715
						90:leaf=0.0299319867
				28:[job<10] yes=53,no=54,missing=53
					53:[job<2] yes=91,no=92,missing=91
						91:leaf=0.0555049926
						92:leaf=-0.0357364751
					54:[education<2] yes=93,no=94,missing=93
						93:leaf=0.103185125
						94:leaf=0.364622951
			14:[duration<774] yes=29,no=30,missing=29
				29:leaf=-0.141999185
				30:[job<9] yes=55,no=56,missing=55
					55:leaf=0.304013819
					56:leaf=0.0194829497
booster[8]:
0:[duration<458] yes=1,no=2,missing=1
	1:[emp.var.rate<-0.650000036] yes=3,no=4,missing=3
		3:[duration<120] yes=7,no=8,missing=7
			7:[euribor3m<0.855000019] yes=15,no=16,missing=15
				15:[age<30] yes=29,no=30,missing=29
					29:[age<27] yes=49,no=50,missing=49
						49:leaf=0.00957101211
						50:leaf=0.333693445
					30:[euribor3m<0.761000037] yes=51,no=52,missing=51
						51:leaf=-0.223472163
						52:leaf=0.10598848
				16:[age<61] yes=31,no=32,missing=31
					31:[euribor3m<1.55599999] yes=53,no=54,missing=53
						53:leaf=-0.298155278
						54:leaf=-0.0733531639
					32:leaf=-0.0817480907
			8:[education<6] yes=17,no=18,missing=17
				17:[euribor3m<0.725499988] yes=33,no=34,missing=33
					33:[euribor3m<0.719500005] yes=55,no=56,missing=55
						55:leaf=0.00461765146
						56:leaf=0.276905775
					34:[age<32] yes=57,no=58,missing=57
						57:leaf=0.0480889492
						58:leaf=-0.162308782
				18:[age<33] yes=35,no=36,missing=35
					35:[duration<349] yes=59,no=60,missing=59
						59:leaf=-0.00938630383
						60:leaf=-0.258898973
					36:[duration<359] yes=61,no=62,missing=61
						61:leaf=0.0602869987
						62:leaf=0.308874011
		4:[duration<381] yes=9,no=10,missing=9
			9:[month<8] yes=19,no=20,missing=19
				19:[euribor3m<4.04850006] yes=37,no=38,missing=37
					37:[duration<161] yes=63,no=64,missing=63
						63:leaf=-0.180126309
						64:leaf=-0.00915860105
					38:leaf=-0.306918889
				20:leaf=0.0158505347
			10:[job<4] yes=21,no=22,missing=21
				21:leaf=-0.276756197
				22:[campaign<4] yes=39,no=40,missing=39
					39:[marital<2] yes=65,no=66,missing=65
						65:leaf=-0.2375222
						66:leaf=0.00833921786
					40:[day_of_week<2] yes=67,no=68,missing=67
						67:leaf=0.29886654
						68:leaf=-0.129796699
	2:[nr.employed<5013.1001] yes=5,no=6,missing=5
		5:[month<8] yes=11,no=12,missing=11
			11:[campaign<3] yes=23,no=24,missing=23
				23:leaf=0.296047837
				24:leaf=0.0865247026
			12:leaf=0.0162991565
		6:[duration<614] yes=13,no=14,missing=13
			13:[duration<461] yes=25,no=26,missing=25
				25:[campaign<2] yes=41,no=42,missing=41
					41:leaf=-0.0374594256
					42:leaf=0.33990857
				26:[loan<1] yes=43,no=44,missing=43
					43:[duration<496] yes=69,no=70,missing=69
						69:leaf=-0.130541712
						70:leaf=-0.0335579291
					44:[campaign<3] yes=71,no=72,missing=71
						71:leaf=-0.250612617
						72:leaf=-0.0400902368
			14:[duration<622] yes=27,no=28,missing=27
				27:[marital<2] yes=45,no=46,missing=45
					45:[campaign<2] yes=73,no=74,missing=73
						73:leaf=-0.260029048
						74:leaf=0.180089936
					46:leaf=0.428429663
				28:[duration<628] yes=47,no=48,missing=47
					47:[euribor3m<4.96049976] yes=75,no=76,missing=75
						75:leaf=-0.306274414
						76:leaf=0.0624851175
					48:[education<1] yes=77,no=78,missing=77
						77:leaf=-0.0813697502
						78:leaf=0.00341241644
booster[9]:
0:[duration<412] yes=1,no=2,missing=1
	1:[emp.var.rate<-0.650000036] yes=3,no=4,missing=3
		3:[duration<229] yes=7,no=8,missing=7
			7:[euribor3m<0.723500013] yes=15,no=16,missing=15
				15:[age<27] yes=29,no=30,missing=29
					29:leaf=-0.253606051
					30:[age<43] yes=51,no=52,missing=51
						51:leaf=0.189577848
						52:leaf=-0.0288564768
				16:[month<6] yes=31,no=32,missing=31
					31:[duration<185] yes=53,no=54,missing=53
						53:leaf=-0.00172097189
						54:leaf=-0.24294655
					32:[month<8] yes=55,no=56,missing=55
						55:leaf=-0.275746107
						56:leaf=-0.0794721395
			8:[poutcome<1] yes=17,no=18,missing=17
				17:[education<6] yes=33,no=34,missing=33
					33:[nr.employed<5020.5] yes=57,no=58,missing=57
						57:leaf=-0.299690455
						58:leaf=-0.0420433916
					34:[euribor3m<0.841500044] yes=59,no=60,missing=59
						59:leaf=0.293865442
						60:leaf=-0.134289116
				18:[job<6] yes=35,no=36,missing=35
					35:[euribor3m<0.715999961] yes=61,no=62,missing=61
						61:leaf=0.293041706
						62:leaf=-0.0420455784
					36:[duration<381] yes=63,no=64,missing=63
						63:leaf=0.22452949
						64:leaf=-0.129762903
		4:[month<8] yes=9,no=10,missing=9
			9:[duration<367] yes=19,no=20,missing=19
				19:[euribor3m<4.04850006] yes=37,no=38,missing=37
					37:[job<2] yes=65,no=66,missing=65
						65:leaf=-0.0105324946
						66:leaf=-0.164968818
					38:leaf=-0.302684069
				20:[euribor3m<4.96450043] yes=39,no=40,missing=39
					39:[age<32] yes=67,no=68,missing=67
						67:leaf=-0.0859548301
						68:leaf=-0.268573344
					40:leaf=0.108089678
			10:leaf=0.0132579897
	2:[duration<615] yes=5,no=6,missing=5
		5:[nr.employed<5000.15039] yes=11,no=12,missing=11
			11:[day_of_week<3] yes=21,no=22,missing=21
				21:leaf=0.28224045
				22:leaf=-0.034509331
			12:[loan<1] yes=23,no=24,missing=23
				23:[education<4] yes=41,no=42,missing=41
					41:[duration<584] yes=69,no=70,missing=69
						69:leaf=-0.115054578
						70:leaf=0.108500011
					42:[job<1] yes=71,no=72,missing=71
						71:leaf=0.160604656
						72:leaf=-0.0656495616
				24:[housing<2] yes=43,no=44,missing=43
					43:[job<1] yes=73,no=74,missing=73
						73:leaf=-0.058024168
						74:leaf=-0.288388222
					44:[job<2] yes=75,no=76,missing=75
						75:leaf=-0.206162497
						76:leaf=0.0755140111
		6:[duration<622] yes=13,no=14,missing=13
			13:[day_of_week<2] yes=25,no=26,missing=25
				25:[age<41] yes=45,no=46,missing=45
					45:leaf=0.43911323
					46:leaf=0.115263224
				26:[age<36] yes=47,no=48,missing=47
					47:leaf=0.218069777
					48:[euribor3m<4.8585] yes=77,no=78,missing=77
						77:leaf=-0.0477781557
						78:leaf=-0.224349245
			14:[month<8] yes=27,no=28,missing=27
				27:[euribor3m<1.29500008] yes=49,no=50,missing=49
					49:[duration<808] yes=79,no=80,missing=79
						79:leaf=0.0172333661
						80:leaf=0.257567912
					50:[duration<1318] yes=81,no=82,missing=81
						81:leaf=-0.0182237234
						82:leaf=0.0654760152
				28:leaf=-0.262430787
booster[10]:
0:[duration<362] yes=1,no=2,missing=1
	1:[euribor3m<4.04850006] yes=3,no=4,missing=3
		3:[duration<89] yes=7,no=8,missing=7
			7:[job<9] yes=15,no=16,missing=15
				15:leaf=-0.285232157
				16:[month<6] yes=27,no=28,missing=27
					27:leaf=0.166851133
					28:leaf=-0.169323727
			8:[pdays<4] yes=17,no=18,missing=17
				17:[duration<233] yes=29,no=30,missing=29
					29:[job<6] yes=49,no=50,missing=49
						49:leaf=-0.0301055331
						50:leaf=0.204133019
					30:leaf=0.288269579
				18:[age<74] yes=31,no=32,missing=31
					31:[month<6] yes=51,no=52,missing=51
						51:leaf=-0.0127408439
						52:leaf=-0.103748582
					32:[day_of_week<3] yes=53,no=54,missing=53
						53:leaf=-0.00326752267
						54:leaf=0.332431823
		4:[month<8] yes=9,no=10,missing=9
			9:leaf=-0.297829241
			10:leaf=0.011089663
	2:[duration<475] yes=5,no=6,missing=5
		5:[contact<1] yes=11,no=12,missing=11
			11:[day_of_week<3] yes=19,no=20,missing=19
				19:[marital<2] yes=33,no=34,missing=33
					33:[duration<383] yes=55,no=56,missing=55
						55:leaf=0.286812574
						56:leaf=-0.0315613635
					34:[nr.employed<5020.5] yes=57,no=58,missing=57
						57:leaf=0.0342607051
						58:leaf=-0.346206397
				20:[education<4] yes=35,no=36,missing=35
					35:[age<50] yes=59,no=60,missing=59
						59:leaf=-0.072887212
						60:leaf=0.19367975
					36:[duration<396] yes=61,no=62,missing=61
						61:leaf=-0.00491488492
						62:leaf=0.312361628
			12:[day_of_week<2] yes=21,no=22,missing=21
				21:[duration<414] yes=37,no=38,missing=37
					37:[education<3] yes=63,no=64,missing=63
						63:leaf=-0.0817795619
						64:leaf=-0.268352687
					38:[job<4] yes=65,no=66,missing=65
						65:leaf=-0.167100683
						66:leaf=0.131227732
				22:[marital<2] yes=39,no=40,missing=39
					39:[duration<372] yes=67,no=68,missing=67
						67:leaf=-0.0646506548
						68:leaf=-0.294385791
					40:[euribor3m<4.85649967] yes=69,no=70,missing=69
						69:leaf=0.0738279298
						70:leaf=-0.202622533
		6:[age<30] yes=13,no=14,missing=13
			13:[job<4] yes=23,no=24,missing=23
				23:[duration<681] yes=41,no=42,missing=41
					41:[duration<621] yes=71,no=72,missing=71
						71:leaf=-0.14436242
						72:leaf=-0.366207272
					42:[education<4] yes=73,no=74,missing=73
						73:leaf=0.0303257797
						74:leaf=-0.213169694
				24:[cons.price.idx<93.8970032] yes=43,no=44,missing=43
					43:leaf=-0.230366647
					44:[cons.conf.idx<-36.9500008] yes=75,no=76,missing=75
						75:leaf=0.160857156
						76:leaf=-0.0703793839
			14:[age<32] yes=25,no=26,missing=25
				25:[education<3] yes=45,no=46,missing=45
					45:[euribor3m<4.86199999] yes=77,no=78,missing=77
						77:leaf=0.0682239309
						78:leaf=0.376688868
					46:[duration<637] yes=79,no=80,missing=79
						79:leaf=-0.112068713
						80:leaf=0.128945678
				26:[marital<2] yes=47,no=48,missing=47
					47:[age<49] yes=81,no=82,missing=81
						81:leaf=-0.0462149084
						82:leaf=0.0202639867
					48:[education<2] yes=83,no=84,missing=83
						83:leaf=-0.194740951
						84:leaf=0.076575473
booster[11]:
0:[duration<360] yes=1,no=2,missing=1
	1:[euribor3m<4.04850006] yes=3,no=4,missing=3
		3:[duration<89] yes=7,no=8,missing=7
			7:[job<9] yes=15,no=16,missing=15
				15:leaf=-0.265938789
				16:[cons.price.idx<92.8679962] yes=27,no=28,missing=27
					27:leaf=0.150931627
					28:leaf=-0.160359293
			8:[marital<1] yes=17,no=18,missing=17
				17:[cons.price.idx<93.8880005] yes=29,no=30,missing=29
					29:[euribor3m<1.40750003] yes=45,no=46,missing=45
						45:leaf=-0.272694618
						46:leaf=0.0743618459
					30:leaf=0.0719483495
				18:[euribor3m<0.857499957] yes=31,no=32,missing=31
					31:[duration<313] yes=47,no=48,missing=47
						47:leaf=0.103975438
						48:leaf=-0.134505793
					32:[duration<253] yes=49,no=50,missing=49
						49:leaf=-0.0950723886
						50:leaf=0.0575965159
		4:[month<8] yes=9,no=10,missing=9
			9:leaf=-0.292904258
			10:leaf=0.00927605573
	2:[duration<476] yes=5,no=6,missing=5
		5:[contact<1] yes=11,no=12,missing=11
			11:[age<30] yes=19,no=20,missing=19
				19:[job<7] yes=33,no=34,missing=33
					33:leaf=-0.279299378
					34:[age<28] yes=51,no=52,missing=51
						51:leaf=0.199187085
						52:leaf=-0.137383372
				20:[euribor3m<1.30599999] yes=35,no=36,missing=35
					35:[day_of_week<1] yes=53,no=54,missing=53
						53:leaf=-0.148406535
						54:leaf=0.228242889
					36:[age<32] yes=55,no=56,missing=55
						55:leaf=0.187047988
						56:leaf=-0.0648685321
			12:[day_of_week<2] yes=21,no=22,missing=21
				21:[campaign<4] yes=37,no=38,missing=37
					37:[education<6] yes=57,no=58,missing=57
						57:leaf=-0.203847453
						58:leaf=-0.0153995026
					38:[duration<422] yes=59,no=60,missing=59
						59:leaf=-0.205598369
						60:leaf=0.242079362
				22:[marital<2] yes=39,no=40,missing=39
					39:[duration<372] yes=61,no=62,missing=61
						61:leaf=-0.0743111446
						62:leaf=-0.285295457
					40:[age<35] yes=63,no=64,missing=63
						63:leaf=-0.227096498
						64:leaf=0.0184903108
		6:[poutcome<2] yes=13,no=14,missing=13
			13:[age<27] yes=23,no=24,missing=23
				23:[campaign<6] yes=41,no=42,missing=41
					41:[education<3] yes=65,no=66,missing=65
						65:leaf=0.021261286
						66:leaf=-0.193194106
					42:leaf=0.195583403
				24:[campaign<5] yes=43,no=44,missing=43
					43:[month<3] yes=67,no=68,missing=67
						67:leaf=0.125495002
						68:leaf=0.00029014438
					44:[day_of_week<2] yes=69,no=70,missing=69
						69:leaf=0.0391356088
						70:leaf=-0.166701674
			14:[duration<651] yes=25,no=26,missing=25
				25:leaf=0.0376778319
				26:leaf=0.275669962
booster[12]:
0:[duration<278] yes=1,no=2,missing=1
	1:[emp.var.rate<-0.650000036] yes=3,no=4,missing=3
		3:[nr.employed<5087.65039] yes=7,no=8,missing=7
			7:[age<55] yes=15,no=16,missing=15
				15:[day_of_week<3] yes=29,no=30,missing=29
					29:[nr.employed<5020.5] yes=53,no=54,missing=53
						53:leaf=0.00878365897
						54:leaf=0.229981259
					30:[euribor3m<0.715499997] yes=55,no=56,missing=55
						55:leaf=0.177531093
						56:leaf=-0.129776701
				16:[day_of_week<1] yes=31,no=32,missing=31
					31:leaf=0.240002081
					32:[age<74] yes=57,no=58,missing=57
						57:leaf=-0.244203404
						58:leaf=0.0831463262
			8:[age<50] yes=17,no=18,missing=17
				17:[euribor3m<1.64499998] yes=33,no=34,missing=33
					33:[job<1] yes=59,no=60,missing=59
						59:leaf=-0.0551606603
						60:leaf=-0.267127961
					34:leaf=0.0705723763
				18:[euribor3m<1.39199996] yes=35,no=36,missing=35
					35:leaf=-0.123711325
					36:[education<6] yes=61,no=62,missing=61
						61:leaf=0.0283799786
						62:leaf=0.35074842
		4:[month<8] yes=9,no=10,missing=9
			9:[age<27] yes=19,no=20,missing=19
				19:[duration<219] yes=37,no=38,missing=37
					37:leaf=-0.254652679
					38:leaf=0.143381089
				20:leaf=-0.297571748
			10:leaf=0.00775897829
	2:[duration<458] yes=5,no=6,missing=5
		5:[contact<1] yes=11,no=12,missing=11
			11:[day_of_week<4] yes=21,no=22,missing=21
				21:[duration<419] yes=39,no=40,missing=39
					39:[poutcome<1] yes=63,no=64,missing=63
						63:leaf=-0.164434746
						64:leaf=0.0584381558
					40:[default<1] yes=65,no=66,missing=65
						65:leaf=-0.273337394
						66:leaf=0.00404863246
				22:[emp.var.rate<-0.600000024] yes=41,no=42,missing=41
					41:[education<6] yes=67,no=68,missing=67
						67:leaf=0.375940412
						68:leaf=0.128237471
					42:[duration<421] yes=69,no=70,missing=69
						69:leaf=-0.180169478
						70:leaf=0.230195999
			12:[duration<394] yes=23,no=24,missing=23
				23:[euribor3m<4.96150017] yes=43,no=44,missing=43
					43:[campaign<5] yes=71,no=72,missing=71
						71:leaf=-0.2895675
						72:leaf=-0.0452386662
					44:[duration<369] yes=73,no=74,missing=73
						73:leaf=-0.163256273
						74:leaf=0.140272811
				24:[age<40] yes=45,no=46,missing=45
					45:[age<38] yes=75,no=76,missing=75
						75:leaf=-0.129216805
						76:leaf=0.317388952
					46:[euribor3m<4.96049976] yes=77,no=78,missing=77
						77:leaf=-0.262350887
						78:leaf=-0.025239462
		6:[nr.employed<5013.1001] yes=13,no=14,missing=13
			13:[month<8] yes=25,no=26,missing=25
				25:[campaign<3] yes=47,no=48,missing=47
					47:leaf=0.24668102
					48:leaf=0.0484843999
				26:leaf=0.0123955673
			14:[duration<461] yes=27,no=28,missing=27
				27:[campaign<3] yes=49,no=50,missing=49
					49:leaf=-0.00539942225
					50:leaf=0.285969228
				28:[duration<475] yes=51,no=52,missing=51
					51:[age<41] yes=79,no=80,missing=79
						79:leaf=-0.250747293
						80:leaf=-0.0424796306
					52:[duration<838] yes=81,no=82,missing=81
						81:leaf=-0.0197125301
						82:leaf=0.0155480253
booster[13]:
0:[duration<229] yes=1,no=2,missing=1
	1:[emp.var.rate<-0.600000024] yes=3,no=4,missing=3
		3:[duration<89] yes=7,no=8,missing=7
			7:[job<9] yes=15,no=16,missing=15
				15:leaf=-0.241579488
				16:leaf=0.0144868493
			8:[duration<216] yes=17,no=18,missing=17
				17:[age<50] yes=27,no=28,missing=27
					27:[age<45] yes=43,no=44,missing=43
						43:leaf=-0.0106771141
						44:leaf=-0.288887411
					28:[duration<160] yes=45,no=46,missing=45
						45:leaf=-0.0527551584
						46:leaf=0.211879462
				18:[marital<2] yes=29,no=30,missing=29
					29:leaf=-0.252759844
					30:leaf=0.0305878427
		4:[month<8] yes=9,no=10,missing=9
			9:leaf=-0.296744674
			10:leaf=0.00648996886
	2:[duration<458] yes=5,no=6,missing=5
		5:[contact<1] yes=11,no=12,missing=11
			11:[duration<427] yes=19,no=20,missing=19
				19:[duration<422] yes=31,no=32,missing=31
					31:[age<34] yes=47,no=48,missing=47
						47:leaf=0.0905515999
						48:leaf=-0.0214834157
					32:leaf=0.30123651
				20:[loan<2] yes=33,no=34,missing=33
					33:[job<2] yes=49,no=50,missing=49
						49:leaf=-0.0059577683
						50:leaf=-0.276784241
					34:leaf=0.00263076555
			12:[day_of_week<2] yes=21,no=22,missing=21
				21:[cons.price.idx<94.010498] yes=35,no=36,missing=35
					35:[duration<414] yes=51,no=52,missing=51
						51:leaf=-0.255408347
						52:leaf=-0.0232770182
					36:[euribor3m<4.95250034] yes=53,no=54,missing=53
						53:leaf=0.354295284
						54:leaf=-0.123040982
				22:[euribor3m<0.891499996] yes=37,no=38,missing=37
					37:leaf=-0.00222631381
					38:[euribor3m<4.96150017] yes=55,no=56,missing=55
						55:leaf=-0.271788239
						56:leaf=-0.105838388
		6:[poutcome<2] yes=13,no=14,missing=13
			13:[age<58] yes=23,no=24,missing=23
				23:[age<57] yes=39,no=40,missing=39
					39:[campaign<2] yes=57,no=58,missing=57
						57:leaf=0.0187364593
						58:leaf=-0.0223680921
					40:[job<6] yes=59,no=60,missing=59
						59:leaf=-0.298325866
						60:leaf=0.325875789
				24:[campaign<3] yes=41,no=42,missing=41
					41:[job<3] yes=61,no=62,missing=61
						61:leaf=0.195260733
						62:leaf=-0.101517744
					42:[cons.price.idx<94.2599945] yes=63,no=64,missing=63
						63:leaf=0.339490563
						64:leaf=-0.00601902697
			14:[duration<651] yes=25,no=26,missing=25
				25:leaf=0.043787621
				26:leaf=0.243151203
booster[14]:
0:[duration<229] yes=1,no=2,missing=1
	1:[emp.var.rate<-0.600000024] yes=3,no=4,missing=3
		3:[cons.price.idx<92.8679962] yes=7,no=8,missing=7
			7:[education<7] yes=15,no=16,missing=15
				15:[loan<2] yes=27,no=28,missing=27
					27:[month<8] yes=43,no=44,missing=43
						43:leaf=0.074470222
						44:leaf=-0.182709649
					28:[month<8] yes=45,no=46,missing=45
						45:leaf=0.0143419923
						46:leaf=0.365045249
				16:leaf=-0.188763559
			8:[duration<104] yes=17,no=18,missing=17
				17:leaf=-0.254796714
				18:[cons.price.idx<92.9279938] yes=29,no=30,missing=29
					29:[previous<1] yes=47,no=48,missing=47
						47:leaf=-0.240591243
						48:leaf=-0.0280927178
					30:[duration<197] yes=49,no=50,missing=49
						49:leaf=0.0626201257
						50:leaf=-0.10914629
		4:[month<8] yes=9,no=10,missing=9
			9:leaf=-0.293907702
			10:leaf=0.00542846136
	2:[duration<476] yes=5,no=6,missing=5
		5:[contact<1] yes=11,no=12,missing=11
			11:[default<1] yes=19,no=20,missing=19
				19:[cons.price.idx<92.4049988] yes=31,no=32,missing=31
					31:[age<43] yes=51,no=52,missing=51
						51:leaf=-0.238101557
						52:leaf=0.13385646
					32:[euribor3m<1.28600001] yes=53,no=54,missing=53
						53:leaf=0.0856143683
						54:leaf=-0.00734986644
				20:[job<7] yes=33,no=34,missing=33
					33:[campaign<2] yes=55,no=56,missing=55
						55:leaf=0.0122388666
						56:leaf=-0.265859842
					34:leaf=0.0530905239
			12:[day_of_week<2] yes=21,no=22,missing=21
				21:[campaign<3] yes=35,no=36,missing=35
					35:[duration<381] yes=57,no=58,missing=57
						57:leaf=-0.268358976
						58:leaf=-0.0669003054
					36:[cons.price.idx<94.010498] yes=59,no=60,missing=59
						59:leaf=-0.12913084
						60:leaf=0.194673225
				22:[euribor3m<0.891499996] yes=37,no=38,missing=37
					37:leaf=-0.00188324158
					38:[duration<470] yes=61,no=62,missing=61
						61:leaf=-0.255924642
						62:leaf=-0.0349911526
		6:[age<24] yes=13,no=14,missing=13
			13:[job<2] yes=23,no=24,missing=23
				23:leaf=0.00563431904
				24:leaf=-0.253358245
			14:[euribor3m<4.86199999] yes=25,no=26,missing=25
				25:[campaign<7] yes=39,no=40,missing=39
					39:[duration<484] yes=63,no=64,missing=63
						63:leaf=0.205869481
						64:leaf=-0.0121398866
					40:[housing<1] yes=65,no=66,missing=65
						65:leaf=-0.081555061
						66:leaf=-0.286612719
				26:[euribor3m<4.96049976] yes=41,no=42,missing=41
					41:[campaign<2] yes=67,no=68,missing=67
						67:leaf=-0.037352562
						68:leaf=0.0830536485
					42:[loan<2] yes=69,no=70,missing=69
						69:leaf=0.00678781001
						70:leaf=-0.181291908
booster[15]:
0:[duration<252] yes=1,no=2,missing=1
	1:[emp.var.rate<-0.650000036] yes=3,no=4,missing=3
		3:[nr.employed<5087.65039] yes=7,no=8,missing=7
			7:[day_of_week<4] yes=15,no=16,missing=15
				15:[duration<166] yes=31,no=32,missing=31
					31:[cons.price.idx<93.5590057] yes=49,no=50,missing=49
						49:leaf=0.0199106392
						50:leaf=-0.256697655
					32:[duration<247] yes=51,no=52,missing=51
						51:leaf=0.108888805
						52:leaf=-0.152180195
				16:[duration<186] yes=33,no=34,missing=33
					33:[duration<135] yes=53,no=54,missing=53
						53:leaf=-0.0783796161
						54:leaf=0.155353725
					34:leaf=-0.254129082
			8:[euribor3m<1.39599991] yes=17,no=18,missing=17
				17:[euribor3m<1.27550006] yes=35,no=36,missing=35
					35:[previous<1] yes=55,no=56,missing=55
						55:leaf=-0.19739908
						56:leaf=0.11055062
					36:leaf=-0.263493061
				18:[age<58] yes=37,no=38,missing=37
					37:[age<29] yes=57,no=58,missing=57
						57:leaf=0.187812686
						58:leaf=-0.154324278
					38:leaf=0.248740837
		4:[age<27] yes=9,no=10,missing=9
			9:[duration<166] yes=19,no=20,missing=19
				19:leaf=-0.191832602
				20:leaf=0.1466043
			10:[month<8] yes=21,no=22,missing=21
				21:leaf=-0.291102201
				22:leaf=0.00454056263
	2:[pdays<8] yes=5,no=6,missing=5
		5:[age<56] yes=11,no=12,missing=11
			11:[job<1] yes=23,no=24,missing=23
				23:[month<5] yes=39,no=40,missing=39
					39:leaf=0.0446333177
					40:leaf=0.00431755604
				24:leaf=0.335079938
			12:[euribor3m<0.878499985] yes=25,no=26,missing=25
				25:leaf=0.0770429447
				26:leaf=-0.227070212
		6:[duration<500] yes=13,no=14,missing=13
			13:[contact<1] yes=27,no=28,missing=27
				27:[job<9] yes=41,no=42,missing=41
					41:[age<52] yes=59,no=60,missing=59
						59:leaf=-0.0560102575
						60:leaf=0.0945216045
					42:[euribor3m<1.25099993] yes=61,no=62,missing=61
						61:leaf=-0.0882706344
						62:leaf=0.185901761
				28:[duration<371] yes=43,no=44,missing=43
					43:[campaign<5] yes=63,no=64,missing=63
						63:leaf=-0.284498155
						64:leaf=0.00178882363
					44:[job<6] yes=65,no=66,missing=65
						65:leaf=-0.148718879
						66:leaf=0.0372514911
			14:[duration<510] yes=29,no=30,missing=29
				29:[day_of_week<2] yes=45,no=46,missing=45
					45:[emp.var.rate<1.25] yes=67,no=68,missing=67
						67:leaf=-0.201398522
						68:leaf=-0.0286343452
					46:[age<47] yes=69,no=70,missing=69
						69:leaf=0.535170972
						70:leaf=0.0562429018
				30:[duration<524] yes=47,no=48,missing=47
					47:[loan<2] yes=71,no=72,missing=71
						71:leaf=-0.186251566
						72:leaf=0.186714634
					48:[duration<544] yes=73,no=74,missing=73
						73:leaf=0.101172797
						74:leaf=-0.00615671137
booster[16]:
0:[duration<148] yes=1,no=2,missing=1
	1:[cons.price.idx<93.4065018] yes=3,no=4,missing=3
		3:[euribor3m<0.855000019] yes=7,no=8,missing=7
			7:[duration<133] yes=13,no=14,missing=13
				13:[duration<89] yes=25,no=26,missing=25
					25:leaf=-0.0462281294
					26:[education<4] yes=45,no=46,missing=45
						45:leaf=0.0342358463
						46:leaf=0.246892273
				14:leaf=-0.159746677
			8:[duration<120] yes=15,no=16,missing=15
				15:[euribor3m<1.73000002] yes=27,no=28,missing=27
					27:[age<56] yes=47,no=48,missing=47
						47:leaf=-0.250252783
						48:leaf=-0.0680199042
					28:leaf=-0.0636859685
				16:[campaign<3] yes=29,no=30,missing=29
					29:[job<4] yes=49,no=50,missing=49
						49:leaf=-0.193488955
						50:leaf=0.0396263003
					30:leaf=0.210907474
		4:leaf=-0.293757588
	2:[duration<412] yes=5,no=6,missing=5
		5:[euribor3m<4.04850006] yes=9,no=10,missing=9
			9:[pdays<4] yes=17,no=18,missing=17
				17:[day_of_week<2] yes=31,no=32,missing=31
					31:leaf=0.267164201
					32:[job<6] yes=51,no=52,missing=51
						51:leaf=-0.0955005288
						52:leaf=0.175316557
				18:[euribor3m<1.35949993] yes=33,no=34,missing=33
					33:[euribor3m<1.28600001] yes=53,no=54,missing=53
						53:leaf=0.000988151063
						54:leaf=-0.261994094
					34:[job<1] yes=55,no=56,missing=55
						55:leaf=0.296295345
						56:leaf=-0.0261128433
			10:[euribor3m<4.86450005] yes=19,no=20,missing=19
				19:[duration<395] yes=35,no=36,missing=35
					35:[education<2] yes=57,no=58,missing=57
						57:leaf=-0.130675003
						58:leaf=-0.27475816
					36:leaf=-0.0711966082
				20:[age<33] yes=37,no=38,missing=37
					37:[marital<2] yes=59,no=60,missing=59
						59:leaf=0.287411124
						60:leaf=-0.212371275
					38:[cons.price.idx<93.8580017] yes=61,no=62,missing=61
						61:leaf=0.119932838
						62:leaf=-0.218160585
		6:[age<30] yes=11,no=12,missing=11
			11:[job<10] yes=21,no=22,missing=21
				21:[day_of_week<4] yes=39,no=40,missing=39
					39:[job<4] yes=63,no=64,missing=63
						63:leaf=-0.084696129
						64:leaf=0.0740600899
					40:[job<5] yes=65,no=66,missing=65
						65:leaf=-0.0753060803
						66:leaf=-0.300460845
				22:leaf=0.222152948
			12:[age<32] yes=23,no=24,missing=23
				23:[contact<1] yes=41,no=42,missing=41
					41:[duration<1336] yes=67,no=68,missing=67
						67:leaf=0.260891467
						68:leaf=-0.143686771
					42:[month<4] yes=69,no=70,missing=69
						69:leaf=-0.314854383
						70:leaf=0.0821234658
				24:[marital<2] yes=43,no=44,missing=43
					43:[age<38] yes=71,no=72,missing=71
						71:leaf=-0.0585441403
						72:leaf=-0.000696799136
					44:[education<1] yes=73,no=74,missing=73
						73:leaf=-0.22316061
						74:leaf=0.0565633141
booster[17]:
0:[duration<146] yes=1,no=2,missing=1
	1:[emp.var.rate<-1.75] yes=3,no=4,missing=3
		3:[euribor3m<0.855000019] yes=7,no=8,missing=7
			7:[euribor3m<0.73300004] yes=13,no=14,missing=13
				13:[campaign<2] yes=23,no=24,missing=23
					23:[education<5] yes=41,no=42,missing=41
						41:leaf=-0.0767521933
						42:leaf=0.20174554
					24:[euribor3m<0.71449995] yes=43,no=44,missing=43
						43:leaf=-0.215274334
						44:leaf=-0.0469968095
				14:[education<6] yes=25,no=26,missing=25
					25:leaf=0.266833723
					26:leaf=-0.037453346
			8:[campaign<4] yes=15,no=16,missing=15
				15:[euribor3m<1.39849997] yes=27,no=28,missing=27
					27:leaf=-0.257750571
					28:[day_of_week<2] yes=45,no=46,missing=45
						45:leaf=-0.0908021927
						46:leaf=0.0643061474
				16:leaf=0.0865234509
		4:leaf=-0.285662234
	2:[duration<615] yes=5,no=6,missing=5
		5:[euribor3m<4.04850006] yes=9,no=10,missing=9
			9:[default<1] yes=17,no=18,missing=17
				17:[duration<580] yes=29,no=30,missing=29
					29:[euribor3m<1.25950003] yes=47,no=48,missing=47
						47:leaf=-0.00469025131
						48:leaf=0.0894383416
					30:[housing<1] yes=49,no=50,missing=49
						49:leaf=-0.00476913759
						50:leaf=-0.248311058
				18:[day_of_week<3] yes=31,no=32,missing=31
					31:[age<41] yes=51,no=52,missing=51
						51:leaf=0.0317539498
						52:leaf=-0.283953398
					32:[age<53] yes=53,no=54,missing=53
						53:leaf=-0.106742762
						54:leaf=0.20419319
			10:[duration<367] yes=19,no=20,missing=19
				19:[day_of_week<1] yes=33,no=34,missing=33
					33:[duration<278] yes=55,no=56,missing=55
						55:leaf=-0.232140794
						56:leaf=0.289715469
					34:[age<27] yes=57,no=58,missing=57
						57:leaf=0.0240957104
						58:leaf=-0.243532345
				20:[euribor3m<4.85750008] yes=35,no=36,missing=35
					35:[campaign<3] yes=59,no=60,missing=59
						59:leaf=-0.134568036
						60:leaf=0.0516109653
					36:[euribor3m<4.8585] yes=61,no=62,missing=61
						61:leaf=0.167672217
						62:leaf=-0.0284403861
		6:[cons.price.idx<92.5400009] yes=11,no=12,missing=11
			11:leaf=-0.260670036
			12:[euribor3m<1.29500008] yes=21,no=22,missing=21
				21:[previous<1] yes=37,no=38,missing=37
					37:[cons.conf.idx<-39.1500015] yes=63,no=64,missing=63
						63:leaf=0.283798784
						64:leaf=0.0524236932
					38:[duration<808] yes=65,no=66,missing=65
						65:leaf=-0.18239674
						66:leaf=0.19685708
				22:[loan<2] yes=39,no=40,missing=39
					39:[education<7] yes=67,no=68,missing=67
						67:leaf=0.00282296631
						68:leaf=-0.14944911
					40:[duration<802] yes=69,no=70,missing=69
						69:leaf=0.153236032
						70:leaf=-0.0164100062
booster[18]:
0:[duration<139] yes=1,no=2,missing=1
	1:[euribor3m<0.855000019] yes=3,no=4,missing=3
		3:[age<30] yes=7,no=8,missing=7
			7:[age<27] yes=15,no=16,missing=15
				15:leaf=-0.0191424061
				16:leaf=0.216139361
			8:[age<38] yes=17,no=18,missing=17
				17:leaf=-0.232263193
				18:[age<44] yes=31,no=32,missing=31
					31:leaf=0.190156534
					32:leaf=-0.0287435781
		4:[cons.conf.idx<-46.6500015] yes=9,no=10,missing=9
			9:[age<55] yes=19,no=20,missing=19
				19:[campaign<2] yes=33,no=34,missing=33
					33:leaf=-0.182968885
					34:leaf=0.0122085446
				20:leaf=0.0626592413
			10:[euribor3m<4.96650028] yes=21,no=22,missing=21
				21:[emp.var.rate<-2.3499999] yes=35,no=36,missing=35
					35:leaf=-0.113948308
					36:leaf=-0.286148369
				22:leaf=-0.0663333908
	2:[duration<458] yes=5,no=6,missing=5
		5:[emp.var.rate<0.5] yes=11,no=12,missing=11
			11:[duration<180] yes=23,no=24,missing=23
				23:[euribor3m<0.866999984] yes=37,no=38,missing=37
					37:[euribor3m<0.740999997] yes=53,no=54,missing=53
						53:leaf=0.0615654513
						54:leaf=-0.262546778
					38:[education<3] yes=55,no=56,missing=55
						55:leaf=-0.0498721339
						56:leaf=0.226806208
				24:[cons.price.idx<93.5590057] yes=39,no=40,missing=39
					39:[duration<253] yes=57,no=58,missing=57
						57:leaf=-0.141276419
						58:leaf=0.0059054927
					40:[age<40] yes=59,no=60,missing=59
						59:leaf=0.097827509
						60:leaf=-0.0459421277
			12:[campaign<2] yes=25,no=26,missing=25
				25:[age<36] yes=41,no=42,missing=41
					41:[job<7] yes=61,no=62,missing=61
						61:leaf=-0.232005224
						62:leaf=0.00283461018
					42:leaf=-0.277186871
				26:[duration<278] yes=43,no=44,missing=43
					43:[age<28] yes=63,no=64,missing=63
						63:leaf=0.128179133
						64:leaf=-0.235839367
					44:[job<5] yes=65,no=66,missing=65
						65:leaf=-0.080423072
						66:leaf=0.113411032
		6:[job<5] yes=13,no=14,missing=13
			13:[duration<1570] yes=27,no=28,missing=27
				27:[duration<1428] yes=45,no=46,missing=45
					45:[marital<2] yes=67,no=68,missing=67
						67:leaf=-0.00536229694
						68:leaf=0.0664271042
					46:[cons.price.idx<94.2294998] yes=69,no=70,missing=69
						69:leaf=-0.332417756
						70:leaf=-0.00328073464
				28:[cons.price.idx<93.9560013] yes=47,no=48,missing=47
					47:leaf=-0.0617474765
					48:[loan<2] yes=71,no=72,missing=71
						71:leaf=0.282472461
						72:leaf=0.00487314258
			14:[job<7] yes=29,no=30,missing=29
				29:[cons.price.idx<94.0245056] yes=49,no=50,missing=49
					49:[emp.var.rate<-0.949999988] yes=73,no=74,missing=73
						73:leaf=0.104842313
						74:leaf=-0.23159039
					50:[age<47] yes=75,no=76,missing=75
						75:leaf=-0.0709664002
						76:leaf=0.245472521
				30:[age<50] yes=51,no=52,missing=51
					51:[duration<1200] yes=77,no=78,missing=77
						77:leaf=-0.0329651088
						78:leaf=0.125275686
					52:[duration<1347] yes=79,no=80,missing=79
						79:leaf=0.17730087
						80:leaf=-0.322520912
booster[19]:
0:[duration<146] yes=1,no=2,missing=1
	1:[cons.price.idx<93.4065018] yes=3,no=4,missing=3
		3:[euribor3m<1.26099992] yes=7,no=8,missing=7
			7:[campaign<4] yes=15,no=16,missing=15
				15:[age<32] yes=25,no=26,missing=25
					25:[age<27] yes=41,no=42,missing=41
						41:leaf=-0.0322729759
						42:leaf=0.176644236
					26:[duration<96] yes=43,no=44,missing=43
						43:leaf=0.0542500764
						44:leaf=-0.164387465
				16:leaf=0.169532925
			8:[age<58] yes=17,no=18,missing=17
				17:[cons.price.idx<92.8679962] yes=27,no=28,missing=27
					27:leaf=0.0359811559
					28:leaf=-0.238695696
				18:leaf=0.0296878144
		4:[age<57] yes=9,no=10,missing=9
			9:leaf=-0.283493459
			10:leaf=-0.0659456402
	2:[pdays<4] yes=5,no=6,missing=5
		5:[pdays<3] yes=11,no=12,missing=11
			11:leaf=-0.114214472
			12:[campaign<2] yes=19,no=20,missing=19
				19:[month<7] yes=29,no=30,missing=29
					29:leaf=0.301637888
					30:leaf=0.0820921138
				20:[day_of_week<2] yes=31,no=32,missing=31
					31:leaf=0.169833839
					32:leaf=-0.11882282
		6:[duration<362] yes=13,no=14,missing=13
			13:[emp.var.rate<0.5] yes=21,no=22,missing=21
				21:[euribor3m<1.49049997] yes=33,no=34,missing=33
					33:[duration<315] yes=45,no=46,missing=45
						45:leaf=-0.00254809484
						46:leaf=-0.118793756
					34:[age<34] yes=47,no=48,missing=47
						47:leaf=0.242829189
						48:leaf=-0.0330382064
				22:[campaign<5] yes=35,no=36,missing=35
					35:[age<29] yes=49,no=50,missing=49
						49:leaf=0.0205398183
						50:leaf=-0.239175379
					36:[duration<282] yes=51,no=52,missing=51
						51:leaf=-0.181308702
						52:leaf=0.29407382
			14:[age<30] yes=23,no=24,missing=23
				23:[duration<1108] yes=37,no=38,missing=37
					37:[duration<1054] yes=53,no=54,missing=53
						53:leaf=-0.049713634
						54:leaf=0.368472278
					38:[housing<2] yes=55,no=56,missing=55
						55:leaf=-0.269536495
						56:leaf=-0.00952555146
				24:[age<32] yes=39,no=40,missing=39
					39:[euribor3m<4.96350002] yes=57,no=58,missing=57
						57:leaf=0.0932459459
						58:leaf=-0.180524975
					40:[age<38] yes=59,no=60,missing=59
						59:leaf=-0.0350775644
						60:leaf=0.0103516439
booster[20]:
0:[duration<120] yes=1,no=2,missing=1
	1:[cons.price.idx<92.4499969] yes=3,no=4,missing=3
		3:[education<6] yes=7,no=8,missing=7
			7:leaf=0.168533996
			8:leaf=-0.0667304993
		4:[age<59] yes=9,no=10,missing=9
			9:[euribor3m<0.715499997] yes=13,no=14,missing=13
				13:leaf=-0.0412131585
				14:[cons.price.idx<92.8679962] yes=19,no=20,missing=19
					19:leaf=-0.0594033375
					20:leaf=-0.277830333
			10:leaf=-0.0213278159
	2:[age<81] yes=5,no=6,missing=5
		5:[duration<731] yes=11,no=12,missing=11
			11:[duration<711] yes=15,no=16,missing=15
				15:[duration<704] yes=21,no=22,missing=21
					21:[duration<698] yes=29,no=30,missing=29
						29:leaf=-0.014177925
						30:leaf=-0.212837592
					22:[job<5] yes=31,no=32,missing=31
						31:leaf=0.339758635
						32:leaf=0.000887676491
				16:[euribor3m<4.95800018] yes=23,no=24,missing=23
					23:[job<8] yes=33,no=34,missing=33
						33:leaf=-0.309539765
						34:leaf=0.0237086304
					24:[education<6] yes=35,no=36,missing=35
						35:leaf=-0.0585844442
						36:leaf=0.300835222
			12:[duration<735] yes=17,no=18,missing=17
				17:[job<2] yes=25,no=26,missing=25
					25:leaf=0.0347652175
					26:leaf=0.301316053
				18:[housing<1] yes=27,no=28,missing=27
					27:[euribor3m<4.85649967] yes=37,no=38,missing=37
						37:leaf=-0.0556430034
						38:leaf=0.0572123714
					28:[age<41] yes=39,no=40,missing=39
						39:leaf=-0.0653984696
						40:leaf=0.0267693549
		6:leaf=0.222644016
booster[21]:
0:[duration<229] yes=1,no=2,missing=1
	1:[emp.var.rate<0.5] yes=3,no=4,missing=3
		3:[duration<216] yes=7,no=8,missing=7
			7:[cons.price.idx<94.2070007] yes=13,no=14,missing=13
				13:[duration<204] yes=21,no=22,missing=21
					21:[duration<180] yes=33,no=34,missing=33
						33:leaf=0.0273799766
						34:leaf=-0.104068719
					22:[euribor3m<0.887499988] yes=35,no=36,missing=35
						35:leaf=0.276673377
						36:leaf=-0.102253549
				14:[euribor3m<0.970999956] yes=23,no=24,missing=23
					23:leaf=-0.210720703
					24:leaf=-0.0478634648
			8:[age<31] yes=15,no=16,missing=15
				15:leaf=0.0406189859
				16:[pdays<508] yes=25,no=26,missing=25
					25:leaf=-0.0578761436
					26:leaf=-0.241496608
		4:[age<53] yes=9,no=10,missing=9
			9:leaf=-0.27644062
			10:leaf=-0.0585847013
	2:[duration<233] yes=5,no=6,missing=5
		5:leaf=0.227496281
		6:[euribor3m<1.28600001] yes=11,no=12,missing=11
			11:[cons.price.idx<92.4049988] yes=17,no=18,missing=17
				17:[campaign<2] yes=27,no=28,missing=27
					27:[education<4] yes=37,no=38,missing=37
						37:leaf=-0.0262829456
						38:leaf=-0.295183122
					28:[job<4] yes=39,no=40,missing=39
						39:leaf=0.251209021
						40:leaf=-0.166317761
				18:[age<46] yes=29,no=30,missing=29
					29:[poutcome<1] yes=41,no=42,missing=41
						41:leaf=-0.00676191831
						42:leaf=0.154150128
					30:[duration<337] yes=43,no=44,missing=43
						43:leaf=-0.152190641
						44:leaf=0.081900157
			12:[duration<255] yes=19,no=20,missing=19
				19:leaf=-0.220339909
				20:[euribor3m<1.34899998] yes=31,no=32,missing=31
					31:[campaign<2] yes=45,no=46,missing=45
						45:leaf=0.00928795803
						46:leaf=-0.226068839
					32:[euribor3m<1.39849997] yes=47,no=48,missing=47
						47:leaf=0.268495351
						48:leaf=-0.0049552233
booster[22]:
0:[duration<107] yes=1,no=2,missing=1
	1:[cons.price.idx<92.4049988] yes=3,no=4,missing=3
		3:leaf=0.0674203634
		4:[education<4] yes=7,no=8,missing=7
			7:leaf=-0.258432806
			8:[job<1] yes=13,no=14,missing=13
				13:leaf=0.0183889084
				14:[job<7] yes=21,no=22,missing=21
					21:leaf=-0.186180219
					22:leaf=-0.0446313955
	2:[campaign<7] yes=5,no=6,missing=5
		5:[age<79] yes=9,no=10,missing=9
			9:[duration<482] yes=15,no=16,missing=15
				15:[contact<1] yes=23,no=24,missing=23
					23:[default<1] yes=33,no=34,missing=33
						33:leaf=0.0147323729
						34:leaf=-0.0947257057
					24:[campaign<5] yes=35,no=36,missing=35
						35:leaf=-0.111008488
						36:leaf=0.0617068522
				16:[duration<484] yes=25,no=26,missing=25
					25:[euribor3m<4.8585] yes=37,no=38,missing=37
						37:leaf=0.339678884
						38:leaf=-0.0478402041
					26:[duration<486] yes=39,no=40,missing=39
						39:leaf=-0.171757281
						40:leaf=0.0065281596
			10:leaf=0.17678231
		6:[euribor3m<4.85949993] yes=11,no=12,missing=11
			11:[day_of_week<4] yes=17,no=18,missing=17
				17:[loan<2] yes=27,no=28,missing=27
					27:leaf=-0.314543009
					28:leaf=-0.0846514329
				18:leaf=-0.0430304706
			12:[duration<999] yes=19,no=20,missing=19
				19:[housing<2] yes=29,no=30,missing=29
					29:[month<5] yes=41,no=42,missing=41
						41:leaf=-0.266524315
						42:leaf=0.0610363185
					30:[day_of_week<1] yes=43,no=44,missing=43
						43:leaf=0.328116208
						44:leaf=-0.0413780585
				20:[housing<1] yes=31,no=32,missing=31
					31:leaf=0.320476323
					32:leaf=0.0149230501
booster[23]:
0:[duration<85] yes=1,no=2,missing=1
	1:[job<9] yes=3,no=4,missing=3
		3:leaf=-0.224643081
		4:leaf=0.0109749679
	2:[pdays<4] yes=5,no=6,missing=5
		5:[pdays<3] yes=7,no=8,missing=7
			7:leaf=-0.0925577283
			8:[campaign<2] yes=11,no=12,missing=11
				11:[duration<191] yes=17,no=18,missing=17
					17:leaf=0.0621400736
					18:leaf=0.265499532
				12:[campaign<3] yes=19,no=20,missing=19
					19:leaf=-0.139493331
					20:leaf=0.138400212
		6:[duration<362] yes=9,no=10,missing=9
			9:[emp.var.rate<0.5] yes=13,no=14,missing=13
				13:[euribor3m<1.778] yes=21,no=22,missing=21
					21:[cons.price.idx<94.2070007] yes=29,no=30,missing=29
						29:leaf=-0.00212548277
						30:leaf=-0.114580184
					22:[housing<1] yes=31,no=32,missing=31
						31:leaf=0.247515798
						32:leaf=-0.00426974427
				14:[day_of_week<1] yes=23,no=24,missing=23
					23:[duration<278] yes=33,no=34,missing=33
						33:leaf=-0.195097327
						34:leaf=0.297916204
					24:[age<27] yes=35,no=36,missing=35
						35:leaf=0.0395098068
						36:leaf=-0.224396154
			10:[age<30] yes=15,no=16,missing=15
				15:[job<4] yes=25,no=26,missing=25
					25:[duration<681] yes=37,no=38,missing=37
						37:leaf=-0.164700329
						38:leaf=-0.0176314693
					26:[cons.price.idx<93.8970032] yes=39,no=40,missing=39
						39:leaf=-0.202957898
						40:leaf=0.0828578472
				16:[age<32] yes=27,no=28,missing=27
					27:[duration<400] yes=41,no=42,missing=41
						41:leaf=0.324278444
						42:leaf=0.0420503393
					28:[euribor3m<4.96049976] yes=43,no=44,missing=43
						43:leaf=0.00893243123
						44:leaf=-0.0338113867
booster[24]:
0:[duration<63] yes=1,no=2,missing=1
	1:leaf=-0.203422412
	2:[pdays<4] yes=3,no=4,missing=3
		3:[pdays<3] yes=5,no=6,missing=5
			5:leaf=-0.0773344934
			6:[campaign<2] yes=9,no=10,missing=9
				9:leaf=0.212493062
				10:[duration<218] yes=15,no=16,missing=15
					15:leaf=-0.111505516
					16:leaf=0.115874045
		4:[euribor3m<4.86199999] yes=7,no=8,missing=7
			7:[campaign<7] yes=11,no=12,missing=11
				11:[education<1] yes=17,no=18,missing=17
					17:[job<2] yes=25,no=26,missing=25
						25:leaf=-0.197970405
						26:leaf=0.0673922151
					18:[housing<2] yes=27,no=28,missing=27
						27:leaf=-0.0266407672
						28:leaf=0.0205825623
				12:[housing<1] yes=19,no=20,missing=19
					19:[campaign<9] yes=29,no=30,missing=29
						29:leaf=-0.200596437
						30:leaf=0.0464142151
					20:leaf=-0.277077109
			8:[duration<230] yes=13,no=14,missing=13
				13:[cons.price.idx<93.9560013] yes=21,no=22,missing=21
					21:leaf=-0.0399805754
					22:leaf=-0.205098525
				14:[duration<292] yes=23,no=24,missing=23
					23:[euribor3m<4.96049976] yes=31,no=32,missing=31
						31:leaf=0.53502357
						32:leaf=-0.0207870454
					24:[duration<336] yes=33,no=34,missing=33
						33:leaf=-0.190018132
						34:leaf=0.0121028107
booster[25]:
0:[duration<146] yes=1,no=2,missing=1
	1:[cons.price.idx<93.836998] yes=3,no=4,missing=3
		3:[age<30] yes=7,no=8,missing=7
			7:[month<5] yes=13,no=14,missing=13
				13:leaf=-0.0626091287
				14:leaf=0.150562465
			8:[housing<1] yes=15,no=16,missing=15
				15:[campaign<2] yes=23,no=24,missing=23
					23:[euribor3m<0.817000031] yes=39,no=40,missing=39
						39:leaf=0.224642649
						40:leaf=0.00853430573
					24:[month<5] yes=41,no=42,missing=41
						41:leaf=0.0909402966
						42:leaf=-0.194123343
				16:[campaign<3] yes=25,no=26,missing=25
					25:[duration<76] yes=43,no=44,missing=43
						43:leaf=0.0276420806
						44:leaf=-0.215164259
					26:leaf=0.0884214267
		4:leaf=-0.239915699
	2:[age<25] yes=5,no=6,missing=5
		5:[month<8] yes=9,no=10,missing=9
			9:[job<8] yes=17,no=18,missing=17
				17:[campaign<2] yes=27,no=28,missing=27
					27:[emp.var.rate<1.25] yes=45,no=46,missing=45
						45:leaf=-0.00198409101
						46:leaf=0.301432341
					28:[euribor3m<4.85750008] yes=47,no=48,missing=47
						47:leaf=0.0338835828
						48:leaf=-0.235572278
				18:[loan<1] yes=29,no=30,missing=29
					29:leaf=-0.312440455
					30:leaf=-0.0212632548
			10:leaf=0.157572567
		6:[euribor3m<0.734500051] yes=11,no=12,missing=11
			11:[poutcome<1] yes=19,no=20,missing=19
				19:[emp.var.rate<-2.4000001] yes=31,no=32,missing=31
					31:[job<6] yes=49,no=50,missing=49
						49:leaf=-0.0211437028
						50:leaf=0.201132074
					32:[housing<2] yes=51,no=52,missing=51
						51:leaf=0.0349009149
						52:leaf=-0.313346297
				20:[duration<167] yes=33,no=34,missing=33
					33:leaf=-0.0585184954
					34:[housing<1] yes=53,no=54,missing=53
						53:leaf=0.0496415719
						54:leaf=0.261318743
			12:[euribor3m<0.847499967] yes=21,no=22,missing=21
				21:[duration<211] yes=35,no=36,missing=35
					35:leaf=-0.264774978
					36:[age<53] yes=55,no=56,missing=55
						55:leaf=0.0959049389
						56:leaf=-0.179954365
				22:[euribor3m<0.86500001] yes=37,no=38,missing=37
					37:leaf=0.28331086
					38:[duration<185] yes=57,no=58,missing=57
						57:leaf=0.110557958
						58:leaf=-0.00426233048
booster[26]:
0:[duration<229] yes=1,no=2,missing=1
	1:[emp.var.rate<0.5] yes=3,no=4,missing=3
		3:[duration<197] yes=7,no=8,missing=7
			7:[previous<3] yes=15,no=16,missing=15
				15:[age<25] yes=23,no=24,missing=23
					23:leaf=-0.17211026
					24:[age<28] yes=37,no=38,missing=37
						37:leaf=0.141743079
						38:leaf=-0.00236859685
				16:leaf=0.14703545
			8:[euribor3m<0.858999968] yes=17,no=18,missing=17
				17:[month<5] yes=25,no=26,missing=25
					25:leaf=0.152989164
					26:leaf=-0.0369293541
				18:[age<28] yes=27,no=28,missing=27
					27:leaf=0.0258604214
					28:[age<53] yes=39,no=40,missing=39
						39:leaf=-0.247665673
						40:leaf=-0.0397095904
		4:[age<51] yes=9,no=10,missing=9
			9:leaf=-0.25226602
			10:leaf=-0.00675387075
	2:[duration<234] yes=5,no=6,missing=5
		5:[month<5] yes=11,no=12,missing=11
			11:leaf=0.381891102
			12:leaf=-0.129942551
		6:[cons.price.idx<92.4049988] yes=13,no=14,missing=13
			13:[campaign<2] yes=19,no=20,missing=19
				19:[education<4] yes=29,no=30,missing=29
					29:leaf=-0.0186327342
					30:leaf=-0.258640736
				20:[age<41] yes=31,no=32,missing=31
					31:leaf=-0.0563447252
					32:leaf=0.101481274
			14:[euribor3m<1.29500008] yes=21,no=22,missing=21
				21:[euribor3m<1.25549996] yes=33,no=34,missing=33
					33:[age<41] yes=41,no=42,missing=41
						41:leaf=0.072663717
						42:leaf=-0.0643230006
					34:[loan<2] yes=43,no=44,missing=43
						43:leaf=0.170011714
						44:leaf=-0.11346972
				22:[euribor3m<1.34899998] yes=35,no=36,missing=35
					35:[age<34] yes=45,no=46,missing=45
						45:leaf=0.0450908318
						46:leaf=-0.193264276
					36:[euribor3m<1.39849997] yes=47,no=48,missing=47
						47:leaf=0.176196948
						48:leaf=-0.00225284486
booster[27]:
0:[duration<63] yes=1,no=2,missing=1
	1:leaf=-0.174301788
	2:[education<7] yes=3,no=4,missing=3
		3:[age<43] yes=5,no=6,missing=5
			5:[education<1] yes=9,no=10,missing=9
				9:[age<34] yes=17,no=18,missing=17
					17:[month<5] yes=31,no=32,missing=31
						31:leaf=0.197159573
						32:leaf=-0.150968343
					18:[job<3] yes=33,no=34,missing=33
						33:leaf=-0.238307625
						34:leaf=-0.0130307311
				10:[age<38] yes=19,no=20,missing=19
					19:[cons.conf.idx<-40.3499985] yes=35,no=36,missing=35
						35:leaf=0.0277692266
						36:leaf=-0.0354236551
					20:[job<1] yes=37,no=38,missing=37
						37:leaf=-0.0295035467
						38:leaf=0.112069748
			6:[job<2] yes=11,no=12,missing=11
				11:[euribor3m<4.95849991] yes=21,no=22,missing=21
					21:[day_of_week<2] yes=39,no=40,missing=39
						39:leaf=0.105452314
						40:leaf=-0.100202389
					22:[education<1] yes=41,no=42,missing=41
						41:leaf=0.337173879
						42:leaf=0.0655789524
				12:[euribor3m<4.86549997] yes=23,no=24,missing=23
					23:[duration<792] yes=43,no=44,missing=43
						43:leaf=-0.051291924
						44:leaf=0.0839306042
					24:[duration<496] yes=45,no=46,missing=45
						45:leaf=0.0504835919
						46:leaf=-0.18928121
		4:[age<44] yes=7,no=8,missing=7
			7:[loan<2] yes=13,no=14,missing=13
				13:[euribor3m<0.817000031] yes=25,no=26,missing=25
					25:leaf=0.0623569228
					26:[euribor3m<4.96150017] yes=47,no=48,missing=47
						47:leaf=-0.298032135
						48:leaf=-0.0371277407
				14:[day_of_week<2] yes=27,no=28,missing=27
					27:leaf=-0.0275929663
					28:leaf=0.140805751
			8:[day_of_week<4] yes=15,no=16,missing=15
				15:[job<5] yes=29,no=30,missing=29
					29:[euribor3m<4.8585] yes=49,no=50,missing=49
						49:leaf=0.0456864126
						50:leaf=-0.162171692
					30:[euribor3m<0.875] yes=51,no=52,missing=51
						51:leaf=-0.120676227
						52:leaf=0.242023811
				16:leaf=0.289756984
booster[28]:
0:[duration<63] yes=1,no=2,missing=1
	1:leaf=-0.160822093
	2:[previous<2] yes=3,no=4,missing=3
		3:[duration<531] yes=5,no=6,missing=5
			5:[education<5] yes=9,no=10,missing=9
				9:[nr.employed<5087.65039] yes=17,no=18,missing=17
					17:[euribor3m<0.842000008] yes=31,no=32,missing=31
						31:leaf=-0.0461592413
						32:leaf=0.139138058
					18:[campaign<4] yes=33,no=34,missing=33
						33:leaf=-0.120289624
						34:leaf=0.0422484316
				10:[campaign<6] yes=19,no=20,missing=19
					19:[cons.price.idx<94.3399963] yes=35,no=36,missing=35
						35:leaf=0.000301566906
						36:leaf=0.163575381
					20:[duration<377] yes=37,no=38,missing=37
						37:leaf=-0.0322164483
						38:leaf=-0.255276024
			6:[duration<544] yes=11,no=12,missing=11
				11:[day_of_week<2] yes=21,no=22,missing=21
					21:[age<40] yes=39,no=40,missing=39
						39:leaf=-0.230979547
						40:leaf=0.108132251
					22:[duration<537] yes=41,no=42,missing=41
						41:leaf=0.0679422989
						42:leaf=0.492374808
				12:[duration<552] yes=23,no=24,missing=23
					23:leaf=-0.282792896
					24:[duration<557] yes=43,no=44,missing=43
						43:leaf=0.235390648
						44:leaf=0.00209409185
		4:[day_of_week<3] yes=7,no=8,missing=7
			7:[education<6] yes=13,no=14,missing=13
				13:[poutcome<1] yes=25,no=26,missing=25
					25:leaf=-0.25631088
					26:leaf=0.108544409
				14:[month<7] yes=27,no=28,missing=27
					27:[campaign<2] yes=45,no=46,missing=45
						45:leaf=0.0766332895
						46:leaf=-0.132383838
					28:leaf=0.189947918
			8:[age<32] yes=15,no=16,missing=15
				15:leaf=-0.0491689891
				16:[campaign<2] yes=29,no=30,missing=29
					29:[pdays<7] yes=47,no=48,missing=47
						47:leaf=0.169371992
						48:leaf=-0.0138999289
					30:leaf=0.331820369
booster[29]:
0:[campaign<7] yes=1,no=2,missing=1
	1:[age<27] yes=3,no=4,missing=3
		3:[education<3] yes=7,no=8,missing=7
			7:[age<26] yes=15,no=16,missing=15
				15:[campaign<2] yes=27,no=28,missing=27
					27:[duration<698] yes=45,no=46,missing=45
						45:leaf=-0.0419620387
						46:leaf=0.249462768
					28:[day_of_week<3] yes=47,no=48,missing=47
						47:leaf=0.0106237549
						48:leaf=-0.205294117
				16:leaf=0.287177742
			8:[euribor3m<4.85949993] yes=17,no=18,missing=17
				17:[day_of_week<2] yes=29,no=30,missing=29
					29:[emp.var.rate<-1.75] yes=49,no=50,missing=49
						49:leaf=-0.0306727048
						50:leaf=0.279938728
					30:[job<9] yes=51,no=52,missing=51
						51:leaf=-0.173765868
						52:leaf=0.138487652
				18:[job<7] yes=31,no=32,missing=31
					31:leaf=-0.299524516
					32:[housing<1] yes=53,no=54,missing=53
						53:leaf=0.0283506401
						54:leaf=-0.210878819
		4:[age<28] yes=9,no=10,missing=9
			9:[loan<2] yes=19,no=20,missing=19
				19:[month<6] yes=33,no=34,missing=33
					33:[duration<485] yes=55,no=56,missing=55
						55:leaf=0.101290084
						56:leaf=0.336950332
					34:[day_of_week<3] yes=57,no=58,missing=57
						57:leaf=-0.125324592
						58:leaf=0.146679386
				20:leaf=-0.233226761
			10:[day_of_week<4] yes=21,no=22,missing=21
				21:[duration<1403] yes=35,no=36,missing=35
					35:[duration<1201] yes=59,no=60,missing=59
						59:leaf=-0.00903153885
						60:leaf=0.13854821
					36:[duration<1594] yes=61,no=62,missing=61
						61:leaf=-0.252858102
						62:leaf=0.0152201988
				22:[age<31] yes=37,no=38,missing=37
					37:[housing<1] yes=63,no=64,missing=63
						63:leaf=0.0475287922
						64:leaf=-0.236434817
					38:[campaign<5] yes=65,no=66,missing=65
						65:leaf=0.0684114099
						66:leaf=-0.240115494
	2:[euribor3m<4.85949993] yes=5,no=6,missing=5
		5:[job<5] yes=11,no=12,missing=11
			11:leaf=-0.225863472
			12:leaf=-0.0463908538
		6:[duration<856] yes=13,no=14,missing=13
			13:[age<39] yes=23,no=24,missing=23
				23:[age<30] yes=39,no=40,missing=39
					39:leaf=0.0339774266
					40:leaf=-0.306215197
				24:[cons.conf.idx<-39.0999985] yes=41,no=42,missing=41
					41:[housing<2] yes=67,no=68,missing=67
						67:leaf=-0.176793903
						68:leaf=0.0616958998
					42:leaf=0.36361587
			14:[age<39] yes=25,no=26,missing=25
				25:leaf=0.300745308
				26:[day_of_week<1] yes=43,no=44,missing=43
					43:leaf=0.106931828
					44:leaf=-0.163466394
booster[30]:
0:[duration<1318] yes=1,no=2,missing=1
	1:[duration<1159] yes=3,no=4,missing=3
		3:[duration<1119] yes=7,no=8,missing=7
			7:[duration<1100] yes=15,no=16,missing=15
				15:[duration<1045] yes=29,no=30,missing=29
					29:[duration<1002] yes=47,no=48,missing=47
						47:leaf=-0.00126234081
						48:leaf=-0.1371741
					30:[housing<2] yes=49,no=50,missing=49
						49:leaf=0.233503744
						50:leaf=-0.0427637398
				16:[housing<1] yes=31,no=32,missing=31
					31:leaf=-0.297640681
					32:leaf=0.067123957
			8:[age<30] yes=17,no=18,missing=17
				17:[cons.price.idx<93.9560013] yes=33,no=34,missing=33
					33:leaf=0.056566596
					34:leaf=-0.131365865
				18:[age<46] yes=35,no=36,missing=35
					35:leaf=0.418807477
					36:[euribor3m<4.86499977] yes=51,no=52,missing=51
						51:leaf=-0.14936161
						52:leaf=0.214524105
		4:[duration<1172] yes=9,no=10,missing=9
			9:leaf=-0.345539808
			10:[euribor3m<4.95950031] yes=19,no=20,missing=19
				19:[campaign<4] yes=37,no=38,missing=37
					37:[duration<1271] yes=53,no=54,missing=53
						53:leaf=0.13022095
						54:leaf=-0.125123426
					38:[age<38] yes=55,no=56,missing=55
						55:leaf=-0.214122906
						56:leaf=-0.0109776156
				20:[age<47] yes=39,no=40,missing=39
					39:[contact<1] yes=57,no=58,missing=57
						57:leaf=-0.0985937044
						58:leaf=-0.366785616
					40:leaf=0.100653358
	2:[age<50] yes=5,no=6,missing=5
		5:[duration<1451] yes=11,no=12,missing=11
			11:[age<40] yes=21,no=22,missing=21
				21:[age<37] yes=41,no=42,missing=41
					41:[job<1] yes=59,no=60,missing=59
						59:leaf=0.0168432333
						60:leaf=0.283433944
					42:leaf=-0.17625019
				22:leaf=0.364418209
			12:[campaign<3] yes=23,no=24,missing=23
				23:[job<1] yes=43,no=44,missing=43
					43:leaf=-0.150147334
					44:[education<3] yes=61,no=62,missing=61
						61:leaf=0.264385015
						62:leaf=0.0107543748
				24:[job<2] yes=45,no=46,missing=45
					45:[duration<1691] yes=63,no=64,missing=63
						63:leaf=-0.133808509
						64:leaf=0.117065527
					46:leaf=-0.302059591
		6:[cons.conf.idx<-39.0999985] yes=13,no=14,missing=13
			13:[month<4] yes=25,no=26,missing=25
				25:leaf=-0.132486194
				26:leaf=0.174808681
			14:[duration<1678] yes=27,no=28,missing=27
				27:leaf=-0.302235365
				28:leaf=-0.0429214239
booster[31]:
0:[euribor3m<0.715499997] yes=1,no=2,missing=1
	1:[day_of_week<3] yes=3,no=4,missing=3
		3:[duration<167] yes=7,no=8,missing=7
			7:leaf=-0.155551031
			8:[housing<1] yes=13,no=14,missing=13
				13:[age<33] yes=19,no=20,missing=19
					19:leaf=0.0375281423
					20:leaf=0.211100623
				14:[cons.conf.idx<-34.6999969] yes=21,no=22,missing=21
					21:leaf=-0.153096721
					22:leaf=0.0618336275
		4:[poutcome<1] yes=9,no=10,missing=9
			9:leaf=0.0211536493
			10:leaf=0.240323648
	2:[euribor3m<0.719500005] yes=5,no=6,missing=5
		5:leaf=-0.254462302
		6:[euribor3m<0.723500013] yes=11,no=12,missing=11
			11:[education<4] yes=15,no=16,missing=15
				15:leaf=0.241494417
				16:leaf=0.017799478
			12:[duration<226] yes=17,no=18,missing=17
				17:[duration<185] yes=23,no=24,missing=23
					23:[cons.price.idx<93.8580017] yes=27,no=28,missing=27
						27:leaf=0.0370482244
						28:leaf=-0.134540245
					24:[age<51] yes=29,no=30,missing=29
						29:leaf=-0.240220755
						30:leaf=0.0721562505
				18:[duration<231] yes=25,no=26,missing=25
					25:leaf=0.19075413
					26:[euribor3m<0.74849999] yes=31,no=32,missing=31
						31:leaf=0.149209514
						32:leaf=-0.00138572301
booster[32]:
0:[previous<2] yes=1,no=2,missing=1
	1:[duration<458] yes=3,no=4,missing=3
		3:[duration<445] yes=7,no=8,missing=7
			7:[duration<412] yes=15,no=16,missing=15
				15:[contact<1] yes=25,no=26,missing=25
					25:[campaign<4] yes=39,no=40,missing=39
						39:leaf=-0.0117764072
						40:leaf=0.117205128
					26:[euribor3m<4.86199999] yes=41,no=42,missing=41
						41:leaf=-0.166667715
						42:leaf=0.000875114754
				16:[age<31] yes=27,no=28,missing=27
					27:[emp.var.rate<-0.300000012] yes=43,no=44,missing=43
						43:leaf=-0.0415910184
						44:leaf=-0.176976204
					28:[education<6] yes=45,no=46,missing=45
						45:leaf=-0.0282310396
						46:leaf=0.282934606
			8:[euribor3m<4.95950031] yes=17,no=18,missing=17
				17:leaf=-0.243085429
				18:leaf=-0.0530967489
		4:[duration<464] yes=9,no=10,missing=9
			9:[marital<2] yes=19,no=20,missing=19
				19:[job<2] yes=29,no=30,missing=29
					29:leaf=0.297503114
					30:leaf=0.0247943569
				20:leaf=-0.0285148397
			10:[duration<475] yes=21,no=22,missing=21
				21:[age<48] yes=31,no=32,missing=31
					31:leaf=-0.229836494
					32:leaf=0.039050322
				22:[euribor3m<4.96249962] yes=33,no=34,missing=33
					33:[duration<477] yes=47,no=48,missing=47
						47:leaf=0.215664834
						48:leaf=0.00573818013
					34:[duration<880] yes=49,no=50,missing=49
						49:leaf=-0.00189650396
						50:leaf=-0.15786469
	2:[day_of_week<3] yes=5,no=6,missing=5
		5:[job<9] yes=11,no=12,missing=11
			11:[poutcome<1] yes=23,no=24,missing=23
				23:[age<35] yes=35,no=36,missing=35
					35:leaf=0.0201143064
					36:leaf=-0.242324948
				24:[cons.conf.idx<-39.9000015] yes=37,no=38,missing=37
					37:leaf=-0.0346862823
					38:leaf=0.12189696
			12:leaf=0.155935854
		6:[education<6] yes=13,no=14,missing=13
			13:leaf=0.231295347
			14:leaf=0.0220993627
booster[33]:
0:[pdays<4] yes=1,no=2,missing=1
	1:[euribor3m<1.01250005] yes=3,no=4,missing=3
		3:[cons.price.idx<92.5139999] yes=7,no=8,missing=7
			7:leaf=0.0146081625
			8:leaf=0.214746729
		4:[education<4] yes=9,no=10,missing=9
			9:leaf=0.0603887625
			10:leaf=-0.122192971
	2:[duration<107] yes=5,no=6,missing=5
		5:[education<4] yes=11,no=12,missing=11
			11:leaf=-0.212619439
			12:[education<6] yes=15,no=16,missing=15
				15:leaf=0.191834822
				16:[cons.price.idx<93.1374969] yes=21,no=22,missing=21
					21:leaf=-0.189118475
					22:leaf=0.0090030022
		6:[age<74] yes=13,no=14,missing=13
			13:[age<34] yes=17,no=18,missing=17
				17:[education<3] yes=23,no=24,missing=23
					23:[age<31] yes=27,no=28,missing=27
						27:leaf=0.00423403084
						28:leaf=0.135718301
					24:[cons.price.idx<93.4065018] yes=29,no=30,missing=29
						29:leaf=0.052532386
						30:leaf=-0.025793409
				18:[duration<290] yes=25,no=26,missing=25
					25:[emp.var.rate<-2.3499999] yes=31,no=32,missing=31
						31:leaf=0.00963334739
						32:leaf=-0.124244675
					26:[duration<295] yes=33,no=34,missing=33
						33:leaf=0.391671956
						34:leaf=-0.00462246872
			14:[month<3] yes=19,no=20,missing=19
				19:leaf=-0.0378622785
				20:leaf=0.191762552
booster[34]:
0:[education<7] yes=1,no=2,missing=1
	1:[euribor3m<4.86199999] yes=3,no=4,missing=3
		3:[campaign<2] yes=7,no=8,missing=7
			7:[euribor3m<4.85750008] yes=15,no=16,missing=15
				15:[day_of_week<2] yes=31,no=32,missing=31
					31:[euribor3m<1.40249991] yes=55,no=56,missing=55
						55:leaf=0.0355017819
						56:leaf=-0.158460498
					32:[cons.conf.idx<-46.6500015] yes=57,no=58,missing=57
						57:leaf=0.252360165
						58:leaf=0.0118333036
				16:[day_of_week<2] yes=33,no=34,missing=33
					33:[duration<604] yes=59,no=60,missing=59
						59:leaf=-0.0620690547
						60:leaf=0.380116731
					34:[job<9] yes=61,no=62,missing=61
						61:leaf=-0.0297632162
						62:leaf=0.226215392
			8:[age<52] yes=17,no=18,missing=17
				17:[age<46] yes=35,no=36,missing=35
					35:[previous<2] yes=63,no=64,missing=63
						63:leaf=-0.032683976
						64:leaf=0.152473688
					36:[campaign<3] yes=65,no=66,missing=65
						65:leaf=-0.20339635
						66:leaf=-0.0501285009
				18:[previous<1] yes=37,no=38,missing=37
					37:[nr.employed<5013.1001] yes=67,no=68,missing=67
						67:leaf=-0.179202527
						68:leaf=0.125691622
					38:[nr.employed<5020.5] yes=69,no=70,missing=69
						69:leaf=0.0483701602
						70:leaf=-0.230605438
		4:[age<53] yes=9,no=10,missing=9
			9:[age<50] yes=19,no=20,missing=19
				19:[campaign<2] yes=39,no=40,missing=39
					39:[duration<505] yes=71,no=72,missing=71
						71:leaf=-0.182154834
						72:leaf=0.0140343634
					40:[duration<527] yes=73,no=74,missing=73
						73:leaf=0.130052716
						74:leaf=0.00620704982
				20:[loan<1] yes=41,no=42,missing=41
					41:[education<3] yes=75,no=76,missing=75
						75:leaf=-0.0775571242
						76:leaf=0.133211747
					42:[euribor3m<4.95950031] yes=77,no=78,missing=77
						77:leaf=0.0827590153
						78:leaf=0.437306672
			10:[age<55] yes=21,no=22,missing=21
				21:[education<2] yes=43,no=44,missing=43
					43:leaf=0.0278051589
					44:leaf=-0.323606163
				22:[day_of_week<3] yes=45,no=46,missing=45
					45:[campaign<2] yes=79,no=80,missing=79
						79:leaf=-0.0748950094
						80:leaf=0.188633814
					46:[default<1] yes=81,no=82,missing=81
						81:leaf=0.0677684471
						82:leaf=-0.20713152
	2:[age<44] yes=5,no=6,missing=5
		5:[duration<1056] yes=11,no=12,missing=11
			11:[euribor3m<0.862500012] yes=23,no=24,missing=23
				23:leaf=0.0719891638
				24:[cons.price.idx<94.3320007] yes=47,no=48,missing=47
					47:leaf=-0.287953854
					48:leaf=-0.0676928684
			12:[housing<1] yes=25,no=26,missing=25
				25:leaf=-0.00957493763
				26:leaf=0.0992703959
		6:[default<1] yes=13,no=14,missing=13
			13:[duration<523] yes=27,no=28,missing=27
				27:[day_of_week<1] yes=49,no=50,missing=49
					49:leaf=0.180807173
					50:[age<54] yes=83,no=84,missing=83
						83:leaf=0.00615844736
						84:leaf=-0.186108157
				28:[age<49] yes=51,no=52,missing=51
					51:leaf=0.291199535
					52:leaf=0.103415042
			14:[housing<1] yes=29,no=30,missing=29
				29:[campaign<2] yes=53,no=54,missing=53
					53:leaf=0.247768864
					54:leaf=-0.136786997
				30:leaf=-0.21680887
booster[35]:
0:[education<1] yes=1,no=2,missing=1
	1:[day_of_week<2] yes=3,no=4,missing=3
		3:[duration<1245] yes=7,no=8,missing=7
			7:[default<1] yes=15,no=16,missing=15
				15:[cons.price.idx<93.9560013] yes=29,no=30,missing=29
					29:[duration<559] yes=55,no=56,missing=55
						55:leaf=-0.204428375
						56:leaf=0.100260556
					30:leaf=-0.337066561
				16:[euribor3m<4.86149979] yes=31,no=32,missing=31
					31:leaf=-0.201340005
					32:[day_of_week<1] yes=57,no=58,missing=57
						57:leaf=0.200936243
						58:leaf=-0.147302479
			8:leaf=0.221013293
		4:[job<3] yes=9,no=10,missing=9
			9:[euribor3m<4.86499977] yes=17,no=18,missing=17
				17:[duration<401] yes=33,no=34,missing=33
					33:leaf=0.0635645911
					34:[duration<898] yes=59,no=60,missing=59
						59:leaf=-0.262639314
						60:leaf=-0.0100088548
				18:[duration<860] yes=35,no=36,missing=35
					35:[age<52] yes=61,no=62,missing=61
						61:leaf=0.240051478
						62:leaf=-0.0350553244
					36:[age<41] yes=63,no=64,missing=63
						63:leaf=-0.231726125
						64:leaf=0.11779923
			10:[duration<653] yes=19,no=20,missing=19
				19:[duration<499] yes=37,no=38,missing=37
					37:[euribor3m<1.40750003] yes=65,no=66,missing=65
						65:leaf=0.137753949
						66:leaf=-0.132541478
					38:[age<53] yes=67,no=68,missing=67
						67:leaf=0.641353309
						68:leaf=0.0500825979
				20:[campaign<2] yes=39,no=40,missing=39
					39:[day_of_week<4] yes=69,no=70,missing=69
						69:leaf=0.209609151
						70:leaf=-0.0347613543
					40:leaf=-0.216310307
	2:[day_of_week<2] yes=5,no=6,missing=5
		5:[duration<1113] yes=11,no=12,missing=11
			11:[age<38] yes=21,no=22,missing=21
				21:[age<32] yes=41,no=42,missing=41
					41:[education<4] yes=71,no=72,missing=71
						71:leaf=0.162952468
						72:leaf=-0.0509278774
					42:[housing<1] yes=73,no=74,missing=73
						73:leaf=-0.0139050204
						74:leaf=-0.169884205
				22:[duration<531] yes=43,no=44,missing=43
					43:[education<5] yes=75,no=76,missing=75
						75:leaf=-0.0987276137
						76:leaf=0.0978817344
					44:[education<6] yes=77,no=78,missing=77
						77:leaf=0.170985594
						78:leaf=0.000414839829
			12:[age<50] yes=23,no=24,missing=23
				23:[age<31] yes=45,no=46,missing=45
					45:[job<8] yes=79,no=80,missing=79
						79:leaf=-0.319997847
						80:leaf=0.0322232619
					46:[euribor3m<4.96600008] yes=81,no=82,missing=81
						81:leaf=0.0929350406
						82:leaf=-0.247936323
				24:[duration<1238] yes=47,no=48,missing=47
					47:leaf=-0.00147563044
					48:leaf=-0.335849643
		6:[duration<992] yes=13,no=14,missing=13
			13:[age<42] yes=25,no=26,missing=25
				25:[age<41] yes=49,no=50,missing=49
					49:[education<3] yes=83,no=84,missing=83
						83:leaf=0.0628600419
						84:leaf=-0.0335046388
					50:[loan<2] yes=85,no=86,missing=85
						85:leaf=0.281957448
						86:leaf=-0.167641535
				26:[campaign<4] yes=51,no=52,missing=51
					51:[duration<651] yes=87,no=88,missing=87
						87:leaf=-0.103663601
						88:leaf=0.0396268517
					52:[duration<574] yes=89,no=90,missing=89
						89:leaf=0.0077502667
						90:leaf=-0.32614857
			14:[duration<995] yes=27,no=28,missing=27
				27:leaf=0.336880386
				28:[duration<1012] yes=53,no=54,missing=53
					53:[euribor3m<4.8579998] yes=91,no=92,missing=91
						91:leaf=0.0535500422
						92:leaf=-0.285684407
					54:[housing<2] yes=93,no=94,missing=93
						93:leaf=-0.00182587781
						94:leaf=0.132620677
booster[36]:
0:[euribor3m<0.715499997] yes=1,no=2,missing=1
	1:[day_of_week<3] yes=3,no=4,missing=3
		3:[campaign<2] yes=7,no=8,missing=7
			7:[previous<2] yes=13,no=14,missing=13
				13:leaf=0.156711042
				14:leaf=-0.042895548
			8:[duration<173] yes=15,no=16,missing=15
				15:leaf=-0.199022755
				16:[housing<2] yes=21,no=22,missing=21
					21:leaf=0.0960612893
					22:leaf=-0.0761331171
		4:[poutcome<1] yes=9,no=10,missing=9
			9:leaf=0.00786966272
			10:leaf=0.210958213
	2:[euribor3m<0.719500005] yes=5,no=6,missing=5
		5:leaf=-0.201835737
		6:[euribor3m<0.723500013] yes=11,no=12,missing=11
			11:[education<4] yes=17,no=18,missing=17
				17:leaf=0.195801899
				18:leaf=0.0215014294
			12:[previous<2] yes=19,no=20,missing=19
				19:[euribor3m<0.840499997] yes=23,no=24,missing=23
					23:[duration<118] yes=27,no=28,missing=27
						27:leaf=0.109442011
						28:leaf=-0.115449533
					24:[euribor3m<0.860000014] yes=29,no=30,missing=29
						29:leaf=0.15154101
						30:leaf=-0.00396994455
				20:[age<38] yes=25,no=26,missing=25
					25:[emp.var.rate<-1.4000001] yes=31,no=32,missing=31
						31:leaf=0.218066305
						32:leaf=0.00792413857
					26:[day_of_week<3] yes=33,no=34,missing=33
						33:leaf=-0.136117458
						34:leaf=0.0872644484
booster[37]:
0:[duration<1614] yes=1,no=2,missing=1
	1:[duration<1576] yes=3,no=4,missing=3
		3:[duration<1318] yes=7,no=8,missing=7
			7:[duration<1159] yes=13,no=14,missing=13
				13:[duration<1119] yes=19,no=20,missing=19
					19:[duration<1075] yes=27,no=28,missing=27
						27:leaf=0.000635681557
						28:leaf=-0.118678465
					20:[job<8] yes=29,no=30,missing=29
						29:leaf=0.24465315
						30:leaf=-0.0681203976
				14:[duration<1172] yes=21,no=22,missing=21
					21:leaf=-0.305770695
					22:[euribor3m<4.95950031] yes=31,no=32,missing=31
						31:leaf=0.015603424
						32:leaf=-0.158961058
			8:[duration<1371] yes=15,no=16,missing=15
				15:[cons.price.idx<94.2294998] yes=23,no=24,missing=23
					23:leaf=0.25206694
					24:leaf=-0.00224323408
				16:[age<40] yes=25,no=26,missing=25
					25:[job<1] yes=33,no=34,missing=33
						33:leaf=-0.327155977
						34:leaf=0.0884011686
					26:[age<50] yes=35,no=36,missing=35
						35:leaf=0.156111076
						36:leaf=-0.0754240975
		4:leaf=-0.232016563
	2:[job<3] yes=5,no=6,missing=5
		5:[age<32] yes=9,no=10,missing=9
			9:leaf=-0.0847193897
			10:leaf=0.277000308
		6:[age<32] yes=11,no=12,missing=11
			11:leaf=0.15343222
			12:[campaign<2] yes=17,no=18,missing=17
				17:leaf=0.00470043952
				18:leaf=-0.298836321
booster[38]:
0:[age<50] yes=1,no=2,missing=1
	1:[age<46] yes=3,no=4,missing=3
		3:[month<8] yes=7,no=8,missing=7
			7:[duration<253] yes=15,no=16,missing=15
				15:[month<6] yes=29,no=30,missing=29
					29:[duration<231] yes=49,no=50,missing=49
						49:leaf=0.0321352184
						50:leaf=-0.19977805
					30:[duration<238] yes=51,no=52,missing=51
						51:leaf=-0.192110583
						52:leaf=0.0713333413
				16:[nr.employed<5000.15039] yes=31,no=32,missing=31
					31:[job<1] yes=53,no=54,missing=53
						53:leaf=-0.0603857264
						54:leaf=0.215703711
					32:[age<24] yes=55,no=56,missing=55
						55:leaf=-0.167208493
						56:leaf=0.00191426103
			8:[duration<286] yes=17,no=18,missing=17
				17:[duration<164] yes=33,no=34,missing=33
					33:[loan<2] yes=57,no=58,missing=57
						57:leaf=-0.113785416
						58:leaf=0.19143036
					34:leaf=0.263021618
				18:[age<36] yes=35,no=36,missing=35
					35:[job<8] yes=59,no=60,missing=59
						59:leaf=-0.2915847
						60:leaf=0.0766771883
					36:leaf=0.176126793
		4:[duration<1311] yes=9,no=10,missing=9
			9:[duration<1069] yes=19,no=20,missing=19
				19:[day_of_week<1] yes=37,no=38,missing=37
					37:[cons.conf.idx<-38.5999985] yes=61,no=62,missing=61
						61:leaf=-0.0610079132
						62:leaf=0.212769583
					38:[duration<502] yes=63,no=64,missing=63
						63:leaf=-0.222703308
						64:leaf=-0.0238768179
				20:[duration<1144] yes=39,no=40,missing=39
					39:leaf=-0.371178806
					40:[duration<1190] yes=65,no=66,missing=65
						65:leaf=-0.027831845
						66:leaf=-0.158935159
			10:leaf=0.21085611
	2:[job<1] yes=5,no=6,missing=5
		5:[cons.conf.idx<-42.3499985] yes=11,no=12,missing=11
			11:[education<5] yes=21,no=22,missing=21
				21:leaf=0.10930603
				22:leaf=0.381280988
			12:[loan<1] yes=23,no=24,missing=23
				23:[education<4] yes=41,no=42,missing=41
					41:[day_of_week<3] yes=67,no=68,missing=67
						67:leaf=-0.189008892
						68:leaf=0.129599333
					42:[duration<657] yes=69,no=70,missing=69
						69:leaf=0.239599153
						70:leaf=0.00537322089
				24:leaf=-0.237845168
		6:[marital<2] yes=13,no=14,missing=13
			13:[education<6] yes=25,no=26,missing=25
				25:[duration<1376] yes=43,no=44,missing=43
					43:[age<53] yes=71,no=72,missing=71
						71:leaf=0.173688501
						72:leaf=0.027832577
					44:[duration<1725] yes=73,no=74,missing=73
						73:leaf=-0.302556902
						74:leaf=0.0100885388
				26:[job<10] yes=45,no=46,missing=45
					45:[loan<1] yes=75,no=76,missing=75
						75:leaf=-0.16708906
						76:leaf=0.0843102485
					46:leaf=0.192340836
			14:[euribor3m<4.13649988] yes=27,no=28,missing=27
				27:leaf=0.0370360166
				28:[education<6] yes=47,no=48,missing=47
					47:leaf=-0.33606118
					48:leaf=0.000454180001
booster[39]:
0:[education<1] yes=1,no=2,missing=1
	1:[campaign<3] yes=3,no=4,missing=3
		3:[day_of_week<2] yes=7,no=8,missing=7
			7:[euribor3m<4.95800018] yes=15,no=16,missing=15
				15:[duration<1116] yes=31,no=32,missing=31
					31:leaf=-0.228779227
					32:leaf=0.0761017948
				16:[age<52] yes=33,no=34,missing=33
					33:[duration<801] yes=57,no=58,missing=57
						57:leaf=-0.219974533
						58:leaf=0.00693795923
					34:leaf=0.286052585
			8:[age<54] yes=17,no=18,missing=17
				17:[age<42] yes=35,no=36,missing=35
					35:[duration<936] yes=59,no=60,missing=59
						59:leaf=-0.118189365
						60:leaf=0.146710426
					36:[duration<510] yes=61,no=62,missing=61
						61:leaf=0.415911883
						62:leaf=0.134920493
				18:[job<3] yes=37,no=38,missing=37
					37:leaf=-0.183945924
					38:[day_of_week<4] yes=63,no=64,missing=63
						63:leaf=0.12378151
						64:leaf=-0.138127685
		4:[cons.price.idx<93.6809998] yes=9,no=10,missing=9
			9:[month<4] yes=19,no=20,missing=19
				19:leaf=0.00258313259
				20:leaf=0.12239565
			10:[age<34] yes=21,no=22,missing=21
				21:[euribor3m<4.95699978] yes=39,no=40,missing=39
					39:leaf=0.210952446
					40:leaf=-0.176795468
				22:[campaign<9] yes=41,no=42,missing=41
					41:[age<36] yes=65,no=66,missing=65
						65:leaf=-0.0494576804
						66:leaf=-0.271415263
					42:leaf=0.0610549264
	2:[age<58] yes=5,no=6,missing=5
		5:[euribor3m<4.96650028] yes=11,no=12,missing=11
			11:[day_of_week<2] yes=23,no=24,missing=23
				23:[job<10] yes=43,no=44,missing=43
					43:[job<7] yes=67,no=68,missing=67
						67:leaf=0.00193575502
						68:leaf=0.0724472776
					44:[campaign<4] yes=69,no=70,missing=69
						69:leaf=-0.235622615
						70:leaf=0.101232812
				24:[age<43] yes=45,no=46,missing=45
					45:[cons.conf.idx<-46.6500015] yes=71,no=72,missing=71
						71:leaf=0.152093768
						72:leaf=-2.97778315e-05
					46:[month<3] yes=73,no=74,missing=73
						73:leaf=0.120698929
						74:leaf=-0.0734610483
			12:[job<8] yes=25,no=26,missing=25
				25:[education<4] yes=47,no=48,missing=47
					47:[age<42] yes=75,no=76,missing=75
						75:leaf=-0.00586311845
						76:leaf=-0.262270123
					48:[duration<467] yes=77,no=78,missing=77
						77:leaf=-0.0787969828
						78:leaf=0.168954402
				26:[duration<487] yes=49,no=50,missing=49
					49:leaf=-0.0500815734
					50:leaf=-0.281303853
		6:[campaign<3] yes=13,no=14,missing=13
			13:[cons.conf.idx<-36.9500008] yes=27,no=28,missing=27
				27:[education<6] yes=51,no=52,missing=51
					51:[job<4] yes=79,no=80,missing=79
						79:leaf=0.0776652172
						80:leaf=-0.111355737
					52:[day_of_week<2] yes=81,no=82,missing=81
						81:leaf=-0.0438693799
						82:leaf=0.293974638
				28:[age<59] yes=53,no=54,missing=53
					53:[contact<1] yes=83,no=84,missing=83
						83:leaf=0.00770087261
						84:leaf=0.0612099171
					54:[marital<1] yes=85,no=86,missing=85
						85:leaf=0.0343388878
						86:leaf=-0.180755481
			14:[euribor3m<4.90600014] yes=29,no=30,missing=29
				29:[cons.price.idx<93.2845001] yes=55,no=56,missing=55
					55:leaf=-0.0119344192
					56:[job<3] yes=87,no=88,missing=87
						87:leaf=0.0283416901
						88:leaf=0.396491319
				30:leaf=-0.0420956276
booster[20]:
0:[duration<120] yes=1,no=2,missing=1
