booster[0]:
0:[duration<615] yes=1,no=2,missing=1
	1:[nr.employed<5087.65039] yes=3,no=4,missing=3
		3:[duration<166] yes=7,no=8,missing=7
			7:[pdays<4] yes=15,no=16,missing=15
				15:[euribor3m<0.861999989] yes=31,no=32,missing=31
					31:leaf=0.0636363626
					32:leaf=-0.038181819
				16:[default<1] yes=33,no=34,missing=33
					33:[euribor3m<0.656999946] yes=59,no=60,missing=59
						59:leaf=-0.0127272727
						60:[duration<139] yes=101,no=102,missing=101
							101:[job<10] yes=155,no=156,missing=155
								155:leaf=-0.123247862
								156:leaf=-0.0350000001
							102:[nr.employed<5020.5] yes=157,no=158,missing=157
								157:[cons.conf.idx<-28.3499985] yes=209,no=210,missing=209
									209:leaf=-0.113333337
									210:leaf=-0.038181819
								158:[job<6] yes=211,no=212,missing=211
									211:[campaign<3] yes=273,no=274,missing=273
										273:leaf=-0.0700000003
										274:leaf=-0
									212:leaf=0.0280000009
					34:leaf=-0
			8:[pdays<14] yes=17,no=18,missing=17
				17:[cons.price.idx<94.2070007] yes=35,no=36,missing=35
					35:[cons.price.idx<92.4049988] yes=61,no=62,missing=61
						61:[duration<250] yes=103,no=104,missing=103
							103:leaf=-0.0350000001
							104:leaf=0.0636363626
						62:[euribor3m<0.90199995] yes=105,no=106,missing=105
							105:[age<31] yes=159,no=160,missing=159
								159:leaf=0.038181819
								160:[euribor3m<0.878499985] yes=213,no=214,missing=213
									213:leaf=0.127272725
									214:leaf=0.0350000001
							106:[age<44] yes=161,no=162,missing=161
								161:leaf=0.0700000003
								162:leaf=-0
					36:[duration<398] yes=63,no=64,missing=63
						63:[job<3] yes=107,no=108,missing=107
							107:leaf=-0.0840000063
							108:leaf=0.0350000001
						64:leaf=0.0700000003
				18:[contact<1] yes=37,no=38,missing=37
					37:[duration<362] yes=65,no=66,missing=65
						65:[campaign<2] yes=109,no=110,missing=109
							109:[duration<293] yes=163,no=164,missing=163
								163:[job<1] yes=215,no=216,missing=215
									215:[day_of_week<2] yes=275,no=276,missing=275
										275:leaf=0.0700000003
										276:[age<49] yes=333,no=334,missing=333
											333:leaf=-0.0350000001
											334:leaf=-0
									216:[duration<186] yes=277,no=278,missing=277
										277:leaf=-0
										278:[euribor3m<1.03500009] yes=335,no=336,missing=335
											335:[euribor3m<0.818500042] yes=391,no=392,missing=391
												391:[age<45] yes=439,no=440,missing=439
													439:leaf=-0.0700000003
													440:leaf=0.0155555559
												392:leaf=-0.105000004
											336:[duration<225] yes=393,no=394,missing=393
												393:leaf=-0.0700000003
												394:leaf=0.0350000001
								164:[cons.price.idx<92.6809998] yes=217,no=218,missing=217
									217:leaf=-0.0280000009
									218:leaf=0.0600000024
							110:[duration<312] yes=165,no=166,missing=165
								165:[duration<232] yes=219,no=220,missing=219
									219:[duration<207] yes=279,no=280,missing=279
										279:[housing<1] yes=337,no=338,missing=337
											337:leaf=-0.0350000001
											338:[cons.conf.idx<-37.9000015] yes=395,no=396,missing=395
												395:leaf=-0
												396:leaf=0.0840000063
										280:[age<31] yes=339,no=340,missing=339
											339:leaf=-0
											340:leaf=-0.0777777806
									220:[age<58] yes=281,no=282,missing=281
										281:[month<7] yes=341,no=342,missing=341
											341:leaf=0.100000001
											342:leaf=0.0127272727
										282:leaf=-0
								166:[emp.var.rate<-1.75] yes=221,no=222,missing=221
									221:leaf=-0.0890909061
									222:leaf=-0
						66:[age<36] yes=111,no=112,missing=111
							111:[cons.conf.idx<-40.1500015] yes=167,no=168,missing=167
								167:[education<5] yes=223,no=224,missing=223
									223:leaf=0.0777777806
									224:leaf=-0
								168:[housing<1] yes=225,no=226,missing=225
									225:leaf=0.0155555559
									226:leaf=-0.0700000003
							112:[education<3] yes=169,no=170,missing=169
								169:leaf=-0
								170:[duration<401] yes=227,no=228,missing=227
									227:leaf=0.038181819
									228:leaf=0.112000003
					38:[campaign<4] yes=67,no=68,missing=67
						67:leaf=-0.106399998
						68:leaf=-0.0155555559
		4:[duration<458] yes=9,no=10,missing=9
			9:[cons.conf.idx<-48.5499992] yes=19,no=20,missing=19
				19:[duration<221] yes=39,no=40,missing=39
					39:[age<30] yes=69,no=70,missing=69
						69:leaf=0.0350000001
						70:[age<46] yes=113,no=114,missing=113
							113:leaf=-0.0700000003
							114:leaf=-0
					40:leaf=0.0840000063
				20:[month<8] yes=41,no=42,missing=41
					41:[age<64] yes=71,no=72,missing=71
						71:[pdays<4] yes=115,no=116,missing=115
							115:[education<5] yes=171,no=172,missing=171
								171:leaf=-0
								172:leaf=-0.0777777806
							116:leaf=-0.139006823
						72:leaf=-0
					42:leaf=0.0155555559
			10:[euribor3m<1.29500008] yes=21,no=22,missing=21
				21:[campaign<2] yes=43,no=44,missing=43
					43:[housing<1] yes=73,no=74,missing=73
						73:leaf=-0.0127272727
						74:leaf=0.0700000003
					44:[age<48] yes=75,no=76,missing=75
						75:leaf=-0.0777777806
						76:leaf=-0
				22:[month<5] yes=45,no=46,missing=45
					45:[age<59] yes=77,no=78,missing=77
						77:[campaign<15] yes=117,no=118,missing=117
							117:[duration<554] yes=173,no=174,missing=173
								173:[education<6] yes=229,no=230,missing=229
									229:[age<32] yes=283,no=284,missing=283
										283:[campaign<4] yes=343,no=344,missing=343
											343:[age<31] yes=397,no=398,missing=397
												397:[education<2] yes=441,no=442,missing=441
													441:leaf=-0.0280000009
													442:leaf=-0.116666667
												398:[housing<1] yes=443,no=444,missing=443
													443:leaf=-0.0777777806
													444:leaf=0.0466666669
											344:leaf=-0.0127272727
										284:leaf=-0.120821916
									230:[housing<1] yes=285,no=286,missing=285
										285:[marital<2] yes=345,no=346,missing=345
											345:[duration<468] yes=399,no=400,missing=399
												399:leaf=0.0155555559
												400:[age<39] yes=445,no=446,missing=445
													445:[age<34] yes=471,no=472,missing=471
														471:leaf=-0.0350000001
														472:leaf=-0
													446:leaf=-0.105000004
											346:leaf=0.038181819
										286:[age<31] yes=347,no=348,missing=347
											347:leaf=-0
											348:leaf=-0.107441865
								174:[duration<557] yes=231,no=232,missing=231
									231:[month<4] yes=287,no=288,missing=287
										287:leaf=-0.0350000001
										288:leaf=0.0777777806
									232:[education<2] yes=289,no=290,missing=289
										289:[euribor3m<4.96000004] yes=349,no=350,missing=349
											349:[housing<1] yes=401,no=402,missing=401
												401:leaf=0.0700000003
												402:[age<53] yes=447,no=448,missing=447
													447:leaf=-0.0350000001
													448:leaf=0.0350000001
											350:leaf=-0.0890909061
										290:[day_of_week<4] yes=351,no=352,missing=351
											351:leaf=-0.111282051
											352:[duration<588] yes=403,no=404,missing=403
												403:[job<1] yes=449,no=450,missing=449
													449:leaf=0.0700000003
													450:leaf=-0.038181819
												404:leaf=-0.0957894772
							118:leaf=-0
						78:[housing<2] yes=119,no=120,missing=119
							119:[education<4] yes=175,no=176,missing=175
								175:leaf=-0.0700000003
								176:leaf=-0
							120:leaf=0.0560000017
					46:[previous<1] yes=79,no=80,missing=79
						79:leaf=-0.118810818
						80:[age<34] yes=121,no=122,missing=121
							121:leaf=-0.0127272727
							122:leaf=-0.0840000063
	2:[duration<854] yes=5,no=6,missing=5
		5:[contact<1] yes=11,no=12,missing=11
			11:[age<35] yes=23,no=24,missing=23
				23:[duration<680] yes=47,no=48,missing=47
					47:[age<30] yes=81,no=82,missing=81
						81:leaf=-0.0890909061
						82:[day_of_week<3] yes=123,no=124,missing=123
							123:leaf=-0.038181819
							124:leaf=0.0753846169
					48:[housing<1] yes=83,no=84,missing=83
						83:[duration<716] yes=125,no=126,missing=125
							125:leaf=-0.0466666669
							126:[euribor3m<4.95849991] yes=177,no=178,missing=177
								177:leaf=-0.0155555559
								178:leaf=0.0700000003
						84:[age<25] yes=127,no=128,missing=127
							127:leaf=-0
							128:leaf=0.101818182
				24:[nr.employed<5020.5] yes=49,no=50,missing=49
					49:leaf=0.0636363626
					50:[duration<808] yes=85,no=86,missing=85
						85:[marital<1] yes=129,no=130,missing=129
							129:[day_of_week<1] yes=179,no=180,missing=179
								179:leaf=-0.0350000001
								180:[job<4] yes=233,no=234,missing=233
									233:leaf=0.0777777806
									234:leaf=-0
							130:[job<8] yes=181,no=182,missing=181
								181:[duration<622] yes=235,no=236,missing=235
									235:leaf=-0
									236:[age<51] yes=291,no=292,missing=291
										291:[age<48] yes=353,no=354,missing=353
											353:[duration<707] yes=405,no=406,missing=405
												405:leaf=-0.0890909061
												406:[duration<732] yes=451,no=452,missing=451
													451:leaf=0.0350000001
													452:[age<40] yes=473,no=474,missing=473
														473:leaf=-0.0700000003
														474:leaf=-0
											354:leaf=0.0127272727
										292:leaf=-0.107058823
								182:[education<4] yes=237,no=238,missing=237
									237:[duration<719] yes=293,no=294,missing=293
										293:leaf=-0.0350000001
										294:leaf=0.0777777806
									238:[duration<678] yes=295,no=296,missing=295
										295:leaf=0.0350000001
										296:leaf=-0.0840000063
						86:[age<48] yes=131,no=132,missing=131
							131:leaf=-0.0466666669
							132:leaf=0.0933333337
			12:[euribor3m<1.27550006] yes=25,no=26,missing=25
				25:leaf=0.0700000003
				26:[age<29] yes=51,no=52,missing=51
					51:[default<1] yes=87,no=88,missing=87
						87:[job<3] yes=133,no=134,missing=133
							133:[duration<634] yes=183,no=184,missing=183
								183:leaf=-0
								184:[duration<684] yes=239,no=240,missing=239
									239:leaf=-0.0969230831
									240:[age<25] yes=297,no=298,missing=297
										297:leaf=-0
										298:leaf=-0.0350000001
							134:[euribor3m<4.91149998] yes=185,no=186,missing=185
								185:[day_of_week<2] yes=241,no=242,missing=241
									241:leaf=0.0155555559
									242:leaf=-0.0700000003
								186:leaf=0.0636363626
						88:[age<28] yes=135,no=136,missing=135
							135:leaf=0.0700000003
							136:leaf=-0
					52:[loan<1] yes=89,no=90,missing=89
						89:[cons.price.idx<94.2294998] yes=137,no=138,missing=137
							137:[campaign<10] yes=187,no=188,missing=187
								187:[day_of_week<1] yes=243,no=244,missing=243
									243:[marital<2] yes=299,no=300,missing=299
										299:[duration<768] yes=355,no=356,missing=355
											355:[marital<1] yes=407,no=408,missing=407
												407:leaf=-0.0155555559
												408:leaf=-0.107692309
											356:[duration<807] yes=409,no=410,missing=409
												409:leaf=0.0560000017
												410:leaf=-0.0969230831
										300:[education<3] yes=357,no=358,missing=357
											357:leaf=-0.0350000001
											358:leaf=0.038181819
									244:leaf=-0.0919665247
								188:leaf=0.0350000001
							138:[day_of_week<4] yes=189,no=190,missing=189
								189:[duration<660] yes=245,no=246,missing=245
									245:[duration<620] yes=301,no=302,missing=301
										301:leaf=-0
										302:leaf=-0.11290323
									246:[job<10] yes=303,no=304,missing=303
										303:[day_of_week<1] yes=359,no=360,missing=359
											359:[duration<756] yes=411,no=412,missing=411
												411:leaf=0.0466666669
												412:leaf=-0.0466666669
											360:[duration<673] yes=413,no=414,missing=413
												413:leaf=-0
												414:[age<32] yes=453,no=454,missing=453
													453:[duration<746] yes=475,no=476,missing=475
														475:leaf=-0.0777777806
														476:leaf=0.0350000001
													454:[euribor3m<4.90649986] yes=477,no=478,missing=477
														477:[job<3] yes=489,no=490,missing=489
															489:leaf=0.0127272727
															490:leaf=-0.0636363626
														478:[marital<1] yes=491,no=492,missing=491
															491:leaf=-0.0155555559
															492:[job<3] yes=499,no=500,missing=499
																499:leaf=-0.116666667
																500:[education<4] yes=505,no=506,missing=505
																	505:leaf=-0.0840000063
																	506:leaf=0.0155555559
										304:leaf=0.0350000001
								190:[age<51] yes=247,no=248,missing=247
									247:[age<32] yes=305,no=306,missing=305
										305:leaf=0.038181819
										306:[age<37] yes=361,no=362,missing=361
											361:leaf=-0.0155555559
											362:leaf=-0.0700000003
									248:leaf=0.0777777806
						90:[campaign<2] yes=139,no=140,missing=139
							139:[housing<1] yes=191,no=192,missing=191
								191:[education<3] yes=249,no=250,missing=249
									249:leaf=0.0890909061
									250:leaf=-0
								192:[age<46] yes=251,no=252,missing=251
									251:[education<3] yes=307,no=308,missing=307
										307:leaf=-0.0466666669
										308:leaf=0.038181819
									252:leaf=-0.0890909061
							140:[duration<828] yes=193,no=194,missing=193
								193:[day_of_week<3] yes=253,no=254,missing=253
									253:[housing<2] yes=309,no=310,missing=309
										309:[campaign<5] yes=363,no=364,missing=363
											363:leaf=-0.0800000057
											364:leaf=-0
										310:[duration<785] yes=365,no=366,missing=365
											365:[duration<671] yes=415,no=416,missing=415
												415:leaf=-0.0466666669
												416:leaf=0.0890909061
											366:leaf=-0.0700000003
									254:leaf=-0.0969230831
								194:leaf=0.0350000001
		6:[emp.var.rate<-0.600000024] yes=13,no=14,missing=13
			13:[emp.var.rate<-3.20000005] yes=27,no=28,missing=27
				27:leaf=-0.0280000009
				28:[day_of_week<2] yes=53,no=54,missing=53
					53:[duration<1146] yes=91,no=92,missing=91
						91:[euribor3m<1.27450001] yes=141,no=142,missing=141
							141:leaf=0.0466666669
							142:leaf=-0.0700000003
						92:leaf=0.0969230831
					54:leaf=0.105000004
			14:[euribor3m<4.86199999] yes=29,no=30,missing=29
				29:[duration<1617] yes=55,no=56,missing=55
					55:[campaign<2] yes=93,no=94,missing=93
						93:[education<5] yes=143,no=144,missing=143
							143:[duration<1177] yes=195,no=196,missing=195
								195:[age<37] yes=255,no=256,missing=255
									255:[housing<1] yes=311,no=312,missing=311
										311:[euribor3m<4.85649967] yes=367,no=368,missing=367
											367:leaf=-0.0700000003
											368:leaf=0.0155555559
										312:leaf=-0.0933333337
									256:[duration<1076] yes=313,no=314,missing=313
										313:[day_of_week<3] yes=369,no=370,missing=369
											369:[job<2] yes=417,no=418,missing=417
												417:leaf=-0.0350000001
												418:leaf=0.0280000009
											370:leaf=0.0700000003
										314:leaf=-0.0700000003
								196:[age<43] yes=257,no=258,missing=257
									257:leaf=0.0636363626
									258:[day_of_week<2] yes=315,no=316,missing=315
										315:leaf=0.0350000001
										316:leaf=-0.0700000003
							144:[age<33] yes=197,no=198,missing=197
								197:leaf=0.0800000057
								198:[age<38] yes=259,no=260,missing=259
									259:leaf=-0.0840000063
									260:[job<3] yes=317,no=318,missing=317
										317:leaf=0.0741176531
										318:[education<6] yes=371,no=372,missing=371
											371:leaf=0.0350000001
											372:leaf=-0.0350000001
						94:[duration<891] yes=145,no=146,missing=145
							145:[duration<865] yes=199,no=200,missing=199
								199:leaf=-0.0127272727
								200:leaf=-0.105000004
							146:[duration<897] yes=201,no=202,missing=201
								201:leaf=0.0700000003
								202:[age<48] yes=261,no=262,missing=261
									261:[education<7] yes=319,no=320,missing=319
										319:[duration<1251] yes=373,no=374,missing=373
											373:[age<34] yes=419,no=420,missing=419
												419:[euribor3m<4.85550022] yes=455,no=456,missing=455
													455:leaf=0.0466666669
													456:[default<1] yes=479,no=480,missing=479
														479:[duration<972] yes=493,no=494,missing=493
															493:leaf=0.0155555559
															494:[campaign<4] yes=501,no=502,missing=501
																501:leaf=-0.0874999985
																502:leaf=-0
														480:leaf=0.0155555559
												420:[age<37] yes=457,no=458,missing=457
													457:leaf=-0.107058823
													458:[marital<2] yes=481,no=482,missing=481
														481:[age<38] yes=495,no=496,missing=495
															495:leaf=-0.0155555559
															496:[marital<1] yes=503,no=504,missing=503
																503:leaf=-0.0280000009
																504:[duration<1026] yes=507,no=508,missing=507
																	507:leaf=-0.0979999974
																	508:leaf=-0.0280000009
														482:leaf=0.0560000017
											374:[duration<1438] yes=421,no=422,missing=421
												421:[age<38] yes=459,no=460,missing=459
													459:leaf=-0
													460:leaf=0.0777777806
												422:[age<44] yes=461,no=462,missing=461
													461:leaf=-0.0636363626
													462:leaf=-0
										320:[age<38] yes=375,no=376,missing=375
											375:leaf=-0.0350000001
											376:leaf=0.0700000003
									262:[duration<1336] yes=321,no=322,missing=321
										321:[education<1] yes=377,no=378,missing=377
											377:leaf=-0.0155555559
											378:[age<52] yes=423,no=424,missing=423
												423:leaf=-0
												424:leaf=0.0753846169
										322:leaf=-0.0466666669
					56:[day_of_week<3] yes=95,no=96,missing=95
						95:[age<37] yes=147,no=148,missing=147
							147:leaf=0.038181819
							148:leaf=-0.0560000017
						96:[duration<1894] yes=149,no=150,missing=149
							149:leaf=0.100000001
							150:leaf=-0
				30:[age<29] yes=57,no=58,missing=57
					57:[loan<1] yes=97,no=98,missing=97
						97:[age<28] yes=151,no=152,missing=151
							151:[euribor3m<4.90600014] yes=203,no=204,missing=203
								203:leaf=-0.0280000009
								204:[duration<1153] yes=263,no=264,missing=263
									263:leaf=0.0636363626
									264:leaf=-0
							152:leaf=-0.038181819
						98:leaf=-0.0840000063
					58:[nr.employed<5193.3999] yes=99,no=100,missing=99
						99:leaf=0.100000001
						100:[education<4] yes=153,no=154,missing=153
							153:[housing<1] yes=205,no=206,missing=205
								205:[age<56] yes=265,no=266,missing=265
									265:[job<3] yes=323,no=324,missing=323
										323:[duration<1214] yes=379,no=380,missing=379
											379:[education<1] yes=425,no=426,missing=425
												425:[campaign<3] yes=463,no=464,missing=463
													463:leaf=0.0350000001
													464:leaf=-0.0466666669
												426:[duration<971] yes=465,no=466,missing=465
													465:[campaign<2] yes=483,no=484,missing=483
														483:leaf=-0.0127272727
														484:leaf=0.0636363626
													466:leaf=0.112000003
											380:[campaign<7] yes=427,no=428,missing=427
												427:[duration<1545] yes=467,no=468,missing=467
													467:[campaign<3] yes=485,no=486,missing=485
														485:leaf=-0.0777777806
														486:[contact<1] yes=497,no=498,missing=497
															497:leaf=-0.0350000001
															498:leaf=0.0350000001
													468:leaf=0.0466666669
												428:leaf=0.0700000003
										324:leaf=0.105000004
									266:leaf=-0.0350000001
								206:[age<55] yes=267,no=268,missing=267
									267:[job<2] yes=325,no=326,missing=325
										325:[euribor3m<4.90649986] yes=381,no=382,missing=381
											381:[day_of_week<3] yes=429,no=430,missing=429
												429:leaf=-0.0466666669
												430:leaf=-0
											382:[marital<1] yes=431,no=432,missing=431
												431:leaf=-0.0155555559
												432:[age<42] yes=469,no=470,missing=469
													469:[age<36] yes=487,no=488,missing=487
														487:leaf=0.0636363626
														488:leaf=-0.0280000009
													470:leaf=0.0933333337
										326:[age<35] yes=383,no=384,missing=383
											383:leaf=-0
											384:leaf=-0.0890909061
									268:leaf=0.0933333337
							154:[duration<1301] yes=207,no=208,missing=207
								207:[duration<1026] yes=269,no=270,missing=269
									269:[housing<1] yes=327,no=328,missing=327
										327:[euribor3m<4.96000004] yes=385,no=386,missing=385
											385:leaf=0.0840000063
											386:[age<38] yes=433,no=434,missing=433
												433:leaf=-0
												434:leaf=-0.0700000003
										328:[job<2] yes=387,no=388,missing=387
											387:leaf=0.0280000009
											388:[age<47] yes=435,no=436,missing=435
												435:leaf=-0.0636363626
												436:leaf=-0
									270:[age<46] yes=329,no=330,missing=329
										329:[job<9] yes=389,no=390,missing=389
											389:[age<37] yes=437,no=438,missing=437
												437:leaf=-0.0636363626
												438:leaf=-0
											390:leaf=0.0280000009
										330:leaf=-0.0969230831
								208:[age<50] yes=271,no=272,missing=271
									271:[age<35] yes=331,no=332,missing=331
										331:leaf=0.0280000009
										332:leaf=0.0840000063
									272:leaf=-0.0155555559
booster[1]:
0:[duration<615] yes=1,no=2,missing=1
	1:[nr.employed<5087.65039] yes=3,no=4,missing=3
		3:[duration<166] yes=7,no=8,missing=7
			7:[pdays<4] yes=15,no=16,missing=15
				15:[nr.employed<5046.8501] yes=31,no=32,missing=31
					31:leaf=0.0627752468
					32:leaf=-0.0384401977
				16:[default<1] yes=33,no=34,missing=33
					33:[euribor3m<0.656999946] yes=61,no=62,missing=61
						61:leaf=-0.0121606551
						62:[duration<139] yes=101,no=102,missing=101
							101:leaf=-0.113763444
							102:[nr.employed<5020.5] yes=151,no=152,missing=151
								151:[cons.conf.idx<-28.3499985] yes=195,no=196,missing=195
									195:leaf=-0.10719604
									196:leaf=-0.0364896581
								152:[job<6] yes=197,no=198,missing=197
									197:[campaign<3] yes=249,no=250,missing=249
										249:leaf=-0.0667891577
										250:leaf=-0
									198:leaf=0.026827231
					34:leaf=-0
			8:[pdays<14] yes=17,no=18,missing=17
				17:[cons.price.idx<94.2070007] yes=35,no=36,missing=35
					35:[cons.price.idx<92.4049988] yes=63,no=64,missing=63
						63:[duration<254] yes=103,no=104,missing=103
							103:leaf=-0.0149652762
							104:leaf=0.0533605665
						64:leaf=0.102754124
					36:[duration<281] yes=65,no=66,missing=65
						65:leaf=-0.0541808344
						66:leaf=0.0456394851
				18:[contact<1] yes=37,no=38,missing=37
					37:[duration<362] yes=67,no=68,missing=67
						67:[campaign<2] yes=105,no=106,missing=105
							105:[duration<293] yes=153,no=154,missing=153
								153:[job<1] yes=199,no=200,missing=199
									199:[age<39] yes=251,no=252,missing=251
										251:leaf=0.0456000939
										252:leaf=-0.0127292611
									200:[cons.price.idx<94.4079971] yes=253,no=254,missing=253
										253:[day_of_week<3] yes=305,no=306,missing=305
											305:[emp.var.rate<-2.30000019] yes=359,no=360,missing=359
												359:leaf=0.0238859579
												360:leaf=-0.0661089569
											306:leaf=-0.102481551
										254:leaf=0.00146958337
								154:[day_of_week<4] yes=201,no=202,missing=201
									201:[cons.price.idx<92.8059998] yes=255,no=256,missing=255
										255:leaf=-0.0455828197
										256:leaf=0.0254945103
									202:leaf=0.076161541
							106:[duration<312] yes=155,no=156,missing=155
								155:[duration<232] yes=203,no=204,missing=203
									203:[duration<178] yes=257,no=258,missing=257
										257:leaf=0.0550907627
										258:[euribor3m<0.721000016] yes=307,no=308,missing=307
											307:leaf=0.0123463506
											308:[education<4] yes=361,no=362,missing=361
												361:leaf=-0
												362:leaf=-0.0687605664
									204:[age<58] yes=259,no=260,missing=259
										259:[month<7] yes=309,no=310,missing=309
											309:leaf=0.0945290402
											310:leaf=0.0121606439
										260:leaf=-0
								156:[emp.var.rate<-1.75] yes=205,no=206,missing=205
									205:leaf=-0.0852324143
									206:leaf=-0
						68:[age<36] yes=107,no=108,missing=107
							107:[cons.conf.idx<-40.1500015] yes=157,no=158,missing=157
								157:[education<5] yes=207,no=208,missing=207
									207:leaf=0.0748173967
									208:leaf=-0
								158:[housing<1] yes=209,no=210,missing=209
									209:leaf=0.0149511266
									210:leaf=-0.0667891577
							108:[education<3] yes=159,no=160,missing=159
								159:leaf=-0
								160:[cons.conf.idx<-40.5499992] yes=211,no=212,missing=211
									211:leaf=0.0346479267
									212:leaf=0.106975093
					38:[emp.var.rate<-1.75] yes=69,no=70,missing=69
						69:leaf=-0.10136161
						70:leaf=-0.0121427961
		4:[duration<458] yes=9,no=10,missing=9
			9:[cons.conf.idx<-48.5499992] yes=19,no=20,missing=19
				19:[duration<221] yes=39,no=40,missing=39
					39:[euribor3m<1.7414999] yes=71,no=72,missing=71
						71:[job<6] yes=109,no=110,missing=109
							109:leaf=0.0158302765
							110:leaf=-0.0823285952
						72:leaf=0.0166517645
					40:leaf=0.0805592313
				20:[month<8] yes=41,no=42,missing=41
					41:[age<64] yes=73,no=74,missing=73
						73:[pdays<4] yes=111,no=112,missing=111
							111:[pdays<3] yes=161,no=162,missing=161
								161:leaf=-0.0760021508
								162:leaf=0.00108866999
							112:[month<1] yes=163,no=164,missing=163
								163:[age<58] yes=213,no=214,missing=213
									213:[euribor3m<1.40249991] yes=261,no=262,missing=261
										261:[job<1] yes=311,no=312,missing=311
											311:leaf=0.00584579166
											312:leaf=-0.0871364996
										262:leaf=-0.115854099
									214:leaf=-0.010185672
								164:leaf=-0.130122408
						74:leaf=-0
					42:leaf=0.0149511266
			10:[euribor3m<1.29500008] yes=21,no=22,missing=21
				21:[campaign<2] yes=43,no=44,missing=43
					43:[duration<561] yes=75,no=76,missing=75
						75:leaf=-0.00120259146
						76:leaf=0.0465255603
					44:[age<48] yes=77,no=78,missing=77
						77:leaf=-0.0748173967
						78:leaf=-0
				22:[month<5] yes=45,no=46,missing=45
					45:[age<59] yes=79,no=80,missing=79
						79:[campaign<15] yes=113,no=114,missing=113
							113:[duration<554] yes=165,no=166,missing=165
								165:[education<6] yes=215,no=216,missing=215
									215:[age<32] yes=263,no=264,missing=263
										263:[campaign<4] yes=313,no=314,missing=313
											313:[age<31] yes=363,no=364,missing=363
												363:[education<2] yes=403,no=404,missing=403
													403:leaf=-0.0268272366
													404:leaf=-0.109746821
												364:[housing<1] yes=405,no=406,missing=405
													405:leaf=-0.0748173967
													406:leaf=0.0448657535
											314:leaf=-0.0121606551
										264:leaf=-0.113006234
									216:[housing<1] yes=265,no=266,missing=265
										265:[marital<2] yes=315,no=316,missing=315
											315:[duration<468] yes=365,no=366,missing=365
												365:leaf=0.0149511266
												366:[age<39] yes=407,no=408,missing=407
													407:leaf=-0.0225190464
													408:leaf=-0.0996982679
											316:leaf=0.0364896655
										266:[age<31] yes=317,no=318,missing=317
											317:leaf=-0
											318:leaf=-0.100890674
								166:[duration<557] yes=217,no=218,missing=217
									217:leaf=0.0309894234
									218:[education<2] yes=267,no=268,missing=267
										267:[euribor3m<4.96000004] yes=319,no=320,missing=319
											319:[housing<2] yes=367,no=368,missing=367
												367:leaf=0.0447878577
												368:leaf=0.0125070112
											320:leaf=-0.0852324143
										268:[day_of_week<4] yes=321,no=322,missing=321
											321:[cons.conf.idx<-42.25] yes=369,no=370,missing=369
												369:[education<4] yes=409,no=410,missing=409
													409:[job<3] yes=437,no=438,missing=437
														437:leaf=-0.0514263026
														438:leaf=0.0199129097
													410:leaf=-0.0917319432
												370:leaf=-0.113771871
											322:[duration<588] yes=371,no=372,missing=371
												371:[job<3] yes=411,no=412,missing=411
													411:leaf=0.0448128991
													412:leaf=-0.0264023282
												372:leaf=-0.0906638354
							114:leaf=-0
						80:[housing<2] yes=115,no=116,missing=115
							115:leaf=-0.0450523794
							116:leaf=0.0536738448
					46:[previous<1] yes=81,no=82,missing=81
						81:[age<57] yes=117,no=118,missing=117
							117:leaf=-0.113012068
							118:[campaign<5] yes=167,no=168,missing=167
								167:[job<6] yes=219,no=220,missing=219
									219:leaf=-0.101823568
									220:leaf=-0.0230645314
								168:leaf=0.0202100761
						82:[housing<2] yes=119,no=120,missing=119
							119:leaf=-0.0820141211
							120:leaf=-0.0108059691
	2:[duration<854] yes=5,no=6,missing=5
		5:[contact<1] yes=11,no=12,missing=11
			11:[age<35] yes=23,no=24,missing=23
				23:[duration<680] yes=47,no=48,missing=47
					47:[age<30] yes=83,no=84,missing=83
						83:leaf=-0.0852324143
						84:[day_of_week<3] yes=121,no=122,missing=121
							121:leaf=-0.0364896581
							122:leaf=0.0718036518
					48:[housing<1] yes=85,no=86,missing=85
						85:[duration<716] yes=123,no=124,missing=123
							123:leaf=-0.0448657498
							124:[euribor3m<4.95849991] yes=169,no=170,missing=169
								169:leaf=-0.0149511285
								170:leaf=0.0667891577
						86:[age<25] yes=125,no=126,missing=125
							125:leaf=-0
							126:leaf=0.0961954445
				24:[nr.employed<5020.5] yes=49,no=50,missing=49
					49:leaf=0.0608417839
					50:[duration<808] yes=87,no=88,missing=87
						87:[marital<1] yes=127,no=128,missing=127
							127:[age<46] yes=171,no=172,missing=171
								171:leaf=-0.0156194847
								172:leaf=0.0452861711
							128:[job<8] yes=173,no=174,missing=173
								173:[duration<622] yes=221,no=222,missing=221
									221:leaf=-0
									222:[age<51] yes=269,no=270,missing=269
										269:[age<48] yes=323,no=324,missing=323
											323:[duration<707] yes=373,no=374,missing=373
												373:leaf=-0.0841281936
												374:[duration<768] yes=413,no=414,missing=413
													413:leaf=0.0127312569
													414:leaf=-0.0455906205
											324:leaf=0.0121606439
										270:leaf=-0.101555616
								174:[education<4] yes=223,no=224,missing=223
									223:leaf=0.0309894234
									224:[duration<690] yes=271,no=272,missing=271
										271:leaf=0.0151247513
										272:leaf=-0.0745860413
						88:[age<48] yes=129,no=130,missing=129
							129:leaf=-0.0448657498
							130:leaf=0.0891101286
			12:[age<29] yes=25,no=26,missing=25
				25:[default<1] yes=51,no=52,missing=51
					51:[job<3] yes=89,no=90,missing=89
						89:[duration<634] yes=131,no=132,missing=131
							131:leaf=-0
							132:[duration<684] yes=175,no=176,missing=175
								175:leaf=-0.0923796743
								176:leaf=-0.0225190464
						90:[euribor3m<4.91149998] yes=133,no=134,missing=133
							133:leaf=-0.0312319007
							134:leaf=0.0608417839
					52:leaf=0.0450523794
				26:[emp.var.rate<-0.349999964] yes=53,no=54,missing=53
					53:leaf=0.0452397913
					54:[loan<1] yes=91,no=92,missing=91
						91:[job<11] yes=135,no=136,missing=135
							135:[euribor3m<4.95849991] yes=177,no=178,missing=177
								177:[campaign<10] yes=225,no=226,missing=225
									225:[duration<731] yes=273,no=274,missing=273
										273:[housing<1] yes=325,no=326,missing=325
											325:leaf=-0.105770588
											326:[day_of_week<2] yes=375,no=376,missing=375
												375:[duration<681] yes=415,no=416,missing=415
													415:[education<2] yes=439,no=440,missing=439
														439:leaf=-0.0345486552
														440:leaf=0.0801000595
													416:leaf=-0.0613807999
												376:[job<8] yes=417,no=418,missing=417
													417:leaf=-0.0887288153
													418:[age<39] yes=441,no=442,missing=441
														441:leaf=0.0191519819
														442:leaf=-0.0522062629
										274:[duration<735] yes=327,no=328,missing=327
											327:leaf=0.0032409688
											328:[marital<2] yes=377,no=378,missing=377
												377:[campaign<2] yes=419,no=420,missing=419
													419:[job<8] yes=443,no=444,missing=443
														443:[day_of_week<1] yes=457,no=458,missing=457
															457:leaf=-0.00981486402
															458:[duration<747] yes=467,no=468,missing=467
																467:leaf=-0.0119956667
																468:[education<1] yes=473,no=474,missing=473
																	473:leaf=-0.0248989128
																	474:leaf=-0.102701642
														444:leaf=0.0493239686
													420:[duration<745] yes=445,no=446,missing=445
														445:leaf=-0.0118745491
														446:[age<52] yes=459,no=460,missing=459
															459:leaf=-0.110235825
															460:[campaign<3] yes=469,no=470,missing=469
																469:leaf=-0.0659630597
																470:leaf=0.0183941275
												378:[age<32] yes=421,no=422,missing=421
													421:leaf=0.0390122011
													422:[education<5] yes=447,no=448,missing=447
														447:leaf=-0.0874240994
														448:[job<5] yes=461,no=462,missing=461
															461:leaf=0.0142438505
															462:leaf=-0.0523987561
									226:leaf=-0.0119190197
								178:[marital<1] yes=227,no=228,missing=227
									227:[day_of_week<1] yes=275,no=276,missing=275
										275:leaf=-0.0448286757
										276:leaf=0.0559113473
									228:[euribor3m<4.96049976] yes=277,no=278,missing=277
										277:[job<2] yes=329,no=330,missing=329
											329:[education<3] yes=379,no=380,missing=379
												379:leaf=0.0289721414
												380:leaf=-0.0149314385
											330:[duration<743] yes=381,no=382,missing=381
												381:leaf=0.0164067131
												382:leaf=-0.0763379559
										278:[age<37] yes=331,no=332,missing=331
											331:[duration<699] yes=383,no=384,missing=383
												383:[duration<647] yes=423,no=424,missing=423
													423:leaf=-0.0107278097
													424:leaf=-0.0854832157
												384:leaf=0.0385749489
											332:leaf=-0.105969809
							136:leaf=0.0162766483
						92:[age<52] yes=137,no=138,missing=137
							137:[campaign<2] yes=179,no=180,missing=179
								179:[duration<774] yes=229,no=230,missing=229
									229:[euribor3m<4.85649967] yes=279,no=280,missing=279
										279:leaf=0.0447111689
										280:[housing<2] yes=333,no=334,missing=333
											333:leaf=0.012539749
											334:leaf=-0.0763272867
									230:leaf=0.0728903934
								180:[marital<2] yes=231,no=232,missing=231
									231:[day_of_week<1] yes=281,no=282,missing=281
										281:[campaign<3] yes=335,no=336,missing=335
											335:leaf=-0.0459533334
											336:leaf=0.0459320024
										282:[age<42] yes=337,no=338,missing=337
											337:leaf=-0.107275128
											338:[age<49] yes=385,no=386,missing=385
												385:leaf=0.013879681
												386:leaf=-0.080269821
									232:[education<3] yes=283,no=284,missing=283
										283:leaf=0.0547851771
										284:leaf=-0.035885863
							138:leaf=-0.0956167057
		6:[emp.var.rate<-0.600000024] yes=13,no=14,missing=13
			13:[emp.var.rate<-3.20000005] yes=27,no=28,missing=27
				27:leaf=-0.0268272366
				28:[loan<2] yes=55,no=56,missing=55
					55:leaf=0.0887028053
					56:leaf=0.0248554125
			14:[euribor3m<4.86199999] yes=29,no=30,missing=29
				29:[duration<1617] yes=57,no=58,missing=57
					57:[campaign<2] yes=93,no=94,missing=93
						93:[education<5] yes=139,no=140,missing=139
							139:[duration<1177] yes=181,no=182,missing=181
								181:[age<37] yes=233,no=234,missing=233
									233:[housing<1] yes=285,no=286,missing=285
										285:leaf=-0.0312319007
										286:leaf=-0.0891101286
									234:[day_of_week<3] yes=287,no=288,missing=287
										287:[job<2] yes=339,no=340,missing=339
											339:leaf=-0.0540603511
											340:leaf=0.0121061653
										288:leaf=0.0512521937
								182:[age<43] yes=235,no=236,missing=235
									235:leaf=0.0608417839
									236:leaf=-0.0225287341
							140:[age<33] yes=183,no=184,missing=183
								183:leaf=0.0760889947
								184:[age<38] yes=237,no=238,missing=237
									237:leaf=-0.0805592388
									238:[job<3] yes=289,no=290,missing=289
										289:leaf=0.0702256709
										290:leaf=5.56423574e-09
						94:[duration<891] yes=141,no=142,missing=141
							141:[duration<865] yes=185,no=186,missing=185
								185:leaf=-0.0121606551
								186:leaf=-0.0996982679
							142:[duration<901] yes=187,no=188,missing=187
								187:leaf=0.0543782674
								188:[age<48] yes=239,no=240,missing=239
									239:[education<7] yes=291,no=292,missing=291
										291:[duration<1251] yes=341,no=342,missing=341
											341:[age<34] yes=387,no=388,missing=387
												387:[default<1] yes=425,no=426,missing=425
													425:[education<6] yes=449,no=450,missing=449
														449:[day_of_week<3] yes=463,no=464,missing=463
															463:leaf=0.0242424272
															464:leaf=-0.0361794941
														450:leaf=-0.0735069141
													426:leaf=0.0370977372
												388:[age<37] yes=427,no=428,missing=427
													427:leaf=-0.101555616
													428:[marital<2] yes=451,no=452,missing=451
														451:[age<38] yes=465,no=466,missing=465
															465:leaf=-0.0149511285
															466:[euribor3m<4.85550022] yes=471,no=472,missing=471
																471:leaf=-0.0258595794
																472:leaf=-0.0799131244
														452:leaf=0.0445088334
											342:[duration<1438] yes=389,no=390,missing=389
												389:[age<38] yes=429,no=430,missing=429
													429:leaf=-0
													430:leaf=0.0748173967
												390:[age<44] yes=431,no=432,missing=431
													431:leaf=-0.0608417802
													432:leaf=-0
										292:leaf=0.0225287415
									240:[day_of_week<1] yes=293,no=294,missing=293
										293:leaf=-0.0381667949
										294:[euribor3m<4.85649967] yes=343,no=344,missing=343
											343:leaf=-0.027772475
											344:leaf=0.0780213401
					58:[day_of_week<3] yes=95,no=96,missing=95
						95:[job<2] yes=143,no=144,missing=143
							143:leaf=0.0459258147
							144:leaf=-0.0457209498
						96:[duration<1894] yes=145,no=146,missing=145
							145:leaf=0.0951738358
							146:leaf=-0
				30:[age<29] yes=59,no=60,missing=59
					59:[loan<1] yes=97,no=98,missing=97
						97:[job<8] yes=147,no=148,missing=147
							147:[day_of_week<3] yes=189,no=190,missing=189
								189:leaf=-0.0109371003
								190:leaf=0.0556591935
							148:leaf=-0.0319328904
						98:leaf=-0.0805592388
					60:[nr.employed<5193.3999] yes=99,no=100,missing=99
						99:leaf=0.0945290402
						100:[education<4] yes=149,no=150,missing=149
							149:[housing<1] yes=191,no=192,missing=191
								191:[age<55] yes=241,no=242,missing=241
									241:[duration<1428] yes=295,no=296,missing=295
										295:[education<1] yes=345,no=346,missing=345
											345:[euribor3m<4.96049976] yes=391,no=392,missing=391
												391:leaf=-0.0374126695
												392:leaf=0.0454183333
											346:[campaign<2] yes=393,no=394,missing=393
												393:[age<36] yes=433,no=434,missing=433
													433:leaf=-0.0164527223
													434:[age<42] yes=453,no=454,missing=453
														453:leaf=0.0544794239
														454:leaf=0.0141758565
												394:leaf=0.0985730067
										296:[duration<1545] yes=347,no=348,missing=347
											347:leaf=-0.0466325916
											348:leaf=0.0448657535
									242:leaf=-0.0150150843
								192:[age<55] yes=243,no=244,missing=243
									243:[job<2] yes=297,no=298,missing=297
										297:[euribor3m<4.90649986] yes=349,no=350,missing=349
											349:[day_of_week<3] yes=395,no=396,missing=395
												395:leaf=-0.0448657498
												396:leaf=-0
											350:[marital<1] yes=397,no=398,missing=397
												397:leaf=-0.0149511285
												398:[age<42] yes=435,no=436,missing=435
													435:[age<36] yes=455,no=456,missing=455
														455:leaf=0.0608417839
														456:leaf=-0.0268272366
													436:leaf=0.0891101286
										298:[campaign<3] yes=351,no=352,missing=351
											351:leaf=-0.0863358378
											352:leaf=0.00124694465
									244:leaf=0.0891101286
							150:[duration<1301] yes=193,no=194,missing=193
								193:[duration<1026] yes=245,no=246,missing=245
									245:[euribor3m<4.95650005] yes=299,no=300,missing=299
										299:[duration<970] yes=353,no=354,missing=353
											353:leaf=-0.0554754287
											354:leaf=0.0113064917
										300:[euribor3m<4.96000004] yes=355,no=356,missing=355
											355:leaf=0.0895207822
											356:[day_of_week<3] yes=399,no=400,missing=399
												399:leaf=0.033422526
												400:leaf=-0.0685956255
									246:[age<46] yes=301,no=302,missing=301
										301:[job<9] yes=357,no=358,missing=357
											357:[age<37] yes=401,no=402,missing=401
												401:leaf=-0.0608417802
												402:leaf=-0
											358:leaf=0.026827231
										302:leaf=-0.0923796743
								194:[default<1] yes=247,no=248,missing=247
									247:[day_of_week<2] yes=303,no=304,missing=303
										303:leaf=0.0209887121
										304:leaf=0.0948867574
									248:leaf=-0.0172828175
booster[2]:
0:[duration<615] yes=1,no=2,missing=1
	1:[nr.employed<5087.65039] yes=3,no=4,missing=3
		3:[duration<166] yes=7,no=8,missing=7
			7:[pdays<4] yes=15,no=16,missing=15
				15:[nr.employed<5046.8501] yes=31,no=32,missing=31
					31:leaf=0.060042873
					32:leaf=-0.0367345624
				16:[default<1] yes=33,no=34,missing=33
					33:[euribor3m<0.656999946] yes=61,no=62,missing=61
						61:leaf=-0.0116198221
						62:[duration<139] yes=103,no=104,missing=103
							103:leaf=-0.107133776
							104:[nr.employed<5020.5] yes=149,no=150,missing=149
								149:[cons.conf.idx<-28.3499985] yes=197,no=198,missing=197
									197:leaf=-0.101881772
									198:leaf=-0.034888003
								150:[job<6] yes=199,no=200,missing=199
									199:[campaign<3] yes=251,no=252,missing=251
										251:leaf=-0.0638248697
										252:leaf=-0
									200:leaf=0.0257094149
					34:leaf=-0
			8:[pdays<14] yes=17,no=18,missing=17
				17:[cons.price.idx<94.2070007] yes=35,no=36,missing=35
					35:[cons.price.idx<92.4049988] yes=63,no=64,missing=63
						63:[duration<254] yes=105,no=106,missing=105
							105:leaf=-0.0143848136
							106:leaf=0.051196605
						64:[euribor3m<0.90199995] yes=107,no=108,missing=107
							107:[age<31] yes=151,no=152,missing=151
								151:leaf=0.032014966
								152:leaf=0.10957887
							108:leaf=0.0403856523
					36:[duration<281] yes=65,no=66,missing=65
						65:leaf=-0.0519684255
						66:leaf=0.0435414873
				18:[contact<1] yes=37,no=38,missing=37
					37:[duration<362] yes=67,no=68,missing=67
						67:[day_of_week<3] yes=109,no=110,missing=109
							109:[age<59] yes=153,no=154,missing=153
								153:[duration<313] yes=201,no=202,missing=201
									201:[cons.price.idx<94.2070007] yes=253,no=254,missing=253
										253:[nr.employed<5020.5] yes=309,no=310,missing=309
											309:[day_of_week<1] yes=369,no=370,missing=369
												369:leaf=0.0874426067
												370:[euribor3m<0.721000016] yes=409,no=410,missing=409
													409:leaf=0.0437205769
													410:[month<9] yes=439,no=440,missing=439
														439:leaf=-0.0805126503
														440:leaf=0.0122906091
											310:[day_of_week<1] yes=371,no=372,missing=371
												371:leaf=0.0242505278
												372:leaf=0.101557925
										254:[age<33] yes=311,no=312,missing=311
											311:leaf=0.0160755925
											312:leaf=-0.0746713653
									202:[day_of_week<2] yes=255,no=256,missing=255
										255:leaf=-0.0590043627
										256:leaf=0.0176290404
								154:[euribor3m<0.861000001] yes=203,no=204,missing=203
									203:leaf=0.00184099365
									204:leaf=-0.0892100036
							110:[education<2] yes=155,no=156,missing=155
								155:leaf=0.0740789175
								156:[loan<1] yes=205,no=206,missing=205
									205:[euribor3m<0.717000008] yes=257,no=258,missing=257
										257:leaf=0.00028529836
										258:[duration<293] yes=313,no=314,missing=313
											313:[duration<186] yes=373,no=374,missing=373
												373:leaf=-0.0224251486
												374:leaf=-0.108820371
											314:leaf=0.0126135899
									206:leaf=0.0138591323
						68:[age<36] yes=111,no=112,missing=111
							111:[cons.conf.idx<-40.1500015] yes=157,no=158,missing=157
								157:[education<5] yes=207,no=208,missing=207
									207:leaf=0.0720872357
									208:leaf=-0
								158:[housing<1] yes=209,no=210,missing=209
									209:leaf=0.0143711381
									210:leaf=-0.0638248697
							112:[education<3] yes=159,no=160,missing=159
								159:leaf=-0
								160:[cons.conf.idx<-40.5499992] yes=211,no=212,missing=211
									211:leaf=0.0331424028
									212:leaf=0.101642959
					38:[emp.var.rate<-1.75] yes=69,no=70,missing=69
						69:leaf=-0.0959896818
						70:leaf=-0.0116748875
		4:[duration<458] yes=9,no=10,missing=9
			9:[cons.conf.idx<-48.5499992] yes=19,no=20,missing=19
				19:[duration<221] yes=39,no=40,missing=39
					39:[euribor3m<1.7414999] yes=71,no=72,missing=71
						71:[job<6] yes=113,no=114,missing=113
							113:leaf=0.0152147952
							114:leaf=-0.0790363029
						72:leaf=0.0160029251
					40:leaf=0.0774171203
				20:[month<8] yes=41,no=42,missing=41
					41:[age<64] yes=73,no=74,missing=73
						73:[pdays<4] yes=115,no=116,missing=115
							115:[pdays<3] yes=161,no=162,missing=161
								161:leaf=-0.0731820539
								162:leaf=0.00104294554
							116:[month<1] yes=163,no=164,missing=163
								163:[age<58] yes=213,no=214,missing=213
									213:[euribor3m<1.40249991] yes=259,no=260,missing=259
										259:[job<1] yes=315,no=316,missing=315
											315:leaf=0.00559936557
											316:leaf=-0.0835306719
										260:[day_of_week<4] yes=317,no=318,missing=317
											317:[education<7] yes=375,no=376,missing=375
												375:leaf=-0.113884076
												376:leaf=-0.0371401682
											318:[education<4] yes=377,no=378,missing=377
												377:leaf=-0.00574890338
												378:leaf=-0.0740673095
									214:leaf=-0.00979453512
								164:leaf=-0.122681499
						74:leaf=-0
					42:leaf=0.0143711381
			10:[euribor3m<1.29500008] yes=21,no=22,missing=21
				21:[campaign<2] yes=43,no=44,missing=43
					43:[duration<561] yes=75,no=76,missing=75
						75:leaf=-0.00115207734
						76:leaf=0.044732485
					44:[age<48] yes=77,no=78,missing=77
						77:leaf=-0.0720872357
						78:leaf=-0
				22:[month<5] yes=45,no=46,missing=45
					45:[age<59] yes=79,no=80,missing=79
						79:[campaign<15] yes=117,no=118,missing=117
							117:[duration<554] yes=165,no=166,missing=165
								165:[education<6] yes=215,no=216,missing=215
									215:[age<32] yes=261,no=262,missing=261
										261:[campaign<4] yes=319,no=320,missing=319
											319:[age<31] yes=379,no=380,missing=379
												379:[education<2] yes=411,no=412,missing=411
													411:leaf=-0.0257094223
													412:leaf=-0.103811152
												380:[housing<1] yes=413,no=414,missing=413
													413:leaf=-0.0720872357
													414:leaf=0.0431597084
											320:leaf=-0.0116198221
										262:leaf=-0.10637594
									216:[housing<1] yes=263,no=264,missing=263
										263:[marital<2] yes=321,no=322,missing=321
											321:[duration<468] yes=381,no=382,missing=381
												381:leaf=0.0143711381
												382:[age<39] yes=415,no=416,missing=415
													415:leaf=-0.0214729924
													416:leaf=-0.0950321406
											322:leaf=0.0348880142
										264:[age<31] yes=323,no=324,missing=323
											323:leaf=-0
											324:leaf=-0.0951928645
								166:[duration<557] yes=217,no=218,missing=217
									217:leaf=0.0295021441
									218:[education<2] yes=265,no=266,missing=265
										265:[euribor3m<4.96000004] yes=325,no=326,missing=325
											325:[housing<2] yes=383,no=384,missing=383
												383:leaf=0.0430863351
												384:leaf=0.0119504863
											326:leaf=-0.0817383751
										266:[day_of_week<4] yes=327,no=328,missing=327
											327:leaf=-0.098539412
											328:[duration<588] yes=385,no=386,missing=385
												385:[job<3] yes=417,no=418,missing=417
													417:leaf=0.0431101061
													418:leaf=-0.0253042337
												386:leaf=-0.0861026049
							118:leaf=-0
						80:[housing<2] yes=119,no=120,missing=119
							119:leaf=-0.0429886132
							120:leaf=0.0514910258
					46:[previous<1] yes=81,no=82,missing=81
						81:leaf=-0.104319438
						82:[housing<2] yes=121,no=122,missing=121
							121:leaf=-0.0787485763
							122:leaf=-0.0103265364
	2:[duration<854] yes=5,no=6,missing=5
		5:[contact<1] yes=11,no=12,missing=11
			11:[duration<722] yes=23,no=24,missing=23
				23:[nr.employed<5087.65039] yes=47,no=48,missing=47
					47:[duration<693] yes=83,no=84,missing=83
						83:leaf=0.0679397881
						84:leaf=-0.0197238699
					48:[marital<1] yes=85,no=86,missing=85
						85:[age<43] yes=123,no=124,missing=123
							123:leaf=-0.0141861709
							124:leaf=0.0736020878
						86:[age<43] yes=125,no=126,missing=125
							125:[euribor3m<4.09800005] yes=167,no=168,missing=167
								167:leaf=-0.0721555576
								168:[day_of_week<4] yes=219,no=220,missing=219
									219:[job<2] yes=267,no=268,missing=267
										267:[day_of_week<2] yes=329,no=330,missing=329
											329:leaf=0.0160037316
											330:leaf=0.080043599
										268:[euribor3m<4.96249962] yes=331,no=332,missing=331
											331:leaf=-0.0494056828
											332:leaf=0.0134999482
									220:[age<30] yes=269,no=270,missing=269
										269:leaf=-0.0719149634
										270:leaf=0.0124777807
							126:[duration<622] yes=169,no=170,missing=169
								169:leaf=-0
								170:[loan<2] yes=221,no=222,missing=221
									221:leaf=-0.0936656669
									222:leaf=-0.0231044553
				24:[age<36] yes=49,no=50,missing=49
					49:[euribor3m<4.95849991] yes=87,no=88,missing=87
						87:[marital<2] yes=127,no=128,missing=127
							127:leaf=0.0511021651
							128:leaf=-0.0560098812
						88:leaf=0.0908355266
					50:[age<39] yes=89,no=90,missing=89
						89:leaf=-0.0801254064
						90:[education<6] yes=129,no=130,missing=129
							129:[duration<808] yes=171,no=172,missing=171
								171:[age<50] yes=223,no=224,missing=223
									223:[duration<755] yes=271,no=272,missing=271
										271:leaf=0.0439583175
										272:leaf=-0.0154998051
									224:leaf=-0.0690417141
								172:leaf=0.0415523499
							130:leaf=0.0771342516
			12:[age<29] yes=25,no=26,missing=25
				25:[default<1] yes=51,no=52,missing=51
					51:[job<3] yes=91,no=92,missing=91
						91:[duration<634] yes=131,no=132,missing=131
							131:leaf=-0
							132:[campaign<2] yes=173,no=174,missing=173
								173:leaf=-0.010561713
								174:leaf=-0.0817830488
						92:[euribor3m<4.91149998] yes=133,no=134,missing=133
							133:leaf=-0.0297312289
							134:leaf=0.0582417771
					52:leaf=0.0429886095
				26:[emp.var.rate<-0.349999964] yes=53,no=54,missing=53
					53:leaf=0.0435154587
					54:[loan<1] yes=93,no=94,missing=93
						93:[job<11] yes=135,no=136,missing=135
							135:[euribor3m<4.85949993] yes=175,no=176,missing=175
								175:[day_of_week<1] yes=225,no=226,missing=225
									225:[duration<768] yes=273,no=274,missing=273
										273:leaf=-0.0761313513
										274:[duration<807] yes=333,no=334,missing=333
											333:leaf=0.0527254865
											334:leaf=-0.0644415468
									226:[age<31] yes=275,no=276,missing=275
										275:[education<6] yes=335,no=336,missing=335
											335:leaf=-0.0704310834
											336:leaf=0.00444210647
										276:[age<39] yes=337,no=338,missing=337
											337:leaf=-0.102997884
											338:[age<42] yes=387,no=388,missing=387
												387:[duration<681] yes=419,no=420,missing=419
													419:[job<6] yes=441,no=442,missing=441
														441:leaf=0.0543427132
														442:leaf=-0.0108071454
													420:[duration<743] yes=443,no=444,missing=443
														443:leaf=-0.081577912
														444:leaf=-0.0169257242
												388:[age<52] yes=421,no=422,missing=421
													421:[euribor3m<4.85550022] yes=445,no=446,missing=445
														445:leaf=-0.0306432862
														446:[education<6] yes=457,no=458,missing=457
															457:leaf=-0.106516555
															458:leaf=-0.0453554913
													422:[age<57] yes=447,no=448,missing=447
														447:[housing<1] yes=459,no=460,missing=459
															459:[duration<773] yes=469,no=470,missing=469
																469:leaf=-0.0707958564
																470:leaf=-0.0109805344
															460:leaf=0.0186929423
														448:leaf=-0.0862328634
								176:[day_of_week<4] yes=227,no=228,missing=227
									227:[duration<676] yes=277,no=278,missing=277
										277:[duration<619] yes=339,no=340,missing=339
											339:leaf=-0.0100096343
											340:leaf=-0.0945142061
										278:[duration<698] yes=341,no=342,missing=341
											341:[campaign<3] yes=389,no=390,missing=389
												389:[euribor3m<4.96000004] yes=423,no=424,missing=423
													423:leaf=-0.0497389212
													424:leaf=0.00320561253
												390:leaf=0.0637853369
											342:[marital<2] yes=391,no=392,missing=391
												391:[euribor3m<4.91050005] yes=425,no=426,missing=425
													425:[education<4] yes=449,no=450,missing=449
														449:[duration<729] yes=461,no=462,missing=461
															461:leaf=-0.0726929829
															462:[month<5] yes=471,no=472,missing=471
																471:leaf=0.0568029247
																472:[job<3] yes=475,no=476,missing=475
																	475:leaf=-0.0503476001
																	476:leaf=0.0342915356
														450:leaf=-0.0934602991
													426:leaf=-0.0919644982
												392:[education<6] yes=427,no=428,missing=427
													427:leaf=-0.06396202
													428:[job<2] yes=451,no=452,missing=451
														451:leaf=-0.0345303379
														452:leaf=0.0400071703
									228:[age<51] yes=279,no=280,missing=279
										279:[age<37] yes=343,no=344,missing=343
											343:[education<3] yes=393,no=394,missing=393
												393:leaf=0.0749207139
												394:leaf=-0.0440022983
											344:leaf=-0.0683594719
										280:leaf=0.0757346079
							136:leaf=0.0156432502
						94:[age<52] yes=137,no=138,missing=137
							137:[campaign<2] yes=177,no=178,missing=177
								177:[duration<774] yes=229,no=230,missing=229
									229:[duration<655] yes=281,no=282,missing=281
										281:leaf=0.0363035761
										282:leaf=-0.0386513211
									230:leaf=0.0695202127
								178:[euribor3m<4.91050005] yes=231,no=232,missing=231
									231:[marital<2] yes=283,no=284,missing=283
										283:[day_of_week<2] yes=345,no=346,missing=345
											345:leaf=-0.0301948413
											346:leaf=-0.102906667
										284:leaf=0.00239930139
									232:[age<45] yes=285,no=286,missing=285
										285:[duration<768] yes=347,no=348,missing=347
											347:leaf=0.00152804574
											348:leaf=-0.0639484376
										286:leaf=0.0736136064
							138:leaf=-0.0912814066
		6:[emp.var.rate<-0.600000024] yes=13,no=14,missing=13
			13:[emp.var.rate<-3.20000005] yes=27,no=28,missing=27
				27:leaf=-0.0257094223
				28:[day_of_week<2] yes=55,no=56,missing=55
					55:[duration<1146] yes=95,no=96,missing=95
						95:leaf=-0.0144936256
						96:leaf=0.0884777531
					56:leaf=0.0952995196
			14:[euribor3m<4.86199999] yes=29,no=30,missing=29
				29:[duration<1617] yes=57,no=58,missing=57
					57:[campaign<2] yes=97,no=98,missing=97
						97:[education<5] yes=139,no=140,missing=139
							139:[duration<1177] yes=179,no=180,missing=179
								179:[age<37] yes=233,no=234,missing=233
									233:[housing<1] yes=287,no=288,missing=287
										287:leaf=-0.0297312289
										288:leaf=-0.0853135213
									234:[day_of_week<3] yes=289,no=290,missing=289
										289:[job<2] yes=349,no=350,missing=349
											349:leaf=-0.0518542118
											350:leaf=0.0115678813
										290:leaf=0.0488408543
								180:[age<43] yes=235,no=236,missing=235
									235:leaf=0.0582417771
									236:leaf=-0.0214824434
							140:[age<33] yes=181,no=182,missing=181
								181:leaf=0.0725256205
								182:[age<38] yes=237,no=238,missing=237
									237:leaf=-0.0774171203
									238:[job<3] yes=291,no=292,missing=291
										291:leaf=0.0666690543
										292:leaf=5.56423574e-09
						98:[duration<891] yes=141,no=142,missing=141
							141:[duration<865] yes=183,no=184,missing=183
								183:leaf=-0.0116198221
								184:leaf=-0.0950321406
							142:[duration<901] yes=185,no=186,missing=185
								185:leaf=0.0521541387
								186:[age<48] yes=239,no=240,missing=239
									239:[education<7] yes=293,no=294,missing=293
										293:[duration<1251] yes=351,no=352,missing=351
											351:[age<34] yes=395,no=396,missing=395
												395:[euribor3m<4.85550022] yes=429,no=430,missing=429
													429:leaf=0.0445012413
													430:[duration<1074] yes=453,no=454,missing=453
														453:[housing<2] yes=463,no=464,missing=463
															463:leaf=0.0318858884
															464:leaf=-0.0521561056
														454:[job<8] yes=465,no=466,missing=465
															465:leaf=-0.081109874
															466:leaf=-0.0117519014
												396:[age<37] yes=431,no=432,missing=431
													431:leaf=-0.0967311412
													432:[marital<2] yes=455,no=456,missing=455
														455:[housing<1] yes=467,no=468,missing=467
															467:leaf=-0.0845491588
															468:[age<40] yes=473,no=474,missing=473
																473:leaf=0.00416277302
																474:[education<3] yes=477,no=478,missing=477
																	477:leaf=-0.072196424
																	478:leaf=-0.0180755574
														456:leaf=0.0428212583
											352:[duration<1438] yes=397,no=398,missing=397
												397:[age<38] yes=433,no=434,missing=433
													433:leaf=-0
													434:leaf=0.0720872357
												398:[age<44] yes=435,no=436,missing=435
													435:leaf=-0.0582417771
													436:leaf=-0
										294:leaf=0.0214824472
									240:[day_of_week<1] yes=295,no=296,missing=295
										295:leaf=-0.0364760011
										296:[euribor3m<4.85649967] yes=353,no=354,missing=353
											353:leaf=-0.026610665
											354:leaf=0.0742904097
					58:[campaign<3] yes=99,no=100,missing=99
						99:[day_of_week<3] yes=143,no=144,missing=143
							143:[campaign<2] yes=187,no=188,missing=187
								187:leaf=-0.0449379422
								188:leaf=0.0463182442
							144:leaf=0.0950348824
						100:leaf=-0.0292265043
				30:[age<25] yes=59,no=60,missing=59
					59:leaf=-0.0606642589
					60:[euribor3m<4.86450005] yes=101,no=102,missing=101
						101:[campaign<2] yes=145,no=146,missing=145
							145:[marital<2] yes=189,no=190,missing=189
								189:leaf=-0.0249348003
								190:leaf=0.0460616387
							146:[campaign<6] yes=191,no=192,missing=191
								191:[age<30] yes=241,no=242,missing=241
									241:leaf=0.0268746689
									242:leaf=0.0978669524
								192:leaf=0.0205673371
						102:[education<4] yes=147,no=148,missing=147
							147:[duration<1018] yes=193,no=194,missing=193
								193:[age<47] yes=243,no=244,missing=243
									243:[day_of_week<2] yes=297,no=298,missing=297
										297:[duration<957] yes=355,no=356,missing=355
											355:leaf=0.0924791843
											356:leaf=-0.0176917166
										298:[month<4] yes=357,no=358,missing=357
											357:leaf=0.0457600765
											358:[campaign<3] yes=399,no=400,missing=399
												399:[duration<918] yes=437,no=438,missing=437
													437:leaf=-0.0750940889
													438:leaf=-0.0193875879
												400:leaf=0.0125760054
									244:leaf=-0.0573778711
								194:[duration<1154] yes=245,no=246,missing=245
									245:[education<3] yes=299,no=300,missing=299
										299:leaf=0.0965477303
										300:leaf=0.0297981743
									246:[cons.price.idx<94.1914978] yes=301,no=302,missing=301
										301:[duration<1428] yes=359,no=360,missing=359
											359:[day_of_week<4] yes=401,no=402,missing=401
												401:leaf=0.0507453158
												402:leaf=-0.048600655
											360:leaf=-0.0457023531
										302:[age<42] yes=361,no=362,missing=361
											361:[age<34] yes=403,no=404,missing=403
												403:leaf=0.051716201
												404:leaf=-0.0455678701
											362:leaf=0.0896407366
							148:[duration<1301] yes=195,no=196,missing=195
								195:[housing<1] yes=247,no=248,missing=247
									247:[euribor3m<4.96049976] yes=303,no=304,missing=303
										303:[duration<989] yes=363,no=364,missing=363
											363:leaf=0.0907166377
											364:leaf=0.0132035017
										304:[age<39] yes=365,no=366,missing=365
											365:[duration<1041] yes=405,no=406,missing=405
												405:leaf=-0.0132599305
												406:leaf=0.0166538097
											366:leaf=-0.0829254538
									248:[duration<916] yes=305,no=306,missing=305
										305:leaf=0.000514330517
										306:[age<30] yes=367,no=368,missing=367
											367:leaf=-0.0149101354
											368:[campaign<2] yes=407,no=408,missing=407
												407:leaf=-0.0196515676
												408:leaf=-0.0877617672
								196:[age<50] yes=249,no=250,missing=249
									249:[age<35] yes=307,no=308,missing=307
										307:leaf=0.00966407172
										308:leaf=0.073904857
									250:leaf=-0.0163271315
booster[3]:
0:[duration<615] yes=1,no=2,missing=1
	1:[nr.employed<5087.65039] yes=3,no=4,missing=3
		3:[duration<166] yes=7,no=8,missing=7
			7:[pdays<4] yes=15,no=16,missing=15
				15:[euribor3m<0.861999989] yes=31,no=32,missing=31
					31:leaf=0.0593111366
					32:leaf=-0.036975421
				16:[default<1] yes=33,no=34,missing=33
					33:[euribor3m<0.656999946] yes=61,no=62,missing=61
						61:leaf=-0.0111035509
						62:[duration<139] yes=97,no=98,missing=97
							97:leaf=-0.101425059
							98:[nr.employed<5020.5] yes=147,no=148,missing=147
								147:[cons.conf.idx<-28.3499985] yes=199,no=200,missing=199
									199:leaf=-0.0972305536
									200:leaf=-0.03336991
								148:[job<6] yes=201,no=202,missing=201
									201:[campaign<2] yes=257,no=258,missing=257
										257:leaf=-0.0703930333
										258:leaf=-0.00893451367
									202:leaf=0.0246432349
					34:leaf=-0
			8:[pdays<14] yes=17,no=18,missing=17
				17:[cons.price.idx<94.2070007] yes=35,no=36,missing=35
					35:[cons.price.idx<92.4049988] yes=63,no=64,missing=63
						63:[duration<254] yes=99,no=100,missing=99
							99:leaf=-0.0138276909
							100:leaf=0.049160108
						64:[pdays<7] yes=101,no=102,missing=101
							101:leaf=0.100414455
							102:[cons.price.idx<93.8125] yes=149,no=150,missing=149
								149:leaf=0.0835649967
								150:leaf=-0.0247941129
					36:[duration<281] yes=65,no=66,missing=65
						65:leaf=-0.0498880446
						66:leaf=0.041566994
				18:[contact<1] yes=37,no=38,missing=37
					37:[duration<362] yes=67,no=68,missing=67
						67:[campaign<4] yes=103,no=104,missing=103
							103:[day_of_week<3] yes=151,no=152,missing=151
								151:[age<59] yes=203,no=204,missing=203
									203:[duration<313] yes=259,no=260,missing=259
										259:[cons.price.idx<94.2070007] yes=309,no=310,missing=309
											309:[previous<1] yes=349,no=350,missing=349
												349:[cons.price.idx<92.4499969] yes=377,no=378,missing=377
													377:leaf=0.0190340653
													378:leaf=0.0894097537
												350:[job<9] yes=379,no=380,missing=379
													379:[duration<230] yes=399,no=400,missing=399
														399:leaf=-0.0425846986
														400:leaf=0.0104988124
													380:leaf=0.0772332996
											310:leaf=-0.0418727808
										260:[day_of_week<2] yes=311,no=312,missing=311
											311:leaf=-0.0565306768
											312:leaf=0.0169407632
									204:[duration<238] yes=261,no=262,missing=261
										261:leaf=-0.0115806451
										262:leaf=-0.0868220404
								152:[education<2] yes=205,no=206,missing=205
									205:leaf=0.0714054629
									206:[loan<1] yes=263,no=264,missing=263
										263:[duration<293] yes=313,no=314,missing=313
											313:[duration<186] yes=351,no=352,missing=351
												351:leaf=-0.0213844329
												352:leaf=-0.0953398049
											314:leaf=-0.0140002742
										264:leaf=0.0132419113
							104:[euribor3m<0.847499967] yes=153,no=154,missing=153
								153:leaf=0.0727206841
								154:leaf=0.0118608279
						68:[age<36] yes=105,no=106,missing=105
							105:[cons.conf.idx<-40.1500015] yes=155,no=156,missing=155
								155:[education<5] yes=207,no=208,missing=207
									207:leaf=0.0695603415
									208:leaf=-0
								156:[housing<1] yes=209,no=210,missing=209
									209:leaf=0.0138144605
									210:leaf=-0.0610762276
							106:[education<3] yes=157,no=158,missing=157
								157:leaf=-0
								158:[duration<401] yes=211,no=212,missing=211
									211:leaf=0.030098103
									212:leaf=0.0977773145
					38:[campaign<4] yes=69,no=70,missing=69
						69:leaf=-0.0920798331
						70:leaf=-0.00869433396
		4:[duration<475] yes=9,no=10,missing=9
			9:[cons.conf.idx<-48.5499992] yes=19,no=20,missing=19
				19:[duration<221] yes=39,no=40,missing=39
					39:[euribor3m<1.7414999] yes=71,no=72,missing=71
						71:[job<6] yes=107,no=108,missing=107
							107:leaf=0.0146242371
							108:leaf=-0.0760229304
						72:leaf=0.0153805334
					40:leaf=0.0745345801
				20:[month<8] yes=41,no=42,missing=41
					41:[age<61] yes=73,no=74,missing=73
						73:[pdays<4] yes=109,no=110,missing=109
							109:[education<5] yes=159,no=160,missing=159
								159:leaf=0.00202727481
								160:leaf=-0.0716561899
							110:[duration<412] yes=161,no=162,missing=161
								161:leaf=-0.116604604
								162:[euribor3m<1.29500008] yes=213,no=214,missing=213
									213:[day_of_week<3] yes=265,no=266,missing=265
										265:leaf=-0.0532748252
										266:leaf=0.0384703912
									214:leaf=-0.107182316
						74:[age<64] yes=111,no=112,missing=111
							111:leaf=-0.035666395
							112:leaf=-0
					42:leaf=0.0138144605
			10:[euribor3m<1.28600001] yes=21,no=22,missing=21
				21:[job<7] yes=43,no=44,missing=43
					43:[day_of_week<2] yes=75,no=76,missing=75
						75:leaf=0.0443588533
						76:leaf=-0.014944993
					44:leaf=-0.0518701598
				22:[month<5] yes=45,no=46,missing=45
					45:[age<59] yes=77,no=78,missing=77
						77:[campaign<15] yes=113,no=114,missing=113
							113:[day_of_week<4] yes=163,no=164,missing=163
								163:[age<58] yes=215,no=216,missing=215
									215:leaf=-0.082115896
									216:leaf=-0.0289027654
								164:[job<1] yes=217,no=218,missing=217
									217:[age<33] yes=267,no=268,missing=267
										267:leaf=-0.0113977408
										268:leaf=0.0312872194
									218:[campaign<2] yes=269,no=270,missing=269
										269:[age<30] yes=315,no=316,missing=315
											315:leaf=-0.0692052245
											316:[duration<557] yes=353,no=354,missing=353
												353:leaf=-0.0166188851
												354:leaf=0.0498135127
										270:leaf=-0.107935153
							114:leaf=-0
						78:[default<1] yes=115,no=116,missing=115
							115:leaf=0.0551211387
							116:leaf=-0.0461706966
					46:[duration<477] yes=79,no=80,missing=79
						79:[day_of_week<2] yes=117,no=118,missing=117
							117:leaf=-0.0365721956
							118:leaf=-0.00264582108
						80:[age<57] yes=119,no=120,missing=119
							119:leaf=-0.0987097695
							120:[default<1] yes=165,no=166,missing=165
								165:[age<58] yes=219,no=220,missing=219
									219:leaf=0.0262180399
									220:[housing<1] yes=271,no=272,missing=271
										271:leaf=-0.00461404538
										272:leaf=-0.0667314976
								166:leaf=-0.0875302106
	2:[duration<854] yes=5,no=6,missing=5
		5:[contact<1] yes=11,no=12,missing=11
			11:[nr.employed<5020.5] yes=23,no=24,missing=23
				23:leaf=0.0725952834
				24:[age<35] yes=47,no=48,missing=47
					47:[age<30] yes=81,no=82,missing=81
						81:[duration<759] yes=121,no=122,missing=121
							121:[job<1] yes=167,no=168,missing=167
								167:leaf=0.0139980102
								168:leaf=-0.0909742862
							122:leaf=0.0421877727
						82:[month<5] yes=123,no=124,missing=123
							123:[campaign<2] yes=169,no=170,missing=169
								169:[age<32] yes=221,no=222,missing=221
									221:leaf=0.0632932708
									222:leaf=-0.0141295847
								170:leaf=0.0825383812
							124:[euribor3m<1.32850003] yes=171,no=172,missing=171
								171:leaf=0.0112809604
								172:leaf=-0.0174925607
					48:[duration<808] yes=83,no=84,missing=83
						83:[marital<1] yes=125,no=126,missing=125
							125:[campaign<3] yes=173,no=174,missing=173
								173:leaf=0.0423303433
								174:leaf=-0.0172926728
							126:[job<8] yes=175,no=176,missing=175
								175:[duration<622] yes=223,no=224,missing=223
									223:leaf=-0.000199369097
									224:[age<51] yes=273,no=274,missing=273
										273:[age<48] yes=317,no=318,missing=317
											317:[duration<707] yes=355,no=356,missing=355
												355:leaf=-0.0775241181
												356:[duration<768] yes=381,no=382,missing=381
													381:leaf=0.0115398178
													382:leaf=-0.0432041772
											318:leaf=0.0135252438
										274:leaf=-0.0941286907
								176:[duration<731] yes=225,no=226,missing=225
									225:[default<1] yes=275,no=276,missing=275
										275:leaf=0.0265984274
										276:leaf=-0.0774726123
									226:leaf=0.0369734429
						84:[age<48] yes=127,no=128,missing=127
							127:leaf=-0.0431902818
							128:leaf=0.0832636207
			12:[age<29] yes=25,no=26,missing=25
				25:[default<1] yes=49,no=50,missing=49
					49:[job<3] yes=85,no=86,missing=85
						85:[duration<634] yes=129,no=130,missing=129
							129:leaf=-0
							130:[duration<684] yes=177,no=178,missing=177
								177:leaf=-0.0859166607
								178:leaf=-0.018523084
						86:[euribor3m<4.91149998] yes=131,no=132,missing=131
							131:leaf=-0.0283115227
							132:leaf=0.0558144078
					50:leaf=0.0410452969
				26:[emp.var.rate<-0.349999964] yes=51,no=52,missing=51
					51:leaf=0.0418797359
					52:[loan<1] yes=87,no=88,missing=87
						87:[job<11] yes=133,no=134,missing=133
							133:[euribor3m<4.95849991] yes=179,no=180,missing=179
								179:[campaign<10] yes=227,no=228,missing=227
									227:[duration<731] yes=277,no=278,missing=277
										277:[housing<1] yes=319,no=320,missing=319
											319:leaf=-0.0952269882
											320:[day_of_week<2] yes=357,no=358,missing=357
												357:[duration<681] yes=383,no=384,missing=383
													383:[education<2] yes=401,no=402,missing=401
														401:leaf=-0.0297916122
														402:leaf=0.0782826766
													384:leaf=-0.0569719374
												358:[job<8] yes=385,no=386,missing=385
													385:leaf=-0.0799918696
													386:[duration<680] yes=403,no=404,missing=403
														403:leaf=-0.0480345674
														404:leaf=0.0213632267
										278:[duration<820] yes=321,no=322,missing=321
											321:[duration<812] yes=359,no=360,missing=359
												359:[day_of_week<1] yes=387,no=388,missing=387
													387:[housing<1] yes=405,no=406,missing=405
														405:leaf=0.046221409
														406:leaf=-0.0493266322
													388:[duration<735] yes=407,no=408,missing=407
														407:leaf=0.0198904611
														408:[age<35] yes=413,no=414,missing=413
															413:[education<3] yes=419,no=420,missing=419
																419:leaf=0.0367437676
																420:[job<7] yes=423,no=424,missing=423
																	423:leaf=-0.0894654691
																	424:leaf=-0.029134687
															414:[age<50] yes=421,no=422,missing=421
																421:[campaign<6] yes=425,no=426,missing=425
																	425:[duration<747] yes=429,no=430,missing=429
																		429:leaf=-0.0296897013
																		430:leaf=-0.0944050327
																	426:leaf=-0.0201862268
																422:[age<55] yes=427,no=428,missing=427
																	427:[duration<763] yes=431,no=432,missing=431
																		431:leaf=-0.00882856362
																		432:leaf=0.021018872
																	428:leaf=-0.0806774199
												360:[euribor3m<4.85750008] yes=389,no=390,missing=389
													389:leaf=-0.0358694643
													390:leaf=0.0487001836
											322:leaf=-0.0899313986
									228:leaf=-0.00882120151
								180:[marital<1] yes=229,no=230,missing=229
									229:[age<40] yes=279,no=280,missing=279
										279:leaf=-0.0426519141
										280:leaf=0.0535664745
									230:[euribor3m<4.96049976] yes=281,no=282,missing=281
										281:[job<2] yes=323,no=324,missing=323
											323:[education<3] yes=361,no=362,missing=361
												361:leaf=0.0283561703
												362:leaf=-0.0127083035
											324:[duration<743] yes=363,no=364,missing=363
												363:leaf=0.0173260402
												364:leaf=-0.0705620944
										282:[age<37] yes=325,no=326,missing=325
											325:[duration<699] yes=365,no=366,missing=365
												365:[duration<647] yes=391,no=392,missing=391
													391:leaf=-0.00778895197
													392:leaf=-0.0785703957
												366:leaf=0.0377563834
											326:leaf=-0.0964445919
							134:leaf=0.0150355902
						88:[age<52] yes=135,no=136,missing=135
							135:[campaign<2] yes=181,no=182,missing=181
								181:[duration<774] yes=231,no=232,missing=231
									231:[euribor3m<4.85649967] yes=283,no=284,missing=283
										283:leaf=0.0427974649
										284:[housing<2] yes=327,no=328,missing=327
											327:leaf=0.0122760748
											328:leaf=-0.0726316273
									232:leaf=0.066418916
								182:[euribor3m<4.91050005] yes=233,no=234,missing=233
									233:[marital<2] yes=285,no=286,missing=285
										285:[day_of_week<2] yes=329,no=330,missing=329
											329:leaf=-0.0287510082
											330:leaf=-0.0980852842
										286:leaf=0.00229852251
									234:[age<45] yes=287,no=288,missing=287
										287:[duration<768] yes=331,no=332,missing=331
											331:leaf=0.00145681121
											332:leaf=-0.0611939952
										288:leaf=0.0709744245
							136:leaf=-0.0874032825
		6:[duration<1594] yes=13,no=14,missing=13
			13:[emp.var.rate<-0.900000036] yes=27,no=28,missing=27
				27:[month<7] yes=53,no=54,missing=53
					53:[day_of_week<2] yes=89,no=90,missing=89
						89:[duration<1146] yes=137,no=138,missing=137
							137:leaf=-0.0137868673
							138:leaf=0.0778760239
						90:leaf=0.0891991854
					54:leaf=-0.0435755923
				28:[euribor3m<4.86199999] yes=55,no=56,missing=55
					55:[campaign<2] yes=91,no=92,missing=91
						91:[education<5] yes=139,no=140,missing=139
							139:[duration<1177] yes=183,no=184,missing=183
								183:[age<37] yes=235,no=236,missing=235
									235:[housing<1] yes=289,no=290,missing=289
										289:leaf=-0.0283115227
										290:leaf=-0.0818789303
									236:[day_of_week<3] yes=291,no=292,missing=291
										291:[job<2] yes=333,no=334,missing=333
											333:leaf=-0.0497795902
											334:leaf=0.0110540185
										292:leaf=0.0465818085
								184:[age<43] yes=237,no=238,missing=237
									237:leaf=0.0558144078
									238:leaf=-0.0204879753
							140:[age<33] yes=185,no=186,missing=185
								185:leaf=0.0692595989
								186:[age<38] yes=239,no=240,missing=239
									239:leaf=-0.0745345801
									240:[job<3] yes=293,no=294,missing=293
										293:leaf=0.0633997023
										294:leaf=5.56423574e-09
						92:[job<9] yes=141,no=142,missing=141
							141:[job<4] yes=187,no=188,missing=187
								187:[duration<944] yes=241,no=242,missing=241
									241:[duration<889] yes=295,no=296,missing=295
										295:leaf=-0.0377013162
										296:[duration<909] yes=335,no=336,missing=335
											335:leaf=0.0123789543
											336:leaf=0.0733654797
									242:[duration<1021] yes=297,no=298,missing=297
										297:leaf=-0.080626592
										298:[campaign<4] yes=337,no=338,missing=337
											337:[age<36] yes=367,no=368,missing=367
												367:[euribor3m<4.85649967] yes=393,no=394,missing=393
													393:leaf=0.0386225656
													394:leaf=-0.0908473134
												368:[marital<2] yes=395,no=396,missing=395
													395:[age<45] yes=409,no=410,missing=409
														409:[euribor3m<4.85649967] yes=415,no=416,missing=415
															415:leaf=-0.0153570259
															416:leaf=0.0484090894
														410:leaf=-0.0439873897
													396:leaf=0.0775573403
											338:[loan<2] yes=369,no=370,missing=369
												369:leaf=-0.0773292035
												370:leaf=-0.0101476442
								188:[duration<932] yes=243,no=244,missing=243
									243:leaf=-0.102614
									244:[duration<1002] yes=299,no=300,missing=299
										299:leaf=0.0451875106
										300:[age<43] yes=339,no=340,missing=339
											339:[duration<1240] yes=371,no=372,missing=371
												371:leaf=-0.0833928138
												372:leaf=-0.014508279
											340:leaf=0.0260402914
							142:[day_of_week<1] yes=189,no=190,missing=189
								189:[age<46] yes=245,no=246,missing=245
									245:leaf=-0.0121444361
									246:leaf=-0.0435082018
								190:[euribor3m<4.85750008] yes=247,no=248,missing=247
									247:leaf=0.00378724304
									248:leaf=0.0543411151
					56:[housing<1] yes=93,no=94,missing=93
						93:[euribor3m<4.96249962] yes=143,no=144,missing=143
							143:[job<6] yes=191,no=192,missing=191
								191:[age<28] yes=249,no=250,missing=249
									249:leaf=-0.0506230742
									250:[campaign<2] yes=301,no=302,missing=301
										301:[duration<1000] yes=341,no=342,missing=341
											341:[day_of_week<4] yes=373,no=374,missing=373
												373:leaf=-0.0343424901
												374:leaf=0.060506314
											342:leaf=-0.0524466187
										302:[education<1] yes=343,no=344,missing=343
											343:leaf=-0.0214791019
											344:[duration<1428] yes=375,no=376,missing=375
												375:[duration<991] yes=397,no=398,missing=397
													397:[age<37] yes=411,no=412,missing=411
														411:leaf=0.0835034922
														412:[day_of_week<3] yes=417,no=418,missing=417
															417:leaf=0.0399420299
															418:leaf=-0.0732664391
													398:leaf=0.1011796
												376:leaf=-0.0123300618
								192:[duration<889] yes=251,no=252,missing=251
									251:leaf=0.0224947967
									252:leaf=0.101559326
							144:[education<4] yes=193,no=194,missing=193
								193:leaf=0.0340007879
								194:leaf=-0.0833408087
						94:[job<2] yes=145,no=146,missing=145
							145:[loan<1] yes=195,no=196,missing=195
								195:[marital<2] yes=253,no=254,missing=253
									253:[age<42] yes=303,no=304,missing=303
										303:[day_of_week<3] yes=345,no=346,missing=345
											345:leaf=-0.0685660392
											346:leaf=0.0330199003
										304:[campaign<3] yes=347,no=348,missing=347
											347:leaf=0.0692611262
											348:leaf=-0.00455756905
									254:[duration<1072] yes=305,no=306,missing=305
										305:leaf=0.084792845
										306:leaf=0.0116228424
								196:leaf=-0.0427825786
							146:[age<51] yes=197,no=198,missing=197
								197:[euribor3m<4.86450005] yes=255,no=256,missing=255
									255:leaf=0.0123308292
									256:[duration<1228] yes=307,no=308,missing=307
										307:leaf=-0.0869384781
										308:leaf=-0.0209427364
								198:leaf=0.0541715771
			14:[campaign<3] yes=29,no=30,missing=29
				29:[age<45] yes=57,no=58,missing=57
					57:leaf=0.0897743031
					58:[age<54] yes=95,no=96,missing=95
						95:leaf=-0.0132399108
						96:leaf=0.0658192337
				30:[job<2] yes=59,no=60,missing=59
					59:leaf=0.0582339801
					60:leaf=-0.0688121915
booster[4]:
0:[duration<615] yes=1,no=2,missing=1
	1:[nr.employed<5087.65039] yes=3,no=4,missing=3
		3:[duration<166] yes=7,no=8,missing=7
			7:[pdays<4] yes=15,no=16,missing=15
				15:[age<46] yes=31,no=32,missing=31
					31:leaf=0.0497023687
					32:leaf=-0.0455108583
				16:[euribor3m<0.739500046] yes=33,no=34,missing=33
					33:[duration<103] yes=61,no=62,missing=61
						61:leaf=-0.096870549
						62:[cons.price.idx<93.5590057] yes=99,no=100,missing=99
							99:[marital<2] yes=151,no=152,missing=151
								151:[duration<141] yes=201,no=202,missing=201
									201:leaf=-0.0551742688
									202:leaf=0.018490158
								152:leaf=0.0675121024
							100:leaf=-0.0797974393
					34:leaf=-0.0938421935
			8:[pdays<14] yes=17,no=18,missing=17
				17:[cons.price.idx<94.2070007] yes=35,no=36,missing=35
					35:[cons.price.idx<92.4049988] yes=63,no=64,missing=63
						63:[duration<254] yes=101,no=102,missing=101
							101:leaf=-0.0132928817
							102:leaf=0.047239054
						64:[euribor3m<0.90199995] yes=103,no=104,missing=103
							103:[age<31] yes=153,no=154,missing=153
								153:leaf=0.0280180518
								154:[education<1] yes=203,no=204,missing=203
									203:leaf=0.0312706195
									204:leaf=0.104649208
							104:leaf=0.0349883847
					36:[duration<281] yes=65,no=66,missing=65
						65:leaf=-0.0479271226
						66:leaf=0.0397049151
				18:[contact<1] yes=37,no=38,missing=37
					37:[duration<362] yes=67,no=68,missing=67
						67:[campaign<4] yes=105,no=106,missing=105
							105:[day_of_week<3] yes=155,no=156,missing=155
								155:[age<59] yes=205,no=206,missing=205
									205:[duration<313] yes=253,no=254,missing=253
										253:[cons.price.idx<94.2070007] yes=307,no=308,missing=307
											307:[duration<238] yes=357,no=358,missing=357
												357:[duration<216] yes=389,no=390,missing=389
													389:[housing<1] yes=425,no=426,missing=425
														425:leaf=-0.0113932285
														426:leaf=0.0924366638
													390:[duration<229] yes=427,no=428,missing=427
														427:leaf=-0.0740887672
														428:leaf=0.0100934543
												358:[age<48] yes=391,no=392,missing=391
													391:leaf=0.0941845477
													392:leaf=0.00546924397
											308:leaf=-0.0399944223
										254:[euribor3m<0.876000047] yes=309,no=310,missing=309
											309:leaf=-0.0544089675
											310:leaf=0.0166039392
									206:[age<72] yes=255,no=256,missing=255
										255:leaf=-0.0839493275
										256:leaf=-0.0100606587
								156:[education<2] yes=207,no=208,missing=207
									207:leaf=0.0689286739
									208:[loan<1] yes=257,no=258,missing=257
										257:[duration<293] yes=311,no=312,missing=311
											311:[duration<186] yes=359,no=360,missing=359
												359:leaf=-0.0203951839
												360:leaf=-0.0907419622
											312:leaf=-0.0133759808
										258:leaf=0.012652942
							106:[emp.var.rate<-1.75] yes=157,no=158,missing=157
								157:leaf=0.0708579794
								158:leaf=0.0106958365
						68:[age<36] yes=107,no=108,missing=107
							107:[cons.conf.idx<-40.1500015] yes=159,no=160,missing=159
								159:[education<5] yes=209,no=210,missing=209
									209:leaf=0.0672135651
									210:leaf=-0
								160:[housing<1] yes=211,no=212,missing=211
									211:leaf=0.0132800881
									212:leaf=-0.058517348
							108:[education<3] yes=161,no=162,missing=161
								161:leaf=-0
								162:[cons.conf.idx<-40.5499992] yes=213,no=214,missing=213
									213:leaf=0.0288031977
									214:leaf=0.0935685113
					38:[emp.var.rate<-1.75] yes=69,no=70,missing=69
						69:leaf=-0.0877781808
						70:leaf=-0.00834014174
		4:[duration<458] yes=9,no=10,missing=9
			9:[cons.conf.idx<-48.5499992] yes=19,no=20,missing=19
				19:[duration<221] yes=39,no=40,missing=39
					39:[duration<120] yes=71,no=72,missing=71
						71:leaf=-0.0518176891
						72:[duration<160] yes=109,no=110,missing=109
							109:leaf=0.0184877943
							110:leaf=-0.0127242664
					40:leaf=0.0718787462
				20:[month<8] yes=41,no=42,missing=41
					41:[age<64] yes=73,no=74,missing=73
						73:[pdays<4] yes=111,no=112,missing=111
							111:[pdays<3] yes=163,no=164,missing=163
								163:leaf=-0.0691656992
								164:leaf=0.00194416544
							112:[month<1] yes=165,no=166,missing=165
								165:[age<58] yes=215,no=216,missing=215
									215:[euribor3m<1.40249991] yes=259,no=260,missing=259
										259:[job<1] yes=313,no=314,missing=313
											313:leaf=0.0102954973
											314:leaf=-0.0759690255
										260:[euribor3m<1.48099995] yes=315,no=316,missing=315
											315:leaf=-0.0996553972
											316:leaf=-0.0298229679
									216:leaf=-0.00619876571
								166:leaf=-0.111281425
						74:leaf=-0
					42:leaf=0.0132800881
			10:[euribor3m<1.29500008] yes=21,no=22,missing=21
				21:[campaign<2] yes=43,no=44,missing=43
					43:[duration<561] yes=75,no=76,missing=75
						75:leaf=-0.00112172333
						76:leaf=0.0422691964
					44:leaf=-0.0460999049
				22:[month<5] yes=45,no=46,missing=45
					45:[age<59] yes=77,no=78,missing=77
						77:[campaign<15] yes=113,no=114,missing=113
							113:[loan<1] yes=167,no=168,missing=167
								167:[day_of_week<4] yes=217,no=218,missing=217
									217:[duration<461] yes=261,no=262,missing=261
										261:leaf=-0.0162751451
										262:[euribor3m<1.45949996] yes=317,no=318,missing=317
											317:[duration<501] yes=361,no=362,missing=361
												361:leaf=-0.00496620173
												362:leaf=-0.0432356112
											318:[duration<554] yes=363,no=364,missing=363
												363:[campaign<4] yes=393,no=394,missing=393
													393:[cons.conf.idx<-38.9499969] yes=429,no=430,missing=429
														429:leaf=-0.0897862613
														430:leaf=-0.0311416965
													394:[age<38] yes=431,no=432,missing=431
														431:[job<3] yes=449,no=450,missing=449
															449:leaf=-0.0354123525
															450:leaf=0.0332803018
														432:leaf=-0.0811647847
												364:[duration<557] yes=395,no=396,missing=395
													395:leaf=0.0378526635
													396:[education<2] yes=433,no=434,missing=433
														433:[duration<575] yes=451,no=452,missing=451
															451:leaf=-0.0209263638
															452:leaf=0.0577615276
														434:[cons.conf.idx<-42.25] yes=453,no=454,missing=453
															453:[education<4] yes=465,no=466,missing=465
																465:leaf=0.00389541313
																466:leaf=-0.0695801228
															454:leaf=-0.101507954
									218:[education<6] yes=263,no=264,missing=263
										263:[duration<537] yes=319,no=320,missing=319
											319:leaf=-0.0853846669
											320:[education<3] yes=365,no=366,missing=365
												365:[duration<568] yes=397,no=398,missing=397
													397:leaf=0.0476428978
													398:leaf=-0.0117643019
												366:leaf=-0.0735157132
										264:[duration<521] yes=321,no=322,missing=321
											321:leaf=-0.0666180626
											322:leaf=0.0660449937
								168:leaf=-0.0969423205
							114:leaf=-0
						78:[housing<2] yes=115,no=116,missing=115
							115:leaf=-0.0400377959
							116:leaf=0.049699109
					46:[previous<1] yes=79,no=80,missing=79
						79:[age<57] yes=117,no=118,missing=117
							117:leaf=-0.0954657421
							118:[campaign<5] yes=169,no=170,missing=169
								169:[job<6] yes=219,no=220,missing=219
									219:[duration<539] yes=265,no=266,missing=265
										265:leaf=-0.0981482491
										266:[duration<573] yes=323,no=324,missing=323
											323:leaf=-0.0012422282
											324:leaf=-0.0642082468
									220:leaf=-0.0164505225
								170:leaf=0.0256527122
						80:[age<34] yes=119,no=120,missing=119
							119:leaf=-0.00456270156
							120:leaf=-0.0734559447
	2:[duration<854] yes=5,no=6,missing=5
		5:[contact<1] yes=11,no=12,missing=11
			11:[nr.employed<5020.5] yes=23,no=24,missing=23
				23:leaf=0.0693264902
				24:[age<35] yes=47,no=48,missing=47
					47:[age<30] yes=81,no=82,missing=81
						81:[duration<759] yes=121,no=122,missing=121
							121:[job<1] yes=171,no=172,missing=171
								171:leaf=0.0134599134
								172:leaf=-0.0870861635
							122:leaf=0.0402934328
						82:[month<5] yes=123,no=124,missing=123
							123:[marital<2] yes=173,no=174,missing=173
								173:[housing<1] yes=221,no=222,missing=221
									221:leaf=-0.0045745289
									222:[day_of_week<3] yes=267,no=268,missing=267
										267:leaf=0.0118052578
										268:leaf=0.0750572756
								174:leaf=0.0853211358
							124:[euribor3m<1.32850003] yes=175,no=176,missing=175
								175:leaf=0.0108477548
								176:leaf=-0.0168113541
					48:[duration<808] yes=83,no=84,missing=83
						83:[marital<1] yes=125,no=126,missing=125
							125:[age<46] yes=177,no=178,missing=177
								177:leaf=-0.0170395337
								178:leaf=0.0407391973
							126:[job<8] yes=179,no=180,missing=179
								179:[day_of_week<4] yes=223,no=224,missing=223
									223:[duration<629] yes=269,no=270,missing=269
										269:leaf=0.0200008117
										270:[age<52] yes=325,no=326,missing=325
											325:[education<6] yes=367,no=368,missing=367
												367:[default<1] yes=399,no=400,missing=399
													399:[duration<662] yes=435,no=436,missing=435
														435:leaf=-0.0061286143
														436:leaf=0.0775242597
													400:leaf=-0.0490683019
												368:[duration<703] yes=401,no=402,missing=401
													401:leaf=-0.0865527391
													402:leaf=0.00183975103
											326:leaf=-0.0843752623
									224:leaf=-0.0927645564
								180:[duration<731] yes=225,no=226,missing=225
									225:[default<1] yes=271,no=272,missing=271
										271:leaf=0.0254914742
										272:leaf=-0.0745879188
									226:leaf=0.0353524722
						84:[age<48] yes=127,no=128,missing=127
							127:leaf=-0.0415709652
							128:leaf=0.0800159201
			12:[age<29] yes=25,no=26,missing=25
				25:[duration<774] yes=49,no=50,missing=49
					49:[duration<693] yes=85,no=86,missing=85
						85:[euribor3m<4.95849991] yes=129,no=130,missing=129
							129:[euribor3m<4.8579998] yes=181,no=182,missing=181
								181:leaf=-0.0424087606
								182:[day_of_week<1] yes=227,no=228,missing=227
									227:leaf=0.0487766229
									228:leaf=-0.0116238855
							130:leaf=-0.0822021514
						86:[marital<2] yes=131,no=132,missing=131
							131:leaf=0.0825175494
							132:leaf=0.0116704199
					50:leaf=-0.0727571025
				26:[emp.var.rate<-0.349999964] yes=51,no=52,missing=51
					51:leaf=0.0403256677
					52:[loan<1] yes=87,no=88,missing=87
						87:[job<11] yes=133,no=134,missing=133
							133:[euribor3m<4.85949993] yes=183,no=184,missing=183
								183:[day_of_week<1] yes=229,no=230,missing=229
									229:[default<1] yes=273,no=274,missing=273
										273:[duration<775] yes=327,no=328,missing=327
											327:leaf=-0.0756047517
											328:[duration<807] yes=369,no=370,missing=369
												369:leaf=0.0438354574
												370:leaf=-0.0729263127
										274:leaf=0.0161889512
									230:[job<8] yes=275,no=276,missing=275
										275:[duration<622] yes=329,no=330,missing=329
											329:leaf=-0.00600702362
											330:[campaign<3] yes=371,no=372,missing=371
												371:leaf=-0.0879419222
												372:[duration<759] yes=403,no=404,missing=403
													403:[duration<743] yes=437,no=438,missing=437
														437:[campaign<4] yes=455,no=456,missing=455
															455:[duration<688] yes=467,no=468,missing=467
																467:leaf=0.0280903094
																468:leaf=-0.043873284
															456:leaf=-0.0863529593
														438:leaf=0.0555217937
													404:leaf=-0.0931401476
										276:[age<36] yes=331,no=332,missing=331
											331:leaf=0.0240743998
											332:[age<47] yes=373,no=374,missing=373
												373:leaf=-0.0860836729
												374:leaf=0.00771531975
								184:[day_of_week<4] yes=231,no=232,missing=231
									231:[duration<676] yes=277,no=278,missing=277
										277:[duration<619] yes=333,no=334,missing=333
											333:leaf=-0.00799533445
											334:leaf=-0.0856256187
										278:[duration<698] yes=335,no=336,missing=335
											335:[campaign<3] yes=375,no=376,missing=375
												375:[euribor3m<4.96000004] yes=405,no=406,missing=405
													405:leaf=-0.0446764342
													406:leaf=0.00531677715
												376:leaf=0.0609614886
											336:[marital<2] yes=377,no=378,missing=377
												377:[euribor3m<4.91050005] yes=407,no=408,missing=407
													407:[education<4] yes=439,no=440,missing=439
														439:[duration<729] yes=457,no=458,missing=457
															457:leaf=-0.0681129992
															458:[month<5] yes=469,no=470,missing=469
																469:leaf=0.0539085604
																470:[job<3] yes=475,no=476,missing=475
																	475:leaf=-0.0473569818
																	476:leaf=0.0345762447
														440:leaf=-0.0857436433
													408:leaf=-0.0840633884
												378:[education<6] yes=409,no=410,missing=409
													409:leaf=-0.0581742823
													410:[job<2] yes=441,no=442,missing=441
														441:leaf=-0.0299300291
														442:leaf=0.0389022008
									232:[age<51] yes=279,no=280,missing=279
										279:[age<42] yes=337,no=338,missing=337
											337:[education<3] yes=379,no=380,missing=379
												379:leaf=0.0522536673
												380:[age<33] yes=411,no=412,missing=411
													411:leaf=-0.0718009546
													412:leaf=0.0216043554
											338:leaf=-0.0730796456
										280:leaf=0.0737929791
							134:leaf=0.0144524937
						88:[age<52] yes=135,no=136,missing=135
							135:[campaign<2] yes=185,no=186,missing=185
								185:[age<48] yes=233,no=234,missing=233
									233:[euribor3m<4.85949993] yes=281,no=282,missing=281
										281:[age<36] yes=339,no=340,missing=339
											339:leaf=0.0447963998
											340:leaf=-0.0168782156
										282:leaf=-0.0385628454
									234:leaf=0.0735587627
								186:[euribor3m<4.91050005] yes=235,no=236,missing=235
									235:[marital<2] yes=283,no=284,missing=283
										283:[day_of_week<2] yes=341,no=342,missing=341
											341:leaf=-0.0273840185
											342:leaf=-0.0938315541
										284:leaf=0.00220198208
									236:[age<45] yes=285,no=286,missing=285
										285:[duration<768] yes=343,no=344,missing=343
											343:leaf=0.00138890254
											344:leaf=-0.0586296804
										286:leaf=0.0685280189
							136:leaf=-0.0839094296
		6:[duration<1594] yes=13,no=14,missing=13
			13:[emp.var.rate<-0.900000036] yes=27,no=28,missing=27
				27:[month<7] yes=53,no=54,missing=53
					53:[day_of_week<2] yes=89,no=90,missing=89
						89:[duration<1146] yes=137,no=138,missing=137
							137:leaf=-0.0131156063
							138:leaf=0.0750203356
						90:leaf=0.0850660801
					54:leaf=-0.0419357494
				28:[euribor3m<4.86199999] yes=55,no=56,missing=55
					55:[campaign<2] yes=91,no=92,missing=91
						91:[education<5] yes=139,no=140,missing=139
							139:[duration<1177] yes=187,no=188,missing=187
								187:[age<37] yes=237,no=238,missing=237
									237:[housing<1] yes=287,no=288,missing=287
										287:leaf=-0.0269670356
										288:leaf=-0.0787536129
									238:[day_of_week<3] yes=289,no=290,missing=289
										289:[day_of_week<1] yes=345,no=346,missing=345
											345:leaf=0.0173665602
											346:leaf=-0.0430745929
										290:leaf=0.0444598012
								188:[age<43] yes=239,no=240,missing=239
									239:leaf=0.0535409413
									240:leaf=-0.019542262
							140:[age<33] yes=189,no=190,missing=189
								189:leaf=0.0662498102
								190:[age<38] yes=241,no=242,missing=241
									241:leaf=-0.0718787462
									242:[job<3] yes=291,no=292,missing=291
										291:leaf=0.0603784323
										292:leaf=-0
						92:[duration<891] yes=141,no=142,missing=141
							141:[duration<865] yes=191,no=192,missing=191
								191:leaf=-0.00846583396
								192:leaf=-0.0881726593
							142:[duration<901] yes=193,no=194,missing=193
								193:leaf=0.0499965586
								194:[age<48] yes=243,no=244,missing=243
									243:[education<7] yes=293,no=294,missing=293
										293:[duration<1251] yes=347,no=348,missing=347
											347:[age<34] yes=381,no=382,missing=381
												381:[euribor3m<4.85550022] yes=413,no=414,missing=413
													413:leaf=0.0423221812
													414:[campaign<4] yes=443,no=444,missing=443
														443:[duration<972] yes=459,no=460,missing=459
															459:leaf=-0.0009344024
															460:[job<8] yes=471,no=472,missing=471
																471:leaf=-0.0703659132
																472:leaf=-0.012499732
														444:leaf=0.0175806582
												382:[age<37] yes=415,no=416,missing=415
													415:leaf=-0.090797767
													416:[marital<2] yes=445,no=446,missing=445
														445:[housing<1] yes=461,no=462,missing=461
															461:leaf=-0.0776439533
															462:[duration<1043] yes=473,no=474,missing=473
																473:[duration<986] yes=477,no=478,missing=477
																	477:leaf=-0.00470207538
																	478:leaf=-0.075387165
																474:leaf=0.00439876784
														446:leaf=0.0409227833
											348:[duration<1438] yes=383,no=384,missing=383
												383:[age<38] yes=417,no=418,missing=417
													417:leaf=0.000185586105
													418:leaf=0.0695685819
												384:leaf=-0.0462319553
										294:leaf=0.0202376563
									244:[day_of_week<1] yes=295,no=296,missing=295
										295:leaf=-0.0348129533
										296:[euribor3m<4.85649967] yes=349,no=350,missing=349
											349:leaf=-0.0236836858
											350:leaf=0.0686464161
					56:[housing<1] yes=93,no=94,missing=93
						93:[age<26] yes=143,no=144,missing=143
							143:leaf=-0.0536081381
							144:[euribor3m<4.96249962] yes=195,no=196,missing=195
								195:[duration<872] yes=245,no=246,missing=245
									245:[campaign<2] yes=297,no=298,missing=297
										297:leaf=0.011268341
										298:leaf=-0.070977442
									246:[job<6] yes=299,no=300,missing=299
										299:[campaign<2] yes=351,no=352,missing=351
											351:[duration<1000] yes=385,no=386,missing=385
												385:[day_of_week<4] yes=419,no=420,missing=419
													419:leaf=-0.0275178608
													420:leaf=0.042794656
												386:[duration<1139] yes=421,no=422,missing=421
													421:leaf=-0.0711625889
													422:leaf=-0.000734450296
											352:[education<1] yes=387,no=388,missing=387
												387:leaf=-0.0204859804
												388:[duration<1428] yes=423,no=424,missing=423
													423:[duration<991] yes=447,no=448,missing=447
														447:[age<37] yes=463,no=464,missing=463
															463:leaf=0.0802368671
															464:leaf=-0.0129861264
														448:leaf=0.0974843353
													424:leaf=-0.0117320204
										300:leaf=0.106720902
								196:[education<4] yes=247,no=248,missing=247
									247:leaf=0.0325295515
									248:leaf=-0.0800318569
						94:[job<2] yes=145,no=146,missing=145
							145:[loan<1] yes=197,no=198,missing=197
								197:[marital<2] yes=249,no=250,missing=249
									249:[euribor3m<4.96049976] yes=301,no=302,missing=301
										301:[age<42] yes=353,no=354,missing=353
											353:leaf=-0.0534231924
											354:leaf=0.0239764061
										302:[duration<1197] yes=355,no=356,missing=355
											355:leaf=0.0616849624
											356:leaf=0.00825855043
									250:[euribor3m<4.96000004] yes=303,no=304,missing=303
										303:leaf=0.0819194242
										304:leaf=0.0105024837
								198:leaf=-0.0411840528
							146:[age<51] yes=199,no=200,missing=199
								199:[euribor3m<4.86450005] yes=251,no=252,missing=251
									251:leaf=0.0118570989
									252:[duration<1228] yes=305,no=306,missing=305
										305:leaf=-0.0821565464
										306:leaf=-0.0199761819
								200:leaf=0.0516276211
			14:[campaign<3] yes=29,no=30,missing=29
				29:[age<45] yes=57,no=58,missing=57
					57:[day_of_week<2] yes=95,no=96,missing=95
						95:[duration<1843] yes=147,no=148,missing=147
							147:leaf=0.0723625049
							148:leaf=0.00563798798
						96:leaf=0.0999337435
					58:[education<4] yes=97,no=98,missing=97
						97:[euribor3m<4.86199999] yes=149,no=150,missing=149
							149:leaf=-0.0465207137
							150:leaf=0.0307113472
						98:leaf=0.0734487697
				30:[job<2] yes=59,no=60,missing=59
					59:leaf=0.055811841
					60:leaf=-0.0656970218
booster[5]:
0:[duration<615] yes=1,no=2,missing=1
	1:[nr.employed<5087.65039] yes=3,no=4,missing=3
		3:[duration<166] yes=7,no=8,missing=7
			7:[pdays<4] yes=15,no=16,missing=15
